<GAP_2021_9_27_0_1_17_37_618>
<Potential label="GAP_2021_9_27_0_1_17_37_618" init_args="IP GAP label=GAP_2021_9_27_0_1_17_37_618"/>
<GAP_params label="GAP_2021_9_27_0_1_17_37_618" gap_version="1548461341">
  <GAP_data do_core="F">
    <e0 Z="1" value=".00000000000000000E+000"/>
    <e0 Z="2" value=".00000000000000000E+000"/>
    <e0 Z="3" value="-.43252054000000001"/>
    <e0 Z="4" value=".00000000000000000E+000"/>
    <e0 Z="5" value=".00000000000000000E+000"/>
    <e0 Z="6" value=".00000000000000000E+000"/>
    <e0 Z="7" value=".00000000000000000E+000"/>
    <e0 Z="8" value=".00000000000000000E+000"/>
    <e0 Z="9" value=".00000000000000000E+000"/>
    <e0 Z="10" value=".00000000000000000E+000"/>
    <e0 Z="11" value=".00000000000000000E+000"/>
    <e0 Z="12" value=".00000000000000000E+000"/>
    <e0 Z="13" value=".00000000000000000E+000"/>
    <e0 Z="14" value=".00000000000000000E+000"/>
    <e0 Z="15" value=".00000000000000000E+000"/>
    <e0 Z="16" value=".00000000000000000E+000"/>
    <e0 Z="17" value="-5.9150015600000003"/>
    <e0 Z="18" value=".00000000000000000E+000"/>
    <e0 Z="19" value="-7.3225190299999996"/>
    <e0 Z="20" value=".00000000000000000E+000"/>
    <e0 Z="21" value=".00000000000000000E+000"/>
    <e0 Z="22" value=".00000000000000000E+000"/>
    <e0 Z="23" value=".00000000000000000E+000"/>
    <e0 Z="24" value=".00000000000000000E+000"/>
    <e0 Z="25" value=".00000000000000000E+000"/>
    <e0 Z="26" value=".00000000000000000E+000"/>
    <e0 Z="27" value=".00000000000000000E+000"/>
    <e0 Z="28" value=".00000000000000000E+000"/>
    <e0 Z="29" value=".00000000000000000E+000"/>
    <e0 Z="30" value=".00000000000000000E+000"/>
    <e0 Z="31" value=".00000000000000000E+000"/>
    <e0 Z="32" value=".00000000000000000E+000"/>
    <e0 Z="33" value=".00000000000000000E+000"/>
    <e0 Z="34" value=".00000000000000000E+000"/>
    <e0 Z="35" value=".00000000000000000E+000"/>
    <e0 Z="36" value=".00000000000000000E+000"/>
    <e0 Z="37" value=".00000000000000000E+000"/>
    <e0 Z="38" value=".00000000000000000E+000"/>
    <e0 Z="39" value=".00000000000000000E+000"/>
    <e0 Z="40" value=".00000000000000000E+000"/>
    <e0 Z="41" value=".00000000000000000E+000"/>
    <e0 Z="42" value=".00000000000000000E+000"/>
    <e0 Z="43" value=".00000000000000000E+000"/>
    <e0 Z="44" value=".00000000000000000E+000"/>
    <e0 Z="45" value=".00000000000000000E+000"/>
    <e0 Z="46" value=".00000000000000000E+000"/>
    <e0 Z="47" value=".00000000000000000E+000"/>
    <e0 Z="48" value=".00000000000000000E+000"/>
    <e0 Z="49" value=".00000000000000000E+000"/>
    <e0 Z="50" value=".00000000000000000E+000"/>
    <e0 Z="51" value=".00000000000000000E+000"/>
    <e0 Z="52" value=".00000000000000000E+000"/>
    <e0 Z="53" value=".00000000000000000E+000"/>
    <e0 Z="54" value=".00000000000000000E+000"/>
    <e0 Z="55" value=".00000000000000000E+000"/>
    <e0 Z="56" value=".00000000000000000E+000"/>
    <e0 Z="57" value=".00000000000000000E+000"/>
    <e0 Z="58" value=".00000000000000000E+000"/>
    <e0 Z="59" value=".00000000000000000E+000"/>
    <e0 Z="60" value=".00000000000000000E+000"/>
    <e0 Z="61" value=".00000000000000000E+000"/>
    <e0 Z="62" value=".00000000000000000E+000"/>
    <e0 Z="63" value=".00000000000000000E+000"/>
    <e0 Z="64" value=".00000000000000000E+000"/>
    <e0 Z="65" value=".00000000000000000E+000"/>
    <e0 Z="66" value=".00000000000000000E+000"/>
    <e0 Z="67" value=".00000000000000000E+000"/>
    <e0 Z="68" value=".00000000000000000E+000"/>
    <e0 Z="69" value=".00000000000000000E+000"/>
    <e0 Z="70" value=".00000000000000000E+000"/>
    <e0 Z="71" value=".00000000000000000E+000"/>
    <e0 Z="72" value=".00000000000000000E+000"/>
    <e0 Z="73" value=".00000000000000000E+000"/>
    <e0 Z="74" value=".00000000000000000E+000"/>
    <e0 Z="75" value=".00000000000000000E+000"/>
    <e0 Z="76" value=".00000000000000000E+000"/>
    <e0 Z="77" value=".00000000000000000E+000"/>
    <e0 Z="78" value=".00000000000000000E+000"/>
    <e0 Z="79" value=".00000000000000000E+000"/>
    <e0 Z="80" value=".00000000000000000E+000"/>
    <e0 Z="81" value=".00000000000000000E+000"/>
    <e0 Z="82" value=".00000000000000000E+000"/>
    <e0 Z="83" value=".00000000000000000E+000"/>
    <e0 Z="84" value=".00000000000000000E+000"/>
    <e0 Z="85" value=".00000000000000000E+000"/>
    <e0 Z="86" value=".00000000000000000E+000"/>
    <e0 Z="87" value=".00000000000000000E+000"/>
    <e0 Z="88" value=".00000000000000000E+000"/>
    <e0 Z="89" value=".00000000000000000E+000"/>
    <e0 Z="90" value=".00000000000000000E+000"/>
    <e0 Z="91" value=".00000000000000000E+000"/>
    <e0 Z="92" value=".00000000000000000E+000"/>
    <e0 Z="93" value=".00000000000000000E+000"/>
    <e0 Z="94" value=".00000000000000000E+000"/>
    <e0 Z="95" value=".00000000000000000E+000"/>
    <e0 Z="96" value=".00000000000000000E+000"/>
    <e0 Z="97" value=".00000000000000000E+000"/>
    <e0 Z="98" value=".00000000000000000E+000"/>
    <e0 Z="99" value=".00000000000000000E+000"/>
    <e0 Z="100" value=".00000000000000000E+000"/>
    <e0 Z="101" value=".00000000000000000E+000"/>
    <e0 Z="102" value=".00000000000000000E+000"/>
    <e0 Z="103" value=".00000000000000000E+000"/>
    <e0 Z="104" value=".00000000000000000E+000"/>
    <e0 Z="105" value=".00000000000000000E+000"/>
    <e0 Z="106" value=".00000000000000000E+000"/>
    <e0 Z="107" value=".00000000000000000E+000"/>
    <e0 Z="108" value=".00000000000000000E+000"/>
    <e0 Z="109" value=".00000000000000000E+000"/>
    <e0 Z="110" value=".00000000000000000E+000"/>
    <e0 Z="111" value=".00000000000000000E+000"/>
    <e0 Z="112" value=".00000000000000000E+000"/>
    <e0 Z="113" value=".00000000000000000E+000"/>
    <e0 Z="114" value=".00000000000000000E+000"/>
    <e0 Z="115" value=".00000000000000000E+000"/>
    <e0 Z="116" value=".00000000000000000E+000"/>
    <e0 Z="117" value=".00000000000000000E+000"/>
    <e0 Z="118" value=".00000000000000000E+000"/>
  </GAP_data>
  <gpSparse label="GAP_2021_9_27_0_1_17_37_618" n_coordinate="9">
    <gpCoordinates label="GAP_2021_9_27_0_1_17_37_6181" dimensions="1" signal_variance="2.7400000000000002" signal_mean=".00000000000000000E+000" sparsified="T" n_permutations="2" covariance_type="1" n_sparseX="65" sparseX_filename="gap_LiKCl.xml.sparseX.GAP_2021_9_27_0_1_17_37_6181" sparseX_md5sum="">
      <theta>  0.10000000000000000E+001 </theta>
      <descriptor>distance_Nb order=2 compact_clusters=T cutoff=5.92 n_sparse=65 cutoff_transition_width=1.0 sparse_method=uniform delta=2.74 covariance_type=ard_se theta_uniform=1.0             Z={17 17 }</descriptor>
      <permutation i="1">1  </permutation>
      <permutation i="2">1  </permutation>
      <sparseX i="1" alpha="177.18208607600343" sparseCutoff="1.0000000000000000"/>
      <sparseX i="2" alpha="488.80648851670367" sparseCutoff="1.0000000000000000"/>
      <sparseX i="3" alpha="-1122.0109701506101" sparseCutoff=".32926083223400976"/>
      <sparseX i="4" alpha="-1551.6120621896034" sparseCutoff=".96975240249491068"/>
      <sparseX i="5" alpha="-271.93163597731535" sparseCutoff=".78713975956568683"/>
      <sparseX i="6" alpha="1735.0869165792578" sparseCutoff="1.0000000000000000"/>
      <sparseX i="7" alpha="-129.25524803134863" sparseCutoff=".39569429410146045"/>
      <sparseX i="8" alpha="1468.4196276647863" sparseCutoff=".52631704220181963"/>
      <sparseX i="9" alpha="1734.0648097359974" sparseCutoff="1.0000000000000000"/>
      <sparseX i="10" alpha="-1677.8198840398441" sparseCutoff="1.0000000000000000"/>
      <sparseX i="11" alpha="2612.7153744445868" sparseCutoff=".48568330680395067E-001"/>
      <sparseX i="12" alpha="626.23879322002574" sparseCutoff=".21224058675122226E-002"/>
      <sparseX i="13" alpha="1504.9867830158580" sparseCutoff=".64525590255245224"/>
      <sparseX i="14" alpha="-1929.2201015770672" sparseCutoff="1.0000000000000000"/>
      <sparseX i="15" alpha="-895.47989086904965" sparseCutoff="1.0000000000000000"/>
      <sparseX i="16" alpha="-1894.7311368208618" sparseCutoff=".94540275231422100"/>
      <sparseX i="17" alpha="419.38933309327530" sparseCutoff="1.0000000000000000"/>
      <sparseX i="18" alpha="-1690.2201668294078" sparseCutoff=".20253538681717576"/>
      <sparseX i="19" alpha="-1965.8590658597075" sparseCutoff="1.0000000000000000"/>
      <sparseX i="20" alpha="1984.8403823633455" sparseCutoff="1.0000000000000000"/>
      <sparseX i="21" alpha="-1835.0669876077804" sparseCutoff=".23071845144704006"/>
      <sparseX i="22" alpha="10.860673517335009" sparseCutoff=".27278200167235589E-004"/>
      <sparseX i="23" alpha="-541.95023863089341" sparseCutoff=".99405206439904159"/>
      <sparseX i="24" alpha="-1480.5477407971621" sparseCutoff="1.0000000000000000"/>
      <sparseX i="25" alpha="-70.714911882366891" sparseCutoff="1.0000000000000000"/>
      <sparseX i="26" alpha="1412.0718215495983" sparseCutoff="1.0000000000000000"/>
      <sparseX i="27" alpha="1673.1749050470003" sparseCutoff=".57200934024384331"/>
      <sparseX i="28" alpha="307.81404939591187" sparseCutoff=".11264780205485847"/>
      <sparseX i="29" alpha="1095.1313253003696" sparseCutoff="1.0000000000000000"/>
      <sparseX i="30" alpha="1828.9663675120808" sparseCutoff="1.0000000000000000"/>
      <sparseX i="31" alpha="1605.7387696281614" sparseCutoff="1.0000000000000000"/>
      <sparseX i="32" alpha="2663.8308960500290" sparseCutoff=".21389826930539368E-001"/>
      <sparseX i="33" alpha="165.88244096472187" sparseCutoff="1.0000000000000000"/>
      <sparseX i="34" alpha="889.01556095506157" sparseCutoff="1.0000000000000000"/>
      <sparseX i="35" alpha="-1927.4721667174781" sparseCutoff="1.0000000000000000"/>
      <sparseX i="36" alpha="-1294.7797532929446" sparseCutoff=".85177452731730341"/>
      <sparseX i="37" alpha="-1488.3946423575878" sparseCutoff="1.0000000000000000"/>
      <sparseX i="38" alpha="-1646.2685207202267" sparseCutoff="1.0000000000000000"/>
      <sparseX i="39" alpha="-1540.9620563041069" sparseCutoff="1.0000000000000000"/>
      <sparseX i="40" alpha="1799.6936848245352" sparseCutoff="1.0000000000000000"/>
      <sparseX i="41" alpha="330.72631904550616" sparseCutoff=".74927273352169321"/>
      <sparseX i="42" alpha="2234.6252385997004" sparseCutoff="1.0000000000000000"/>
      <sparseX i="43" alpha="-191.99421859404319" sparseCutoff="1.0000000000000000"/>
      <sparseX i="44" alpha="-1050.0435642549021" sparseCutoff="1.0000000000000000"/>
      <sparseX i="45" alpha="-911.23022102428808" sparseCutoff="1.0000000000000000"/>
      <sparseX i="46" alpha="-49.084077359648028" sparseCutoff="1.0000000000000000"/>
      <sparseX i="47" alpha="1005.2720616079499" sparseCutoff="1.0000000000000000"/>
      <sparseX i="48" alpha="904.09548450668581" sparseCutoff="1.0000000000000000"/>
      <sparseX i="49" alpha="46.479199721451522" sparseCutoff="1.0000000000000000"/>
      <sparseX i="50" alpha="2294.8323618683294" sparseCutoff="1.0000000000000000"/>
      <sparseX i="51" alpha="-508.56757640895478" sparseCutoff="1.0000000000000000"/>
      <sparseX i="52" alpha="-2764.9881604431348" sparseCutoff="1.0000000000000000"/>
      <sparseX i="53" alpha="2040.5063939718857" sparseCutoff="1.0000000000000000"/>
      <sparseX i="54" alpha="126.00871595660789" sparseCutoff="1.0000000000000000"/>
      <sparseX i="55" alpha="-1930.4080514925686" sparseCutoff="1.0000000000000000"/>
      <sparseX i="56" alpha="-2219.3092108911819" sparseCutoff="1.0000000000000000"/>
      <sparseX i="57" alpha="-1873.0843355199854" sparseCutoff="1.0000000000000000"/>
      <sparseX i="58" alpha="1881.0691443455639" sparseCutoff="1.0000000000000000"/>
      <sparseX i="59" alpha="3824.1379436767957" sparseCutoff="1.0000000000000000"/>
      <sparseX i="60" alpha="3858.0749705400112" sparseCutoff="1.0000000000000000"/>
      <sparseX i="61" alpha="-2043.5555222179148" sparseCutoff="1.0000000000000000"/>
      <sparseX i="62" alpha="1274.3839871834721" sparseCutoff="1.0000000000000000"/>
      <sparseX i="63" alpha="-4133.1554786301804" sparseCutoff="1.0000000000000000"/>
      <sparseX i="64" alpha="4540.5328846364800" sparseCutoff="1.0000000000000000"/>
      <sparseX i="65" alpha="-3897.3647057907665" sparseCutoff="1.0000000000000000"/>
    </gpCoordinates>
    <gpCoordinates label="GAP_2021_9_27_0_1_17_37_6182" dimensions="1" signal_variance="2.7400000000000002" signal_mean=".00000000000000000E+000" sparsified="T" n_permutations="1" covariance_type="1" n_sparseX="65" sparseX_filename="gap_LiKCl.xml.sparseX.GAP_2021_9_27_0_1_17_37_6182" sparseX_md5sum="">
      <theta>  0.10000000000000000E+001 </theta>
      <descriptor>distance_Nb order=2 compact_clusters=T cutoff=5.92 n_sparse=65 cutoff_transition_width=1.0 sparse_method=uniform delta=2.74 covariance_type=ard_se theta_uniform=1.0             Z={17 19 }</descriptor>
      <permutation i="1">1  </permutation>
      <sparseX i="1" alpha="-8265.1369166518471" sparseCutoff="1.0000000000000000"/>
      <sparseX i="2" alpha="-3987.8101987718778" sparseCutoff="1.0000000000000000"/>
      <sparseX i="3" alpha="12422.356746113548" sparseCutoff=".36198459402037975"/>
      <sparseX i="4" alpha="-5112.7825558575187" sparseCutoff=".30712242203260187E-002"/>
      <sparseX i="5" alpha="-7564.1192775167910" sparseCutoff="1.0000000000000000"/>
      <sparseX i="6" alpha="9041.4660718262221" sparseCutoff="1.0000000000000000"/>
      <sparseX i="7" alpha="-6303.3067018514848" sparseCutoff="1.0000000000000000"/>
      <sparseX i="8" alpha="-5958.2941136835107" sparseCutoff="1.0000000000000000"/>
      <sparseX i="9" alpha="1496.3503286623957" sparseCutoff="1.0000000000000000"/>
      <sparseX i="10" alpha="-10698.331677579648" sparseCutoff=".75627477900226447"/>
      <sparseX i="11" alpha="5550.2507955960482" sparseCutoff="1.0000000000000000"/>
      <sparseX i="12" alpha="-5504.4629547997829" sparseCutoff=".13630331493726522"/>
      <sparseX i="13" alpha="-8928.0260302755451" sparseCutoff="1.0000000000000000"/>
      <sparseX i="14" alpha="-8081.5348862525625" sparseCutoff="1.0000000000000000"/>
      <sparseX i="15" alpha="-5097.6015662070440" sparseCutoff="1.0000000000000000"/>
      <sparseX i="16" alpha="-20643.293816945494" sparseCutoff=".63981539286328604E-001"/>
      <sparseX i="17" alpha="-1208.8316562835039" sparseCutoff="1.0000000000000000"/>
      <sparseX i="18" alpha="10464.674504380668" sparseCutoff=".98732104578480273"/>
      <sparseX i="19" alpha="8824.2834367432297" sparseCutoff="1.0000000000000000"/>
      <sparseX i="20" alpha="-8151.8634741618371" sparseCutoff="1.0000000000000000"/>
      <sparseX i="21" alpha="5744.2301689976130" sparseCutoff="1.0000000000000000"/>
      <sparseX i="22" alpha="4478.6507281635286" sparseCutoff=".46475534983506006"/>
      <sparseX i="23" alpha="67.057521436101283" sparseCutoff="1.0000000000000000"/>
      <sparseX i="24" alpha="-2316.6300761633834" sparseCutoff=".86820384098308645"/>
      <sparseX i="25" alpha="-2880.7028202938181" sparseCutoff=".54249047169180475"/>
      <sparseX i="26" alpha="2881.4148496965136" sparseCutoff="1.0000000000000000"/>
      <sparseX i="27" alpha="-1469.6024060713794" sparseCutoff="1.0000000000000000"/>
      <sparseX i="28" alpha="-2329.6776911221282" sparseCutoff="1.0000000000000000"/>
      <sparseX i="29" alpha="-8264.6266561374032" sparseCutoff="1.0000000000000000"/>
      <sparseX i="30" alpha="9760.2753577336207" sparseCutoff=".99751757262338392"/>
      <sparseX i="31" alpha="-10648.765557301474" sparseCutoff=".66055970771658923"/>
      <sparseX i="32" alpha="13021.824151762457" sparseCutoff=".27183441773379063"/>
      <sparseX i="33" alpha="-1343.9845422730687" sparseCutoff="1.0000000000000000"/>
      <sparseX i="34" alpha="-11291.839133553094" sparseCutoff=".68547784080359242"/>
      <sparseX i="35" alpha="-2578.4006217048413" sparseCutoff="1.0000000000000000"/>
      <sparseX i="36" alpha="-8367.0668124199838" sparseCutoff="1.0000000000000000"/>
      <sparseX i="37" alpha="8784.9677701392102" sparseCutoff=".96216312821905736"/>
      <sparseX i="38" alpha="8272.0558093193995" sparseCutoff="1.0000000000000000"/>
      <sparseX i="39" alpha="6083.6256792857903" sparseCutoff="1.0000000000000000"/>
      <sparseX i="40" alpha="4490.6907586732623" sparseCutoff=".92504363091298702"/>
      <sparseX i="41" alpha="2772.1441133980506" sparseCutoff="1.0000000000000000"/>
      <sparseX i="42" alpha="4233.6210113238303" sparseCutoff="1.0000000000000000"/>
      <sparseX i="43" alpha="8973.4263170964823" sparseCutoff="1.0000000000000000"/>
      <sparseX i="44" alpha="4570.8029430845727" sparseCutoff="1.0000000000000000"/>
      <sparseX i="45" alpha="8722.3416198581308" sparseCutoff=".21825372746546351"/>
      <sparseX i="46" alpha="-10184.475365103181" sparseCutoff="1.0000000000000000"/>
      <sparseX i="47" alpha="-923.38491858714735" sparseCutoff=".44728880674266280E-003"/>
      <sparseX i="48" alpha="7459.1443955966988" sparseCutoff="1.0000000000000000"/>
      <sparseX i="49" alpha="-6597.2031283421738" sparseCutoff="1.0000000000000000"/>
      <sparseX i="50" alpha="-6160.9238121778199" sparseCutoff="1.0000000000000000"/>
      <sparseX i="51" alpha="-19450.954813592169" sparseCutoff=".23737270625054208E-001"/>
      <sparseX i="52" alpha="5571.1144799756139" sparseCutoff="1.0000000000000000"/>
      <sparseX i="53" alpha="-4150.1631904007236" sparseCutoff="1.0000000000000000"/>
      <sparseX i="54" alpha="-1995.1827317135410" sparseCutoff="1.0000000000000000"/>
      <sparseX i="55" alpha="-5309.6204523995330" sparseCutoff="1.0000000000000000"/>
      <sparseX i="56" alpha="-8961.8747185293323" sparseCutoff="1.0000000000000000"/>
      <sparseX i="57" alpha="7446.6232134151987" sparseCutoff="1.0000000000000000"/>
      <sparseX i="58" alpha="-5367.9810399197149" sparseCutoff="1.0000000000000000"/>
      <sparseX i="59" alpha="7570.1882732015911" sparseCutoff="1.0000000000000000"/>
      <sparseX i="60" alpha="9445.0295736979315" sparseCutoff="1.0000000000000000"/>
      <sparseX i="61" alpha="8256.4493336577852" sparseCutoff="1.0000000000000000"/>
      <sparseX i="62" alpha="8298.4601472715403" sparseCutoff="1.0000000000000000"/>
      <sparseX i="63" alpha="-1280.9121235750683" sparseCutoff="1.0000000000000000"/>
      <sparseX i="64" alpha="4861.7948103578747" sparseCutoff="1.0000000000000000"/>
      <sparseX i="65" alpha="-5218.4221150550784" sparseCutoff="1.0000000000000000"/>
    </gpCoordinates>
    <gpCoordinates label="GAP_2021_9_27_0_1_17_37_6183" dimensions="1" signal_variance="2.7400000000000002" signal_mean=".00000000000000000E+000" sparsified="T" n_permutations="2" covariance_type="1" n_sparseX="65" sparseX_filename="gap_LiKCl.xml.sparseX.GAP_2021_9_27_0_1_17_37_6183" sparseX_md5sum="">
      <theta>  0.10000000000000000E+001 </theta>
      <descriptor>distance_Nb order=2 compact_clusters=T cutoff=5.92 n_sparse=65 cutoff_transition_width=1.0 sparse_method=uniform delta=2.74 covariance_type=ard_se theta_uniform=1.0             Z={19 19 }</descriptor>
      <permutation i="1">1  </permutation>
      <permutation i="2">1  </permutation>
      <sparseX i="1" alpha="-3652.5486714593717" sparseCutoff="1.0000000000000000"/>
      <sparseX i="2" alpha="2815.7450625530655" sparseCutoff=".99802327472353580"/>
      <sparseX i="3" alpha="-4400.5372892954647" sparseCutoff=".12312246182001885E-001"/>
      <sparseX i="4" alpha="4309.7414450573051" sparseCutoff=".33021989449349487"/>
      <sparseX i="5" alpha="-3235.2562701578022" sparseCutoff=".89844434575621579E-001"/>
      <sparseX i="6" alpha="-6231.3250948183822" sparseCutoff=".33503435507439283E-001"/>
      <sparseX i="7" alpha="-2733.9279752859425" sparseCutoff="1.0000000000000000"/>
      <sparseX i="8" alpha="-4001.7499822584296" sparseCutoff=".68959042023445261"/>
      <sparseX i="9" alpha="4938.5239158767854" sparseCutoff=".25492346064697624"/>
      <sparseX i="10" alpha="-167.78163681472836" sparseCutoff="1.0000000000000000"/>
      <sparseX i="11" alpha="3520.3492437388463" sparseCutoff=".94515196492209630"/>
      <sparseX i="12" alpha="518.15173904131098" sparseCutoff="1.0000000000000000"/>
      <sparseX i="13" alpha="-581.24994728864374" sparseCutoff="1.0000000000000000"/>
      <sparseX i="14" alpha="3661.3412433219323" sparseCutoff=".98835415206584654"/>
      <sparseX i="15" alpha="3627.8487590048508" sparseCutoff=".19535989830175210"/>
      <sparseX i="16" alpha="-4971.7317374351633" sparseCutoff=".67031041821973669E-001"/>
      <sparseX i="17" alpha="3316.6746469135546" sparseCutoff="1.0000000000000000"/>
      <sparseX i="18" alpha="-484.98547632227843" sparseCutoff=".83699186842891171"/>
      <sparseX i="19" alpha="-784.32200216880324" sparseCutoff=".48980886444163352"/>
      <sparseX i="20" alpha="2116.2380887933350" sparseCutoff=".40650004626962832"/>
      <sparseX i="21" alpha="-3299.3386909659589" sparseCutoff="1.0000000000000000"/>
      <sparseX i="22" alpha="-1102.9142303949291" sparseCutoff="1.0000000000000000"/>
      <sparseX i="23" alpha="-1620.2264197688646" sparseCutoff="1.0000000000000000"/>
      <sparseX i="24" alpha="-26.337246532006137" sparseCutoff=".34340143953703883E-004"/>
      <sparseX i="25" alpha="-2757.8575752711736" sparseCutoff="1.0000000000000000"/>
      <sparseX i="26" alpha="1869.0870139323567" sparseCutoff="1.0000000000000000"/>
      <sparseX i="27" alpha="-1393.6326934691085" sparseCutoff="1.0000000000000000"/>
      <sparseX i="28" alpha="-4027.3044481457182" sparseCutoff=".64120085433752672"/>
      <sparseX i="29" alpha="2689.0783558219573" sparseCutoff="1.0000000000000000"/>
      <sparseX i="30" alpha="-3046.4548501188174" sparseCutoff=".57027312274961173"/>
      <sparseX i="31" alpha="3018.8040913717064" sparseCutoff="1.0000000000000000"/>
      <sparseX i="32" alpha="3516.5232431951313" sparseCutoff="1.0000000000000000"/>
      <sparseX i="33" alpha="2367.2331207588313" sparseCutoff=".90976056413278295"/>
      <sparseX i="34" alpha="-1714.7091487833661" sparseCutoff=".80215006773890063"/>
      <sparseX i="35" alpha="-3068.1649390652569" sparseCutoff="1.0000000000000000"/>
      <sparseX i="36" alpha="1760.5933840515495" sparseCutoff="1.0000000000000000"/>
      <sparseX i="37" alpha="2718.7048460919450" sparseCutoff="1.0000000000000000"/>
      <sparseX i="38" alpha="-3439.1377926485675" sparseCutoff="1.0000000000000000"/>
      <sparseX i="39" alpha="-2391.9548698891167" sparseCutoff="1.0000000000000000"/>
      <sparseX i="40" alpha="-24.535186058432640" sparseCutoff="1.0000000000000000"/>
      <sparseX i="41" alpha="3008.7622374544580" sparseCutoff="1.0000000000000000"/>
      <sparseX i="42" alpha="1695.6399025733040" sparseCutoff="1.0000000000000000"/>
      <sparseX i="43" alpha="-2778.2493088282422" sparseCutoff="1.0000000000000000"/>
      <sparseX i="44" alpha="-1323.9584467573225" sparseCutoff="1.0000000000000000"/>
      <sparseX i="45" alpha="-491.82390200610070" sparseCutoff="1.0000000000000000"/>
      <sparseX i="46" alpha="2171.6106292393938" sparseCutoff="1.0000000000000000"/>
      <sparseX i="47" alpha="2427.7287779625840" sparseCutoff="1.0000000000000000"/>
      <sparseX i="48" alpha="886.47764562344980" sparseCutoff="1.0000000000000000"/>
      <sparseX i="49" alpha="1335.6281533853951" sparseCutoff="1.0000000000000000"/>
      <sparseX i="50" alpha="-2783.1633196115226" sparseCutoff="1.0000000000000000"/>
      <sparseX i="51" alpha="-3209.5913332451441" sparseCutoff="1.0000000000000000"/>
      <sparseX i="52" alpha="-1261.3890384013271" sparseCutoff="1.0000000000000000"/>
      <sparseX i="53" alpha="2561.3290135626635" sparseCutoff="1.0000000000000000"/>
      <sparseX i="54" alpha="-2216.2349237687881" sparseCutoff="1.0000000000000000"/>
      <sparseX i="55" alpha="-2788.9868201696031" sparseCutoff="1.0000000000000000"/>
      <sparseX i="56" alpha="2937.6627720469710" sparseCutoff="1.0000000000000000"/>
      <sparseX i="57" alpha="-146.96261444239425" sparseCutoff="1.0000000000000000"/>
      <sparseX i="58" alpha="1564.9011033074994" sparseCutoff="1.0000000000000000"/>
      <sparseX i="59" alpha="-2726.0690651794389" sparseCutoff="1.0000000000000000"/>
      <sparseX i="60" alpha="2812.3449031254422" sparseCutoff="1.0000000000000000"/>
      <sparseX i="61" alpha="-2838.5284946087791" sparseCutoff="1.0000000000000000"/>
      <sparseX i="62" alpha="1162.5661207880876" sparseCutoff="1.0000000000000000"/>
      <sparseX i="63" alpha="4347.0510933923615" sparseCutoff="1.0000000000000000"/>
      <sparseX i="64" alpha="207.55703887616119" sparseCutoff="1.0000000000000000"/>
      <sparseX i="65" alpha="-3756.9946618958775" sparseCutoff="1.0000000000000000"/>
    </gpCoordinates>
    <gpCoordinates label="GAP_2021_9_27_0_1_17_37_6184" dimensions="1" signal_variance="2.7400000000000002" signal_mean=".00000000000000000E+000" sparsified="T" n_permutations="1" covariance_type="1" n_sparseX="65" sparseX_filename="gap_LiKCl.xml.sparseX.GAP_2021_9_27_0_1_17_37_6184" sparseX_md5sum="">
      <theta>  0.10000000000000000E+001 </theta>
      <descriptor>distance_Nb order=2 compact_clusters=T cutoff=5.92 n_sparse=65 cutoff_transition_width=1.0 sparse_method=uniform delta=2.74 covariance_type=ard_se theta_uniform=1.0             Z={3 17 }</descriptor>
      <permutation i="1">1  </permutation>
      <sparseX i="1" alpha="8574.2311505290309" sparseCutoff="1.0000000000000000"/>
      <sparseX i="2" alpha="14319.017076265762" sparseCutoff="1.0000000000000000"/>
      <sparseX i="3" alpha="14008.250886778087" sparseCutoff="1.0000000000000000"/>
      <sparseX i="4" alpha="-8669.1270972029652" sparseCutoff=".13312073555773540"/>
      <sparseX i="5" alpha="12059.079029260531" sparseCutoff="1.0000000000000000"/>
      <sparseX i="6" alpha="-13804.357852761423" sparseCutoff="1.0000000000000000"/>
      <sparseX i="7" alpha="7210.5321772401603" sparseCutoff=".18420025071570295"/>
      <sparseX i="8" alpha="-5063.1172501994006" sparseCutoff=".85383007070404182"/>
      <sparseX i="9" alpha="-6803.7041626728078" sparseCutoff=".52491203867380931"/>
      <sparseX i="10" alpha="16870.894424960181" sparseCutoff=".98444401650530278"/>
      <sparseX i="11" alpha="19303.743477473407" sparseCutoff="1.0000000000000000"/>
      <sparseX i="12" alpha="6174.5643903717773" sparseCutoff="1.0000000000000000"/>
      <sparseX i="13" alpha="-35516.586090273653" sparseCutoff=".34536161636356200E-001"/>
      <sparseX i="14" alpha="-6434.2205917946085" sparseCutoff="1.0000000000000000"/>
      <sparseX i="15" alpha="-7105.2242786485995" sparseCutoff="1.0000000000000000"/>
      <sparseX i="16" alpha="15702.685048138443" sparseCutoff="1.0000000000000000"/>
      <sparseX i="17" alpha="23799.812297176250" sparseCutoff="1.0000000000000000"/>
      <sparseX i="18" alpha="10405.882627147486" sparseCutoff="1.0000000000000000"/>
      <sparseX i="19" alpha="-16551.331570151804" sparseCutoff="1.0000000000000000"/>
      <sparseX i="20" alpha="-17750.613013436767" sparseCutoff="1.0000000000000000"/>
      <sparseX i="21" alpha="17782.407122243676" sparseCutoff=".35270369972163729"/>
      <sparseX i="22" alpha="-1550.7126275690750" sparseCutoff="1.0000000000000000"/>
      <sparseX i="23" alpha="7069.6097575918975" sparseCutoff=".91625221221641251"/>
      <sparseX i="24" alpha="-9518.7780755700951" sparseCutoff="1.0000000000000000"/>
      <sparseX i="25" alpha="15948.558392756233" sparseCutoff=".22804014035518611"/>
      <sparseX i="26" alpha="28398.052144310652" sparseCutoff="1.0000000000000000"/>
      <sparseX i="27" alpha="-2693.8018682084512" sparseCutoff="1.0000000000000000"/>
      <sparseX i="28" alpha="-15428.377093275438" sparseCutoff="1.0000000000000000"/>
      <sparseX i="29" alpha="16222.380458459304" sparseCutoff=".99275714141249205"/>
      <sparseX i="30" alpha="60.808173445480890" sparseCutoff="1.0000000000000000"/>
      <sparseX i="31" alpha="-16769.021738491116" sparseCutoff=".77140557213853866"/>
      <sparseX i="32" alpha="5720.8629263228104" sparseCutoff=".44496843370142874"/>
      <sparseX i="33" alpha="-1342.4797980587480" sparseCutoff=".37669577204413329E-003"/>
      <sparseX i="34" alpha="-18337.892228528235" sparseCutoff=".62533628509450023"/>
      <sparseX i="35" alpha="-2904.7410437868098" sparseCutoff="1.0000000000000000"/>
      <sparseX i="36" alpha="-17415.466013668265" sparseCutoff="1.0000000000000000"/>
      <sparseX i="37" alpha="-10393.491751133837" sparseCutoff="1.0000000000000000"/>
      <sparseX i="38" alpha="-22174.462944683990" sparseCutoff="1.0000000000000000"/>
      <sparseX i="39" alpha="-9158.0752816007407" sparseCutoff="1.0000000000000000"/>
      <sparseX i="40" alpha="-29593.537459045041" sparseCutoff="1.0000000000000000"/>
      <sparseX i="41" alpha="-24693.289516384124" sparseCutoff=".13465360121374503E-001"/>
      <sparseX i="42" alpha="-15295.393704138425" sparseCutoff="1.0000000000000000"/>
      <sparseX i="43" alpha="20021.566110478521" sparseCutoff="1.0000000000000000"/>
      <sparseX i="44" alpha="-12402.971175103721" sparseCutoff="1.0000000000000000"/>
      <sparseX i="45" alpha="-1121.7811614757986" sparseCutoff="1.0000000000000000"/>
      <sparseX i="46" alpha="11071.463260164512" sparseCutoff="1.0000000000000000"/>
      <sparseX i="47" alpha="16077.131953270724" sparseCutoff="1.0000000000000000"/>
      <sparseX i="48" alpha="15988.238023735148" sparseCutoff="1.0000000000000000"/>
      <sparseX i="49" alpha="343.50047433480620" sparseCutoff="1.0000000000000000"/>
      <sparseX i="50" alpha="-16490.332296679739" sparseCutoff="1.0000000000000000"/>
      <sparseX i="51" alpha="-11813.027643494919" sparseCutoff="1.0000000000000000"/>
      <sparseX i="52" alpha="4399.4766714409134" sparseCutoff="1.0000000000000000"/>
      <sparseX i="53" alpha="12319.513243842541" sparseCutoff="1.0000000000000000"/>
      <sparseX i="54" alpha="13095.456886358044" sparseCutoff="1.0000000000000000"/>
      <sparseX i="55" alpha="-17128.178747323786" sparseCutoff="1.0000000000000000"/>
      <sparseX i="56" alpha="5451.4787173540790" sparseCutoff="1.0000000000000000"/>
      <sparseX i="57" alpha="-16906.106885640915" sparseCutoff="1.0000000000000000"/>
      <sparseX i="58" alpha="9986.1399609350374" sparseCutoff="1.0000000000000000"/>
      <sparseX i="59" alpha="-678.89999973932527" sparseCutoff="1.0000000000000000"/>
      <sparseX i="60" alpha="-17412.398683034244" sparseCutoff="1.0000000000000000"/>
      <sparseX i="61" alpha="-3752.5524169087530" sparseCutoff="1.0000000000000000"/>
      <sparseX i="62" alpha="-15338.317733892975" sparseCutoff="1.0000000000000000"/>
      <sparseX i="63" alpha="-12426.617815345347" sparseCutoff="1.0000000000000000"/>
      <sparseX i="64" alpha="17955.401358630210" sparseCutoff="1.0000000000000000"/>
      <sparseX i="65" alpha="25770.517076063123" sparseCutoff="1.0000000000000000"/>
    </gpCoordinates>
    <gpCoordinates label="GAP_2021_9_27_0_1_17_37_6185" dimensions="1" signal_variance="2.7400000000000002" signal_mean=".00000000000000000E+000" sparsified="T" n_permutations="1" covariance_type="1" n_sparseX="65" sparseX_filename="gap_LiKCl.xml.sparseX.GAP_2021_9_27_0_1_17_37_6185" sparseX_md5sum="">
      <theta>  0.10000000000000000E+001 </theta>
      <descriptor>distance_Nb order=2 compact_clusters=T cutoff=5.92 n_sparse=65 cutoff_transition_width=1.0 sparse_method=uniform delta=2.74 covariance_type=ard_se theta_uniform=1.0             Z={3 19 }</descriptor>
      <permutation i="1">1  </permutation>
      <sparseX i="1" alpha="1262.2274441076402" sparseCutoff="1.0000000000000000"/>
      <sparseX i="2" alpha="-1043.8264963220645" sparseCutoff="1.0000000000000000"/>
      <sparseX i="3" alpha="-704.64491090942204" sparseCutoff="1.0000000000000000"/>
      <sparseX i="4" alpha="936.57941395422438" sparseCutoff=".51092960013740807"/>
      <sparseX i="5" alpha="321.87531345900271" sparseCutoff="1.0000000000000000"/>
      <sparseX i="6" alpha="542.37576103321533" sparseCutoff=".30155315531313998"/>
      <sparseX i="7" alpha="-570.70025453367782" sparseCutoff=".64150952565242947E-001"/>
      <sparseX i="8" alpha="1223.5903586294637" sparseCutoff="1.0000000000000000"/>
      <sparseX i="9" alpha="1205.3206503080662" sparseCutoff=".99946535870011322"/>
      <sparseX i="10" alpha="55.505645952626352" sparseCutoff=".11949181557188160E-002"/>
      <sparseX i="11" alpha="485.25525131703768" sparseCutoff=".97646320562167543"/>
      <sparseX i="12" alpha="168.52157056682972" sparseCutoff=".61838162179396716"/>
      <sparseX i="13" alpha="-1545.4523919290937" sparseCutoff="1.0000000000000000"/>
      <sparseX i="14" alpha="-361.81876722805578" sparseCutoff=".67876648730270772"/>
      <sparseX i="15" alpha="-1444.2392857920634" sparseCutoff="1.0000000000000000"/>
      <sparseX i="16" alpha="1150.5210085740700" sparseCutoff="1.0000000000000000"/>
      <sparseX i="17" alpha="-852.99942114031251" sparseCutoff=".74314646673843454"/>
      <sparseX i="18" alpha="-1283.6882412912364" sparseCutoff="1.0000000000000000"/>
      <sparseX i="19" alpha="146.48220986650014" sparseCutoff=".10397098843550445E-001"/>
      <sparseX i="20" alpha="1436.0881809603820" sparseCutoff="1.0000000000000000"/>
      <sparseX i="21" alpha="-202.88840584913777" sparseCutoff="1.0000000000000000"/>
      <sparseX i="22" alpha="-830.60682472325266" sparseCutoff=".13551048668784371"/>
      <sparseX i="23" alpha="-529.00807922343995" sparseCutoff="1.0000000000000000"/>
      <sparseX i="24" alpha="-980.96524629248813" sparseCutoff="1.0000000000000000"/>
      <sparseX i="25" alpha="-1133.6486769379046" sparseCutoff=".83073586988623793"/>
      <sparseX i="26" alpha="1020.8791506266592" sparseCutoff="1.0000000000000000"/>
      <sparseX i="27" alpha="-1557.2792336626576" sparseCutoff="1.0000000000000000"/>
      <sparseX i="28" alpha="455.85062573670837" sparseCutoff="1.0000000000000000"/>
      <sparseX i="29" alpha="-435.64552686109477" sparseCutoff=".19743240101121073"/>
      <sparseX i="30" alpha="1341.9364305531039" sparseCutoff="1.0000000000000000"/>
      <sparseX i="31" alpha="-1754.0004417342145" sparseCutoff="1.0000000000000000"/>
      <sparseX i="32" alpha="-938.32693231788801" sparseCutoff=".88252634683683295"/>
      <sparseX i="33" alpha="976.81191355863791" sparseCutoff="1.0000000000000000"/>
      <sparseX i="34" alpha="1135.6373254713571" sparseCutoff="1.0000000000000000"/>
      <sparseX i="35" alpha="-157.78258841506863" sparseCutoff=".94633956983060519"/>
      <sparseX i="36" alpha="-1443.4347368878757" sparseCutoff="1.0000000000000000"/>
      <sparseX i="37" alpha="1463.8164441557817" sparseCutoff="1.0000000000000000"/>
      <sparseX i="38" alpha="1088.4884724469762" sparseCutoff=".39893085440836584"/>
      <sparseX i="39" alpha="1347.3233501211434" sparseCutoff="1.0000000000000000"/>
      <sparseX i="40" alpha="-1480.4519419830947" sparseCutoff="1.0000000000000000"/>
      <sparseX i="41" alpha="-71.167932662215421" sparseCutoff=".29064263561899006E-001"/>
      <sparseX i="42" alpha="-335.27309690169614" sparseCutoff="1.0000000000000000"/>
      <sparseX i="43" alpha="319.36130275653380" sparseCutoff="1.0000000000000000"/>
      <sparseX i="44" alpha="-1463.3064822036522" sparseCutoff="1.0000000000000000"/>
      <sparseX i="45" alpha="-1830.3724599189418" sparseCutoff="1.0000000000000000"/>
      <sparseX i="46" alpha="515.91646870244051" sparseCutoff="1.0000000000000000"/>
      <sparseX i="47" alpha="856.71358291358990" sparseCutoff="1.0000000000000000"/>
      <sparseX i="48" alpha="1733.7971418822654" sparseCutoff="1.0000000000000000"/>
      <sparseX i="49" alpha="-1819.6755738463492" sparseCutoff="1.0000000000000000"/>
      <sparseX i="50" alpha="-541.68528827875764" sparseCutoff="1.0000000000000000"/>
      <sparseX i="51" alpha="1108.6546730406546" sparseCutoff="1.0000000000000000"/>
      <sparseX i="52" alpha="741.52288334734783" sparseCutoff="1.0000000000000000"/>
      <sparseX i="53" alpha="-448.36709440214145" sparseCutoff="1.0000000000000000"/>
      <sparseX i="54" alpha="479.71869337794487" sparseCutoff="1.0000000000000000"/>
      <sparseX i="55" alpha="840.70899805145427" sparseCutoff="1.0000000000000000"/>
      <sparseX i="56" alpha="-645.65066495771737" sparseCutoff="1.0000000000000000"/>
      <sparseX i="57" alpha="1981.2626128302238" sparseCutoff="1.0000000000000000"/>
      <sparseX i="58" alpha="-2312.6185455248742" sparseCutoff="1.0000000000000000"/>
      <sparseX i="59" alpha="-1212.7334095396488" sparseCutoff="1.0000000000000000"/>
      <sparseX i="60" alpha="2010.8795772982512" sparseCutoff="1.0000000000000000"/>
      <sparseX i="61" alpha="-1641.8851322373778" sparseCutoff="1.0000000000000000"/>
      <sparseX i="62" alpha="-1632.7175877775990" sparseCutoff="1.0000000000000000"/>
      <sparseX i="63" alpha="-179.38333922927598" sparseCutoff="1.0000000000000000"/>
      <sparseX i="64" alpha="1751.3947799342009" sparseCutoff="1.0000000000000000"/>
      <sparseX i="65" alpha="2732.6471335971619" sparseCutoff="1.0000000000000000"/>
    </gpCoordinates>
    <gpCoordinates label="GAP_2021_9_27_0_1_17_37_6186" dimensions="1" signal_variance="2.7400000000000002" signal_mean=".00000000000000000E+000" sparsified="T" n_permutations="2" covariance_type="1" n_sparseX="65" sparseX_filename="gap_LiKCl.xml.sparseX.GAP_2021_9_27_0_1_17_37_6186" sparseX_md5sum="">
      <theta>  0.10000000000000000E+001 </theta>
      <descriptor>distance_Nb order=2 compact_clusters=T cutoff=5.92 n_sparse=65 cutoff_transition_width=1.0 sparse_method=uniform delta=2.74 covariance_type=ard_se theta_uniform=1.0             Z={3 3 }</descriptor>
      <permutation i="1">1  </permutation>
      <permutation i="2">1  </permutation>
      <sparseX i="1" alpha="13.350918221821768" sparseCutoff="1.0000000000000000"/>
      <sparseX i="2" alpha="185.76985367339421" sparseCutoff="1.0000000000000000"/>
      <sparseX i="3" alpha="-157.84642601505763" sparseCutoff=".88995914255613062"/>
      <sparseX i="4" alpha="328.20234725024829" sparseCutoff="1.0000000000000000"/>
      <sparseX i="5" alpha="268.45888931430392" sparseCutoff=".42823170920319831"/>
      <sparseX i="6" alpha="22.995681381501349" sparseCutoff="1.0000000000000000"/>
      <sparseX i="7" alpha="-131.94800218280272" sparseCutoff="1.0000000000000000"/>
      <sparseX i="8" alpha="247.44114278905343" sparseCutoff="1.0000000000000000"/>
      <sparseX i="9" alpha="370.44998871634778" sparseCutoff=".35090877315943059"/>
      <sparseX i="10" alpha="338.72871248558818" sparseCutoff="1.0000000000000000"/>
      <sparseX i="11" alpha="-455.22579065211903" sparseCutoff=".45150569857830114E-001"/>
      <sparseX i="12" alpha="135.54680042374019" sparseCutoff="1.0000000000000000"/>
      <sparseX i="13" alpha="-399.82291171418626" sparseCutoff=".79780106564774544"/>
      <sparseX i="14" alpha="14.975666471806877" sparseCutoff="1.0000000000000000"/>
      <sparseX i="15" alpha="356.79344452151696" sparseCutoff="1.0000000000000000"/>
      <sparseX i="16" alpha="-136.94445308580836" sparseCutoff="1.0000000000000000"/>
      <sparseX i="17" alpha="-185.75366341268341" sparseCutoff="1.0000000000000000"/>
      <sparseX i="18" alpha="158.82220756505046" sparseCutoff=".47443197056671071"/>
      <sparseX i="19" alpha="-224.04713515128779" sparseCutoff="1.0000000000000000"/>
      <sparseX i="20" alpha="305.37318177522866" sparseCutoff="1.0000000000000000"/>
      <sparseX i="21" alpha="-377.44209438785782" sparseCutoff="1.0000000000000000"/>
      <sparseX i="22" alpha="198.10214761317198" sparseCutoff="1.0000000000000000"/>
      <sparseX i="23" alpha="113.25469771137664" sparseCutoff="1.0000000000000000"/>
      <sparseX i="24" alpha="309.71962239612731" sparseCutoff="1.0000000000000000"/>
      <sparseX i="25" alpha="-331.47545616983643" sparseCutoff="1.0000000000000000"/>
      <sparseX i="26" alpha="-254.85531392357638" sparseCutoff=".12697657006896013E-001"/>
      <sparseX i="27" alpha="113.32894119528430" sparseCutoff=".94723738611333830"/>
      <sparseX i="28" alpha="-311.98689511123314" sparseCutoff="1.0000000000000000"/>
      <sparseX i="29" alpha="-376.91889056326102" sparseCutoff="1.0000000000000000"/>
      <sparseX i="30" alpha="226.20679931645313" sparseCutoff="1.0000000000000000"/>
      <sparseX i="31" alpha="322.00783506399790" sparseCutoff="1.0000000000000000"/>
      <sparseX i="32" alpha="-304.52294560365050" sparseCutoff="1.0000000000000000"/>
      <sparseX i="33" alpha="280.74754991741139" sparseCutoff=".25318422079364150"/>
      <sparseX i="34" alpha="200.57019628849878" sparseCutoff="1.0000000000000000"/>
      <sparseX i="35" alpha="16.176441337418943" sparseCutoff="1.0000000000000000"/>
      <sparseX i="36" alpha="-309.86180896833349" sparseCutoff="1.0000000000000000"/>
      <sparseX i="37" alpha="-175.19325158488229" sparseCutoff=".13579058933384847"/>
      <sparseX i="38" alpha="-322.13345499924361" sparseCutoff="1.0000000000000000"/>
      <sparseX i="39" alpha="-399.77058425502491" sparseCutoff=".84165952934979249E-001"/>
      <sparseX i="40" alpha="-148.03069991550097" sparseCutoff=".58209717945422945"/>
      <sparseX i="41" alpha="-129.29153808152020" sparseCutoff="1.0000000000000000"/>
      <sparseX i="42" alpha="373.48464251180252" sparseCutoff=".99862708461898164"/>
      <sparseX i="43" alpha="-268.05854483180241" sparseCutoff="1.0000000000000000"/>
      <sparseX i="44" alpha="106.81538538048763" sparseCutoff="1.0000000000000000"/>
      <sparseX i="45" alpha="-318.70403340657680" sparseCutoff="1.0000000000000000"/>
      <sparseX i="46" alpha="-86.855030553016306" sparseCutoff="1.0000000000000000"/>
      <sparseX i="47" alpha="-26.604973603794523" sparseCutoff=".85286066078738010E-003"/>
      <sparseX i="48" alpha="-310.16909103664142" sparseCutoff="1.0000000000000000"/>
      <sparseX i="49" alpha="318.49570384056972" sparseCutoff="1.0000000000000000"/>
      <sparseX i="50" alpha="350.34927718577961" sparseCutoff="1.0000000000000000"/>
      <sparseX i="51" alpha="153.81656832615352" sparseCutoff=".95461910611925549"/>
      <sparseX i="52" alpha="377.40839636873977" sparseCutoff="1.0000000000000000"/>
      <sparseX i="53" alpha="54.558706686332890" sparseCutoff="1.0000000000000000"/>
      <sparseX i="54" alpha="-401.29007379373940" sparseCutoff="1.0000000000000000"/>
      <sparseX i="55" alpha="-427.67633089747727" sparseCutoff=".74103856710487359"/>
      <sparseX i="56" alpha="150.36959531661810" sparseCutoff="1.0000000000000000"/>
      <sparseX i="57" alpha="-420.60395616595093" sparseCutoff="1.0000000000000000"/>
      <sparseX i="58" alpha="-185.78940201495627" sparseCutoff="1.0000000000000000"/>
      <sparseX i="59" alpha="-163.07450705462418" sparseCutoff="1.0000000000000000"/>
      <sparseX i="60" alpha="-366.77073312878645" sparseCutoff="1.0000000000000000"/>
      <sparseX i="61" alpha="-129.91377727414772" sparseCutoff="1.0000000000000000"/>
      <sparseX i="62" alpha="379.70525549052343" sparseCutoff="1.0000000000000000"/>
      <sparseX i="63" alpha="348.00818474833079" sparseCutoff="1.0000000000000000"/>
      <sparseX i="64" alpha="-205.57941779143840" sparseCutoff="1.0000000000000000"/>
      <sparseX i="65" alpha="503.45253010597219" sparseCutoff="1.0000000000000000"/>
    </gpCoordinates>
    <gpCoordinates label="GAP_2021_9_27_0_1_17_37_6187" dimensions="1501" signal_variance=".78000000000000003" signal_mean=".00000000000000000E+000" sparsified="T" n_permutations="1" covariance_type="2" zeta="4.0000000000000000" n_sparseX="1200" sparseX_filename="gap_LiKCl.xml.sparseX.GAP_2021_9_27_0_1_17_37_6187" sparseX_md5sum="">
      <descriptor> soap cutoff=5.92 n_sparse=1200 covariance_type=dot_product sparse_method=cur_points delta=0.78 zeta=4 l_max=4 n_max=8 atom_sigma=0.5 cutoff_transition_width=1.0             n_species=3 Z=17 species_Z={17 19 3 }</descriptor>
      <permutation i="1">1  </permutation>
      <sparseX i="1" alpha="-.82125061763131968" sparseCutoff="1.0000000000000000"/>
      <sparseX i="2" alpha=".68247485584652345" sparseCutoff="1.0000000000000000"/>
      <sparseX i="3" alpha="-11.046989418074512" sparseCutoff="1.0000000000000000"/>
      <sparseX i="4" alpha="-2.7512331538875228" sparseCutoff="1.0000000000000000"/>
      <sparseX i="5" alpha="5.4902933464994890" sparseCutoff="1.0000000000000000"/>
      <sparseX i="6" alpha="-.23396229273341218" sparseCutoff="1.0000000000000000"/>
      <sparseX i="7" alpha="-4.5219904236361259" sparseCutoff="1.0000000000000000"/>
      <sparseX i="8" alpha="-3.5400712714707527" sparseCutoff="1.0000000000000000"/>
      <sparseX i="9" alpha="-4.7517031445313460" sparseCutoff="1.0000000000000000"/>
      <sparseX i="10" alpha="5.0736388391220091" sparseCutoff="1.0000000000000000"/>
      <sparseX i="11" alpha="1.9299293163435052" sparseCutoff="1.0000000000000000"/>
      <sparseX i="12" alpha="23.887036474558482" sparseCutoff="1.0000000000000000"/>
      <sparseX i="13" alpha="-1.2825929485050811" sparseCutoff="1.0000000000000000"/>
      <sparseX i="14" alpha="3.2301261953075699" sparseCutoff="1.0000000000000000"/>
      <sparseX i="15" alpha="-2.8798289957046843" sparseCutoff="1.0000000000000000"/>
      <sparseX i="16" alpha="3.0912241753945748" sparseCutoff="1.0000000000000000"/>
      <sparseX i="17" alpha="3.5990908229036522" sparseCutoff="1.0000000000000000"/>
      <sparseX i="18" alpha="-5.3389942835885131" sparseCutoff="1.0000000000000000"/>
      <sparseX i="19" alpha="6.8822821209896121" sparseCutoff="1.0000000000000000"/>
      <sparseX i="20" alpha="-6.2586059720470644" sparseCutoff="1.0000000000000000"/>
      <sparseX i="21" alpha=".98296530304471164" sparseCutoff="1.0000000000000000"/>
      <sparseX i="22" alpha="4.6161127901334460" sparseCutoff="1.0000000000000000"/>
      <sparseX i="23" alpha="-.17939896241334993" sparseCutoff="1.0000000000000000"/>
      <sparseX i="24" alpha="4.2568284016884244" sparseCutoff="1.0000000000000000"/>
      <sparseX i="25" alpha="-.18987005207485036" sparseCutoff="1.0000000000000000"/>
      <sparseX i="26" alpha="-9.9553114384224468" sparseCutoff="1.0000000000000000"/>
      <sparseX i="27" alpha="-8.3236195177416530" sparseCutoff="1.0000000000000000"/>
      <sparseX i="28" alpha="-8.9826549431352962" sparseCutoff="1.0000000000000000"/>
      <sparseX i="29" alpha="-3.6894079186694002" sparseCutoff="1.0000000000000000"/>
      <sparseX i="30" alpha="-5.3919717749198623" sparseCutoff="1.0000000000000000"/>
      <sparseX i="31" alpha="-9.7499645546325500" sparseCutoff="1.0000000000000000"/>
      <sparseX i="32" alpha="4.5652653890596744" sparseCutoff="1.0000000000000000"/>
      <sparseX i="33" alpha="-5.7687017679876780" sparseCutoff="1.0000000000000000"/>
      <sparseX i="34" alpha="3.3820270776689854" sparseCutoff="1.0000000000000000"/>
      <sparseX i="35" alpha="-2.5857275940768139" sparseCutoff="1.0000000000000000"/>
      <sparseX i="36" alpha="-.77786813798025062E-003" sparseCutoff="1.0000000000000000"/>
      <sparseX i="37" alpha="-2.3766439054129584" sparseCutoff="1.0000000000000000"/>
      <sparseX i="38" alpha="-11.608820737463235" sparseCutoff="1.0000000000000000"/>
      <sparseX i="39" alpha="-4.3959770176005746" sparseCutoff="1.0000000000000000"/>
      <sparseX i="40" alpha="4.5100429466581238" sparseCutoff="1.0000000000000000"/>
      <sparseX i="41" alpha="6.1536200485326500" sparseCutoff="1.0000000000000000"/>
      <sparseX i="42" alpha=".83585063074953270" sparseCutoff="1.0000000000000000"/>
      <sparseX i="43" alpha="7.2664778403791610" sparseCutoff="1.0000000000000000"/>
      <sparseX i="44" alpha="1.4125358126939767" sparseCutoff="1.0000000000000000"/>
      <sparseX i="45" alpha="-4.3164528994056619" sparseCutoff="1.0000000000000000"/>
      <sparseX i="46" alpha="14.508531078654013" sparseCutoff="1.0000000000000000"/>
      <sparseX i="47" alpha="-3.3030905570871281" sparseCutoff="1.0000000000000000"/>
      <sparseX i="48" alpha="7.0125413178700100" sparseCutoff="1.0000000000000000"/>
      <sparseX i="49" alpha="-4.8220549514252822" sparseCutoff="1.0000000000000000"/>
      <sparseX i="50" alpha="4.9075763589854837" sparseCutoff="1.0000000000000000"/>
      <sparseX i="51" alpha="-1.5317402234098068" sparseCutoff="1.0000000000000000"/>
      <sparseX i="52" alpha="1.1712528431444340" sparseCutoff="1.0000000000000000"/>
      <sparseX i="53" alpha="-1.1288625376001420" sparseCutoff="1.0000000000000000"/>
      <sparseX i="54" alpha="4.4206425987579525" sparseCutoff="1.0000000000000000"/>
      <sparseX i="55" alpha="-6.8926535404861307" sparseCutoff="1.0000000000000000"/>
      <sparseX i="56" alpha="-9.9013699380878428" sparseCutoff="1.0000000000000000"/>
      <sparseX i="57" alpha="1.6351065841119954" sparseCutoff="1.0000000000000000"/>
      <sparseX i="58" alpha="19.217717318913255" sparseCutoff="1.0000000000000000"/>
      <sparseX i="59" alpha="-6.4284176602395648" sparseCutoff="1.0000000000000000"/>
      <sparseX i="60" alpha="2.2066501652009438" sparseCutoff="1.0000000000000000"/>
      <sparseX i="61" alpha="1.8457685054844246" sparseCutoff="1.0000000000000000"/>
      <sparseX i="62" alpha="-2.3716754947583127" sparseCutoff="1.0000000000000000"/>
      <sparseX i="63" alpha="6.3559415160729111" sparseCutoff="1.0000000000000000"/>
      <sparseX i="64" alpha="7.8083777114427875" sparseCutoff="1.0000000000000000"/>
      <sparseX i="65" alpha="5.8548537737086388" sparseCutoff="1.0000000000000000"/>
      <sparseX i="66" alpha="2.6291647122289485" sparseCutoff="1.0000000000000000"/>
      <sparseX i="67" alpha="-3.3366889287567227" sparseCutoff="1.0000000000000000"/>
      <sparseX i="68" alpha="-8.9298072721907715" sparseCutoff="1.0000000000000000"/>
      <sparseX i="69" alpha="-1.2646025669789254" sparseCutoff="1.0000000000000000"/>
      <sparseX i="70" alpha="5.1316110862899649" sparseCutoff="1.0000000000000000"/>
      <sparseX i="71" alpha="-.67485710555419298" sparseCutoff="1.0000000000000000"/>
      <sparseX i="72" alpha="-2.7110309859957646" sparseCutoff="1.0000000000000000"/>
      <sparseX i="73" alpha="-3.8539668396669526" sparseCutoff="1.0000000000000000"/>
      <sparseX i="74" alpha="-2.8676796515630691" sparseCutoff="1.0000000000000000"/>
      <sparseX i="75" alpha="-11.563110070129861" sparseCutoff="1.0000000000000000"/>
      <sparseX i="76" alpha="11.464626310757295" sparseCutoff="1.0000000000000000"/>
      <sparseX i="77" alpha="4.6567934980255394" sparseCutoff="1.0000000000000000"/>
      <sparseX i="78" alpha="-8.3190481629685884" sparseCutoff="1.0000000000000000"/>
      <sparseX i="79" alpha="2.0126471950995559" sparseCutoff="1.0000000000000000"/>
      <sparseX i="80" alpha="-5.6164078318439188" sparseCutoff="1.0000000000000000"/>
      <sparseX i="81" alpha="-3.6416368633189449" sparseCutoff="1.0000000000000000"/>
      <sparseX i="82" alpha="-6.7234239661597224" sparseCutoff="1.0000000000000000"/>
      <sparseX i="83" alpha="2.0932683363155999" sparseCutoff="1.0000000000000000"/>
      <sparseX i="84" alpha="-1.1422895077616244" sparseCutoff="1.0000000000000000"/>
      <sparseX i="85" alpha="-6.5310145125047256" sparseCutoff="1.0000000000000000"/>
      <sparseX i="86" alpha="3.7056590838186954" sparseCutoff="1.0000000000000000"/>
      <sparseX i="87" alpha="6.9476087202403791" sparseCutoff="1.0000000000000000"/>
      <sparseX i="88" alpha="1.4192355549344400" sparseCutoff="1.0000000000000000"/>
      <sparseX i="89" alpha="-.89160043123757149" sparseCutoff="1.0000000000000000"/>
      <sparseX i="90" alpha="-4.4104041019148212" sparseCutoff="1.0000000000000000"/>
      <sparseX i="91" alpha="-1.2251540028771162" sparseCutoff="1.0000000000000000"/>
      <sparseX i="92" alpha="-7.1932105348038986" sparseCutoff="1.0000000000000000"/>
      <sparseX i="93" alpha="-3.3014243366160518" sparseCutoff="1.0000000000000000"/>
      <sparseX i="94" alpha="-.61572655498269546" sparseCutoff="1.0000000000000000"/>
      <sparseX i="95" alpha="-3.4003816927015862" sparseCutoff="1.0000000000000000"/>
      <sparseX i="96" alpha="4.6804348888382101" sparseCutoff="1.0000000000000000"/>
      <sparseX i="97" alpha="4.6578538442965840" sparseCutoff="1.0000000000000000"/>
      <sparseX i="98" alpha="-.83182028287709686" sparseCutoff="1.0000000000000000"/>
      <sparseX i="99" alpha="1.6866220390984303" sparseCutoff="1.0000000000000000"/>
      <sparseX i="100" alpha="-7.3957492852561275" sparseCutoff="1.0000000000000000"/>
      <sparseX i="101" alpha="-1.7707960732388688" sparseCutoff="1.0000000000000000"/>
      <sparseX i="102" alpha="-7.0092766676675335" sparseCutoff="1.0000000000000000"/>
      <sparseX i="103" alpha="6.2786960614417087" sparseCutoff="1.0000000000000000"/>
      <sparseX i="104" alpha="7.8304346757494798" sparseCutoff="1.0000000000000000"/>
      <sparseX i="105" alpha="-1.5141226443952667" sparseCutoff="1.0000000000000000"/>
      <sparseX i="106" alpha="-.32694220903559640" sparseCutoff="1.0000000000000000"/>
      <sparseX i="107" alpha=".48006089791226308" sparseCutoff="1.0000000000000000"/>
      <sparseX i="108" alpha="8.9575796796986449" sparseCutoff="1.0000000000000000"/>
      <sparseX i="109" alpha="2.8221391085862919" sparseCutoff="1.0000000000000000"/>
      <sparseX i="110" alpha="-3.3277669993531447" sparseCutoff="1.0000000000000000"/>
      <sparseX i="111" alpha="10.044732896899488" sparseCutoff="1.0000000000000000"/>
      <sparseX i="112" alpha="-5.1963845906030643" sparseCutoff="1.0000000000000000"/>
      <sparseX i="113" alpha="-4.8522847276270049" sparseCutoff="1.0000000000000000"/>
      <sparseX i="114" alpha="-5.6138064791943094" sparseCutoff="1.0000000000000000"/>
      <sparseX i="115" alpha="14.573385745142428" sparseCutoff="1.0000000000000000"/>
      <sparseX i="116" alpha="-1.8536993806196782" sparseCutoff="1.0000000000000000"/>
      <sparseX i="117" alpha="-1.3799366776258684" sparseCutoff="1.0000000000000000"/>
      <sparseX i="118" alpha="9.4146831195772265" sparseCutoff="1.0000000000000000"/>
      <sparseX i="119" alpha="11.131807655732345" sparseCutoff="1.0000000000000000"/>
      <sparseX i="120" alpha="-10.867582597484427" sparseCutoff="1.0000000000000000"/>
      <sparseX i="121" alpha="3.8718088657084704" sparseCutoff="1.0000000000000000"/>
      <sparseX i="122" alpha="2.5511174354825417" sparseCutoff="1.0000000000000000"/>
      <sparseX i="123" alpha="1.1934648339518905" sparseCutoff="1.0000000000000000"/>
      <sparseX i="124" alpha="16.248157111211615" sparseCutoff="1.0000000000000000"/>
      <sparseX i="125" alpha="-8.7068974272149582" sparseCutoff="1.0000000000000000"/>
      <sparseX i="126" alpha="1.0590201248583162" sparseCutoff="1.0000000000000000"/>
      <sparseX i="127" alpha="-.10292002376038592E-001" sparseCutoff="1.0000000000000000"/>
      <sparseX i="128" alpha="13.445338591525921" sparseCutoff="1.0000000000000000"/>
      <sparseX i="129" alpha="5.5853347034577006" sparseCutoff="1.0000000000000000"/>
      <sparseX i="130" alpha="1.6791841955174558" sparseCutoff="1.0000000000000000"/>
      <sparseX i="131" alpha="-1.9912031762505786" sparseCutoff="1.0000000000000000"/>
      <sparseX i="132" alpha="-11.356235929896867" sparseCutoff="1.0000000000000000"/>
      <sparseX i="133" alpha="9.8528790694301982" sparseCutoff="1.0000000000000000"/>
      <sparseX i="134" alpha="-17.566251967531102" sparseCutoff="1.0000000000000000"/>
      <sparseX i="135" alpha=".56504877851474855" sparseCutoff="1.0000000000000000"/>
      <sparseX i="136" alpha="-9.0059197282228034" sparseCutoff="1.0000000000000000"/>
      <sparseX i="137" alpha="4.2547027009725120" sparseCutoff="1.0000000000000000"/>
      <sparseX i="138" alpha="-1.9024204817274519" sparseCutoff="1.0000000000000000"/>
      <sparseX i="139" alpha="-3.6459779863610740" sparseCutoff="1.0000000000000000"/>
      <sparseX i="140" alpha="3.7560791559156965" sparseCutoff="1.0000000000000000"/>
      <sparseX i="141" alpha="1.1646781939067461" sparseCutoff="1.0000000000000000"/>
      <sparseX i="142" alpha="10.239358104321019" sparseCutoff="1.0000000000000000"/>
      <sparseX i="143" alpha=".53037624533186611" sparseCutoff="1.0000000000000000"/>
      <sparseX i="144" alpha="-1.9563046858409070" sparseCutoff="1.0000000000000000"/>
      <sparseX i="145" alpha="6.1480802506445817" sparseCutoff="1.0000000000000000"/>
      <sparseX i="146" alpha="-3.2548192801764957" sparseCutoff="1.0000000000000000"/>
      <sparseX i="147" alpha="3.4611716765359812" sparseCutoff="1.0000000000000000"/>
      <sparseX i="148" alpha="-19.861830680466447" sparseCutoff="1.0000000000000000"/>
      <sparseX i="149" alpha="4.9826515971141481" sparseCutoff="1.0000000000000000"/>
      <sparseX i="150" alpha="-.58733833110418510" sparseCutoff="1.0000000000000000"/>
      <sparseX i="151" alpha="-1.8484137811622932" sparseCutoff="1.0000000000000000"/>
      <sparseX i="152" alpha="-.56598250338475797" sparseCutoff="1.0000000000000000"/>
      <sparseX i="153" alpha=".24319072820036289" sparseCutoff="1.0000000000000000"/>
      <sparseX i="154" alpha="4.6390791870155184" sparseCutoff="1.0000000000000000"/>
      <sparseX i="155" alpha="-1.2288521101087302" sparseCutoff="1.0000000000000000"/>
      <sparseX i="156" alpha="-15.058386591635831" sparseCutoff="1.0000000000000000"/>
      <sparseX i="157" alpha="-.85658936340178615" sparseCutoff="1.0000000000000000"/>
      <sparseX i="158" alpha="-8.2767329604320459" sparseCutoff="1.0000000000000000"/>
      <sparseX i="159" alpha="1.9247175469457736" sparseCutoff="1.0000000000000000"/>
      <sparseX i="160" alpha="4.1579678066865320" sparseCutoff="1.0000000000000000"/>
      <sparseX i="161" alpha="2.8092114611568677" sparseCutoff="1.0000000000000000"/>
      <sparseX i="162" alpha="3.8490986105727134" sparseCutoff="1.0000000000000000"/>
      <sparseX i="163" alpha="-4.9687238603016404" sparseCutoff="1.0000000000000000"/>
      <sparseX i="164" alpha=".80130369584450767" sparseCutoff="1.0000000000000000"/>
      <sparseX i="165" alpha=".71073519278149844" sparseCutoff="1.0000000000000000"/>
      <sparseX i="166" alpha="-4.8827214820372156" sparseCutoff="1.0000000000000000"/>
      <sparseX i="167" alpha="-1.8255673570486248" sparseCutoff="1.0000000000000000"/>
      <sparseX i="168" alpha="2.0856365982006198" sparseCutoff="1.0000000000000000"/>
      <sparseX i="169" alpha="2.6195629022768916" sparseCutoff="1.0000000000000000"/>
      <sparseX i="170" alpha=".52605356415980176" sparseCutoff="1.0000000000000000"/>
      <sparseX i="171" alpha="-2.3246195802103888" sparseCutoff="1.0000000000000000"/>
      <sparseX i="172" alpha="3.8901474433328920" sparseCutoff="1.0000000000000000"/>
      <sparseX i="173" alpha="-7.9622916273851887" sparseCutoff="1.0000000000000000"/>
      <sparseX i="174" alpha="-5.2000208532026013" sparseCutoff="1.0000000000000000"/>
      <sparseX i="175" alpha="-.49648101471503620" sparseCutoff="1.0000000000000000"/>
      <sparseX i="176" alpha="3.3734682793608641" sparseCutoff="1.0000000000000000"/>
      <sparseX i="177" alpha="-.77149431023773485" sparseCutoff="1.0000000000000000"/>
      <sparseX i="178" alpha="-1.4963159641687205" sparseCutoff="1.0000000000000000"/>
      <sparseX i="179" alpha=".17856893200757085" sparseCutoff="1.0000000000000000"/>
      <sparseX i="180" alpha="-.17293166430637127" sparseCutoff="1.0000000000000000"/>
      <sparseX i="181" alpha="-5.3212922921498995" sparseCutoff="1.0000000000000000"/>
      <sparseX i="182" alpha=".78785951718806857" sparseCutoff="1.0000000000000000"/>
      <sparseX i="183" alpha="6.4992907181894157" sparseCutoff="1.0000000000000000"/>
      <sparseX i="184" alpha="3.5903479097635067" sparseCutoff="1.0000000000000000"/>
      <sparseX i="185" alpha="2.0274369779112682" sparseCutoff="1.0000000000000000"/>
      <sparseX i="186" alpha="1.2388174592999257" sparseCutoff="1.0000000000000000"/>
      <sparseX i="187" alpha="8.9869721337132304" sparseCutoff="1.0000000000000000"/>
      <sparseX i="188" alpha="-6.9162571404674695" sparseCutoff="1.0000000000000000"/>
      <sparseX i="189" alpha="-10.099087278241669" sparseCutoff="1.0000000000000000"/>
      <sparseX i="190" alpha="3.1142400545101401" sparseCutoff="1.0000000000000000"/>
      <sparseX i="191" alpha="-8.5260208236568875" sparseCutoff="1.0000000000000000"/>
      <sparseX i="192" alpha="2.8415223856524650" sparseCutoff="1.0000000000000000"/>
      <sparseX i="193" alpha="-1.1499681160268140" sparseCutoff="1.0000000000000000"/>
      <sparseX i="194" alpha="-2.8765996305324206" sparseCutoff="1.0000000000000000"/>
      <sparseX i="195" alpha="6.3922741961232825" sparseCutoff="1.0000000000000000"/>
      <sparseX i="196" alpha="1.3157026347620220" sparseCutoff="1.0000000000000000"/>
      <sparseX i="197" alpha="-4.1015050910604902" sparseCutoff="1.0000000000000000"/>
      <sparseX i="198" alpha="-9.3667318826324344" sparseCutoff="1.0000000000000000"/>
      <sparseX i="199" alpha="1.0233504123819244" sparseCutoff="1.0000000000000000"/>
      <sparseX i="200" alpha="-6.6933361592402250" sparseCutoff="1.0000000000000000"/>
      <sparseX i="201" alpha="9.9283674167641252" sparseCutoff="1.0000000000000000"/>
      <sparseX i="202" alpha="-8.4994902034472908" sparseCutoff="1.0000000000000000"/>
      <sparseX i="203" alpha="-2.6926350554978837" sparseCutoff="1.0000000000000000"/>
      <sparseX i="204" alpha="6.8718048564600656" sparseCutoff="1.0000000000000000"/>
      <sparseX i="205" alpha=".70318983215088737" sparseCutoff="1.0000000000000000"/>
      <sparseX i="206" alpha="-5.4029259850024287" sparseCutoff="1.0000000000000000"/>
      <sparseX i="207" alpha="1.1237534773457309" sparseCutoff="1.0000000000000000"/>
      <sparseX i="208" alpha="2.4862372842541256" sparseCutoff="1.0000000000000000"/>
      <sparseX i="209" alpha="-13.110500959609022" sparseCutoff="1.0000000000000000"/>
      <sparseX i="210" alpha="-2.4949762365095869" sparseCutoff="1.0000000000000000"/>
      <sparseX i="211" alpha="-6.0220997557727802" sparseCutoff="1.0000000000000000"/>
      <sparseX i="212" alpha="-3.3449432315324463" sparseCutoff="1.0000000000000000"/>
      <sparseX i="213" alpha="-2.1790188139420681" sparseCutoff="1.0000000000000000"/>
      <sparseX i="214" alpha="-3.9131847016220114" sparseCutoff="1.0000000000000000"/>
      <sparseX i="215" alpha="3.4841014710714400" sparseCutoff="1.0000000000000000"/>
      <sparseX i="216" alpha="-2.3037046719173899" sparseCutoff="1.0000000000000000"/>
      <sparseX i="217" alpha="-8.5962752120600285" sparseCutoff="1.0000000000000000"/>
      <sparseX i="218" alpha="-6.5417403876906386" sparseCutoff="1.0000000000000000"/>
      <sparseX i="219" alpha="9.1080016891591704" sparseCutoff="1.0000000000000000"/>
      <sparseX i="220" alpha="12.181387565384759" sparseCutoff="1.0000000000000000"/>
      <sparseX i="221" alpha=".37483614779964558" sparseCutoff="1.0000000000000000"/>
      <sparseX i="222" alpha="9.6595946946276356" sparseCutoff="1.0000000000000000"/>
      <sparseX i="223" alpha="-11.610467906279320" sparseCutoff="1.0000000000000000"/>
      <sparseX i="224" alpha="3.1654802738796355" sparseCutoff="1.0000000000000000"/>
      <sparseX i="225" alpha="9.4620649849335319" sparseCutoff="1.0000000000000000"/>
      <sparseX i="226" alpha="4.6462615888508623" sparseCutoff="1.0000000000000000"/>
      <sparseX i="227" alpha="-.17730734103822346" sparseCutoff="1.0000000000000000"/>
      <sparseX i="228" alpha="8.7764325823652172" sparseCutoff="1.0000000000000000"/>
      <sparseX i="229" alpha="-13.342524401941921" sparseCutoff="1.0000000000000000"/>
      <sparseX i="230" alpha="5.5994801066850455" sparseCutoff="1.0000000000000000"/>
      <sparseX i="231" alpha="-15.325637726459231" sparseCutoff="1.0000000000000000"/>
      <sparseX i="232" alpha="-2.2089885191090679" sparseCutoff="1.0000000000000000"/>
      <sparseX i="233" alpha="1.8601191184669255" sparseCutoff="1.0000000000000000"/>
      <sparseX i="234" alpha="-2.9237622718955349" sparseCutoff="1.0000000000000000"/>
      <sparseX i="235" alpha="5.1795628742157902" sparseCutoff="1.0000000000000000"/>
      <sparseX i="236" alpha="-9.7387892558926552" sparseCutoff="1.0000000000000000"/>
      <sparseX i="237" alpha="11.591696759010137" sparseCutoff="1.0000000000000000"/>
      <sparseX i="238" alpha="-6.7416463065309502" sparseCutoff="1.0000000000000000"/>
      <sparseX i="239" alpha="-6.3969903354183391" sparseCutoff="1.0000000000000000"/>
      <sparseX i="240" alpha="-5.7922895307063653" sparseCutoff="1.0000000000000000"/>
      <sparseX i="241" alpha="19.837011399381328" sparseCutoff="1.0000000000000000"/>
      <sparseX i="242" alpha="-5.7526016530000792" sparseCutoff="1.0000000000000000"/>
      <sparseX i="243" alpha="-9.8201242831016629" sparseCutoff="1.0000000000000000"/>
      <sparseX i="244" alpha="-5.4493097100306409" sparseCutoff="1.0000000000000000"/>
      <sparseX i="245" alpha="3.0423121498301473" sparseCutoff="1.0000000000000000"/>
      <sparseX i="246" alpha="1.2804356336602312" sparseCutoff="1.0000000000000000"/>
      <sparseX i="247" alpha="4.2298879563633038" sparseCutoff="1.0000000000000000"/>
      <sparseX i="248" alpha="-.78988307937960933" sparseCutoff="1.0000000000000000"/>
      <sparseX i="249" alpha="8.3307837748199596" sparseCutoff="1.0000000000000000"/>
      <sparseX i="250" alpha="-.88500676775836185" sparseCutoff="1.0000000000000000"/>
      <sparseX i="251" alpha="1.3869917804920651" sparseCutoff="1.0000000000000000"/>
      <sparseX i="252" alpha="5.9895027016978784" sparseCutoff="1.0000000000000000"/>
      <sparseX i="253" alpha="-11.662733774006190" sparseCutoff="1.0000000000000000"/>
      <sparseX i="254" alpha="-4.0308425242136767" sparseCutoff="1.0000000000000000"/>
      <sparseX i="255" alpha="5.6589938094812409" sparseCutoff="1.0000000000000000"/>
      <sparseX i="256" alpha="10.728186980419899" sparseCutoff="1.0000000000000000"/>
      <sparseX i="257" alpha="-10.197395861396275" sparseCutoff="1.0000000000000000"/>
      <sparseX i="258" alpha="14.320970944104891" sparseCutoff="1.0000000000000000"/>
      <sparseX i="259" alpha="-7.7904562418581405" sparseCutoff="1.0000000000000000"/>
      <sparseX i="260" alpha=".19181710118818129" sparseCutoff="1.0000000000000000"/>
      <sparseX i="261" alpha="-6.3352366131094549" sparseCutoff="1.0000000000000000"/>
      <sparseX i="262" alpha="17.265751179114719" sparseCutoff="1.0000000000000000"/>
      <sparseX i="263" alpha="-9.5010601893132129" sparseCutoff="1.0000000000000000"/>
      <sparseX i="264" alpha="5.9628621787804077" sparseCutoff="1.0000000000000000"/>
      <sparseX i="265" alpha="3.2378369346231350" sparseCutoff="1.0000000000000000"/>
      <sparseX i="266" alpha="1.2926725693081953" sparseCutoff="1.0000000000000000"/>
      <sparseX i="267" alpha="-1.4651222696416508" sparseCutoff="1.0000000000000000"/>
      <sparseX i="268" alpha="-1.3355880733192405" sparseCutoff="1.0000000000000000"/>
      <sparseX i="269" alpha="-3.8410014583021730" sparseCutoff="1.0000000000000000"/>
      <sparseX i="270" alpha="2.6604310715783690" sparseCutoff="1.0000000000000000"/>
      <sparseX i="271" alpha="-2.4863619240191785" sparseCutoff="1.0000000000000000"/>
      <sparseX i="272" alpha="3.9342425999023289" sparseCutoff="1.0000000000000000"/>
      <sparseX i="273" alpha="2.8402748874466077" sparseCutoff="1.0000000000000000"/>
      <sparseX i="274" alpha="-1.1486306821033769" sparseCutoff="1.0000000000000000"/>
      <sparseX i="275" alpha="1.9496428964324490" sparseCutoff="1.0000000000000000"/>
      <sparseX i="276" alpha="-3.7788673308424143" sparseCutoff="1.0000000000000000"/>
      <sparseX i="277" alpha="-5.2595359016467835" sparseCutoff="1.0000000000000000"/>
      <sparseX i="278" alpha="-8.9612820937825610" sparseCutoff="1.0000000000000000"/>
      <sparseX i="279" alpha="-3.2088255695089938" sparseCutoff="1.0000000000000000"/>
      <sparseX i="280" alpha="-1.0561766254530494" sparseCutoff="1.0000000000000000"/>
      <sparseX i="281" alpha="-8.0766733398525261" sparseCutoff="1.0000000000000000"/>
      <sparseX i="282" alpha="9.2131972963277722" sparseCutoff="1.0000000000000000"/>
      <sparseX i="283" alpha="3.2004539664919323" sparseCutoff="1.0000000000000000"/>
      <sparseX i="284" alpha="8.4766152490289599" sparseCutoff="1.0000000000000000"/>
      <sparseX i="285" alpha="5.3611202930742206" sparseCutoff="1.0000000000000000"/>
      <sparseX i="286" alpha="3.9816398329024563" sparseCutoff="1.0000000000000000"/>
      <sparseX i="287" alpha="8.1545411197537998" sparseCutoff="1.0000000000000000"/>
      <sparseX i="288" alpha="12.710788382884372" sparseCutoff="1.0000000000000000"/>
      <sparseX i="289" alpha="3.2940148002853142" sparseCutoff="1.0000000000000000"/>
      <sparseX i="290" alpha="-1.8524331918644124" sparseCutoff="1.0000000000000000"/>
      <sparseX i="291" alpha="-9.0128356973465316" sparseCutoff="1.0000000000000000"/>
      <sparseX i="292" alpha="5.3765066125278267" sparseCutoff="1.0000000000000000"/>
      <sparseX i="293" alpha="3.1633885725098594" sparseCutoff="1.0000000000000000"/>
      <sparseX i="294" alpha="-5.4681513084188760" sparseCutoff="1.0000000000000000"/>
      <sparseX i="295" alpha="-3.1300167911918124" sparseCutoff="1.0000000000000000"/>
      <sparseX i="296" alpha="10.268557586087146" sparseCutoff="1.0000000000000000"/>
      <sparseX i="297" alpha="1.7539842650675803" sparseCutoff="1.0000000000000000"/>
      <sparseX i="298" alpha="7.4963518008422216" sparseCutoff="1.0000000000000000"/>
      <sparseX i="299" alpha="-3.5286877904514991" sparseCutoff="1.0000000000000000"/>
      <sparseX i="300" alpha="8.1074749057939872" sparseCutoff="1.0000000000000000"/>
      <sparseX i="301" alpha="-.16815413610164118" sparseCutoff="1.0000000000000000"/>
      <sparseX i="302" alpha="2.2221890226093821" sparseCutoff="1.0000000000000000"/>
      <sparseX i="303" alpha="-6.3136947626638085" sparseCutoff="1.0000000000000000"/>
      <sparseX i="304" alpha="4.2391428706368455" sparseCutoff="1.0000000000000000"/>
      <sparseX i="305" alpha="-2.7931316491696156" sparseCutoff="1.0000000000000000"/>
      <sparseX i="306" alpha="-2.7497447118743912" sparseCutoff="1.0000000000000000"/>
      <sparseX i="307" alpha="2.9436324661362794" sparseCutoff="1.0000000000000000"/>
      <sparseX i="308" alpha="4.8126949218506621" sparseCutoff="1.0000000000000000"/>
      <sparseX i="309" alpha="4.2021420276594510" sparseCutoff="1.0000000000000000"/>
      <sparseX i="310" alpha="4.4028548476674541" sparseCutoff="1.0000000000000000"/>
      <sparseX i="311" alpha="-5.3649993060039609" sparseCutoff="1.0000000000000000"/>
      <sparseX i="312" alpha="-4.5423986554004019" sparseCutoff="1.0000000000000000"/>
      <sparseX i="313" alpha="6.1870738327479913" sparseCutoff="1.0000000000000000"/>
      <sparseX i="314" alpha=".76773395194039296" sparseCutoff="1.0000000000000000"/>
      <sparseX i="315" alpha="-.13305372776817365" sparseCutoff="1.0000000000000000"/>
      <sparseX i="316" alpha="3.7307900301259229" sparseCutoff="1.0000000000000000"/>
      <sparseX i="317" alpha="-2.2040610483303995" sparseCutoff="1.0000000000000000"/>
      <sparseX i="318" alpha="-10.128385271071469" sparseCutoff="1.0000000000000000"/>
      <sparseX i="319" alpha=".76583036072180422" sparseCutoff="1.0000000000000000"/>
      <sparseX i="320" alpha="-2.2638291899624114" sparseCutoff="1.0000000000000000"/>
      <sparseX i="321" alpha=".88987628614916159" sparseCutoff="1.0000000000000000"/>
      <sparseX i="322" alpha="4.2460958611697386" sparseCutoff="1.0000000000000000"/>
      <sparseX i="323" alpha="-4.3865987962913691" sparseCutoff="1.0000000000000000"/>
      <sparseX i="324" alpha="6.2538345688319454" sparseCutoff="1.0000000000000000"/>
      <sparseX i="325" alpha="2.9360567694633035" sparseCutoff="1.0000000000000000"/>
      <sparseX i="326" alpha="-4.8521351220323945" sparseCutoff="1.0000000000000000"/>
      <sparseX i="327" alpha="6.6323148850832796" sparseCutoff="1.0000000000000000"/>
      <sparseX i="328" alpha=".61426671672652722" sparseCutoff="1.0000000000000000"/>
      <sparseX i="329" alpha="-5.0058962290957982" sparseCutoff="1.0000000000000000"/>
      <sparseX i="330" alpha="-3.1649519982092804" sparseCutoff="1.0000000000000000"/>
      <sparseX i="331" alpha="-4.1059942035012904" sparseCutoff="1.0000000000000000"/>
      <sparseX i="332" alpha="2.8244909602398054" sparseCutoff="1.0000000000000000"/>
      <sparseX i="333" alpha="-2.1728015820719051" sparseCutoff="1.0000000000000000"/>
      <sparseX i="334" alpha="7.4215822432678156" sparseCutoff="1.0000000000000000"/>
      <sparseX i="335" alpha="-1.4000834642498292" sparseCutoff="1.0000000000000000"/>
      <sparseX i="336" alpha="-11.483183451965683" sparseCutoff="1.0000000000000000"/>
      <sparseX i="337" alpha="7.9458691100485739" sparseCutoff="1.0000000000000000"/>
      <sparseX i="338" alpha="12.963878528010483" sparseCutoff="1.0000000000000000"/>
      <sparseX i="339" alpha="2.1487928130883369" sparseCutoff="1.0000000000000000"/>
      <sparseX i="340" alpha="8.3371789805529399" sparseCutoff="1.0000000000000000"/>
      <sparseX i="341" alpha="-5.1023115592996504" sparseCutoff="1.0000000000000000"/>
      <sparseX i="342" alpha="-3.2703048057713140" sparseCutoff="1.0000000000000000"/>
      <sparseX i="343" alpha="19.838797085485695" sparseCutoff="1.0000000000000000"/>
      <sparseX i="344" alpha="-8.1135866077814942" sparseCutoff="1.0000000000000000"/>
      <sparseX i="345" alpha="-1.1057350058803350" sparseCutoff="1.0000000000000000"/>
      <sparseX i="346" alpha="-.33710216478407451" sparseCutoff="1.0000000000000000"/>
      <sparseX i="347" alpha="-12.654717181331614" sparseCutoff="1.0000000000000000"/>
      <sparseX i="348" alpha="8.0434926187689957" sparseCutoff="1.0000000000000000"/>
      <sparseX i="349" alpha="5.1717197342177679" sparseCutoff="1.0000000000000000"/>
      <sparseX i="350" alpha="4.1124787789197450" sparseCutoff="1.0000000000000000"/>
      <sparseX i="351" alpha="-8.0446166686599412" sparseCutoff="1.0000000000000000"/>
      <sparseX i="352" alpha="2.1201368754673267" sparseCutoff="1.0000000000000000"/>
      <sparseX i="353" alpha="7.6350802999770053" sparseCutoff="1.0000000000000000"/>
      <sparseX i="354" alpha="10.191907398486212" sparseCutoff="1.0000000000000000"/>
      <sparseX i="355" alpha="-9.6128000923381531" sparseCutoff="1.0000000000000000"/>
      <sparseX i="356" alpha="5.1021886088407058" sparseCutoff="1.0000000000000000"/>
      <sparseX i="357" alpha="-4.3406984713663395" sparseCutoff="1.0000000000000000"/>
      <sparseX i="358" alpha="5.3740696258335179" sparseCutoff="1.0000000000000000"/>
      <sparseX i="359" alpha="2.6487538628783414" sparseCutoff="1.0000000000000000"/>
      <sparseX i="360" alpha="3.4618405044110530" sparseCutoff="1.0000000000000000"/>
      <sparseX i="361" alpha="2.3825991407580771" sparseCutoff="1.0000000000000000"/>
      <sparseX i="362" alpha="3.3273542506686993" sparseCutoff="1.0000000000000000"/>
      <sparseX i="363" alpha="2.1859231259420819" sparseCutoff="1.0000000000000000"/>
      <sparseX i="364" alpha=".29973191507671726" sparseCutoff="1.0000000000000000"/>
      <sparseX i="365" alpha="-4.8943405128541633" sparseCutoff="1.0000000000000000"/>
      <sparseX i="366" alpha="9.8442057197906099" sparseCutoff="1.0000000000000000"/>
      <sparseX i="367" alpha="-7.7270590416604845" sparseCutoff="1.0000000000000000"/>
      <sparseX i="368" alpha="-7.4206954431607954" sparseCutoff="1.0000000000000000"/>
      <sparseX i="369" alpha="-19.698418572318413" sparseCutoff="1.0000000000000000"/>
      <sparseX i="370" alpha="6.3607611465879650" sparseCutoff="1.0000000000000000"/>
      <sparseX i="371" alpha="-5.4718666849252910" sparseCutoff="1.0000000000000000"/>
      <sparseX i="372" alpha="-17.579037263324651" sparseCutoff="1.0000000000000000"/>
      <sparseX i="373" alpha="-2.3701252446870962" sparseCutoff="1.0000000000000000"/>
      <sparseX i="374" alpha="-2.1225790518874437" sparseCutoff="1.0000000000000000"/>
      <sparseX i="375" alpha="-2.4763361872285823" sparseCutoff="1.0000000000000000"/>
      <sparseX i="376" alpha="1.8799789037914871" sparseCutoff="1.0000000000000000"/>
      <sparseX i="377" alpha="4.5116194928156252" sparseCutoff="1.0000000000000000"/>
      <sparseX i="378" alpha="6.8159333071433403" sparseCutoff="1.0000000000000000"/>
      <sparseX i="379" alpha="-8.1291583649613948" sparseCutoff="1.0000000000000000"/>
      <sparseX i="380" alpha="4.8533440269071084" sparseCutoff="1.0000000000000000"/>
      <sparseX i="381" alpha="-6.1152836464538467" sparseCutoff="1.0000000000000000"/>
      <sparseX i="382" alpha="-6.2735271462396227" sparseCutoff="1.0000000000000000"/>
      <sparseX i="383" alpha="-10.010361488719962" sparseCutoff="1.0000000000000000"/>
      <sparseX i="384" alpha="8.3984701440631770" sparseCutoff="1.0000000000000000"/>
      <sparseX i="385" alpha="8.2758328859479438" sparseCutoff="1.0000000000000000"/>
      <sparseX i="386" alpha="-.72637081498008638" sparseCutoff="1.0000000000000000"/>
      <sparseX i="387" alpha="9.3377560949241740" sparseCutoff="1.0000000000000000"/>
      <sparseX i="388" alpha="-5.5557911917087504" sparseCutoff="1.0000000000000000"/>
      <sparseX i="389" alpha=".61136045526387905" sparseCutoff="1.0000000000000000"/>
      <sparseX i="390" alpha="4.7318170087477762" sparseCutoff="1.0000000000000000"/>
      <sparseX i="391" alpha="4.0540430762828432" sparseCutoff="1.0000000000000000"/>
      <sparseX i="392" alpha="7.5126758057423002" sparseCutoff="1.0000000000000000"/>
      <sparseX i="393" alpha="9.6665956920926011" sparseCutoff="1.0000000000000000"/>
      <sparseX i="394" alpha="-4.6950719877952878" sparseCutoff="1.0000000000000000"/>
      <sparseX i="395" alpha="6.6829426285355193" sparseCutoff="1.0000000000000000"/>
      <sparseX i="396" alpha="-2.0535338896079365" sparseCutoff="1.0000000000000000"/>
      <sparseX i="397" alpha="-2.4902568546863582" sparseCutoff="1.0000000000000000"/>
      <sparseX i="398" alpha="3.3427426876402455" sparseCutoff="1.0000000000000000"/>
      <sparseX i="399" alpha="-2.5129233470661481" sparseCutoff="1.0000000000000000"/>
      <sparseX i="400" alpha="1.1224790911133051" sparseCutoff="1.0000000000000000"/>
      <sparseX i="401" alpha="5.3423806792218809" sparseCutoff="1.0000000000000000"/>
      <sparseX i="402" alpha="-5.4512245804826174" sparseCutoff="1.0000000000000000"/>
      <sparseX i="403" alpha="-4.6280614309457411" sparseCutoff="1.0000000000000000"/>
      <sparseX i="404" alpha="-10.611891626363356" sparseCutoff="1.0000000000000000"/>
      <sparseX i="405" alpha="-.29633613670050168" sparseCutoff="1.0000000000000000"/>
      <sparseX i="406" alpha="-2.2104422695157080" sparseCutoff="1.0000000000000000"/>
      <sparseX i="407" alpha="-3.0701030780183927" sparseCutoff="1.0000000000000000"/>
      <sparseX i="408" alpha="-3.5040418047714286" sparseCutoff="1.0000000000000000"/>
      <sparseX i="409" alpha="-.80957798238517106E-001" sparseCutoff="1.0000000000000000"/>
      <sparseX i="410" alpha=".67389795836883226" sparseCutoff="1.0000000000000000"/>
      <sparseX i="411" alpha="3.6366845444431863" sparseCutoff="1.0000000000000000"/>
      <sparseX i="412" alpha="5.6188794808334936" sparseCutoff="1.0000000000000000"/>
      <sparseX i="413" alpha="-8.7976683949056707" sparseCutoff="1.0000000000000000"/>
      <sparseX i="414" alpha="10.866384829960458" sparseCutoff="1.0000000000000000"/>
      <sparseX i="415" alpha="-2.5864871545625827" sparseCutoff="1.0000000000000000"/>
      <sparseX i="416" alpha="2.2295359434419861" sparseCutoff="1.0000000000000000"/>
      <sparseX i="417" alpha="-9.7972627823475200" sparseCutoff="1.0000000000000000"/>
      <sparseX i="418" alpha="5.5762744690383519" sparseCutoff="1.0000000000000000"/>
      <sparseX i="419" alpha="4.0576333513441147" sparseCutoff="1.0000000000000000"/>
      <sparseX i="420" alpha="4.5584714433426399" sparseCutoff="1.0000000000000000"/>
      <sparseX i="421" alpha="-11.437063236742011" sparseCutoff="1.0000000000000000"/>
      <sparseX i="422" alpha="8.7574966511974122" sparseCutoff="1.0000000000000000"/>
      <sparseX i="423" alpha="1.9110471415530341" sparseCutoff="1.0000000000000000"/>
      <sparseX i="424" alpha="-7.2612493020475073" sparseCutoff="1.0000000000000000"/>
      <sparseX i="425" alpha="-9.7658461105061747" sparseCutoff="1.0000000000000000"/>
      <sparseX i="426" alpha="7.6598711733635874" sparseCutoff="1.0000000000000000"/>
      <sparseX i="427" alpha="4.1426021939891422" sparseCutoff="1.0000000000000000"/>
      <sparseX i="428" alpha="15.947742299280565" sparseCutoff="1.0000000000000000"/>
      <sparseX i="429" alpha="3.1326394140201632" sparseCutoff="1.0000000000000000"/>
      <sparseX i="430" alpha="-2.4455239302488940" sparseCutoff="1.0000000000000000"/>
      <sparseX i="431" alpha="-5.3355497163037500" sparseCutoff="1.0000000000000000"/>
      <sparseX i="432" alpha=".43587743026065967" sparseCutoff="1.0000000000000000"/>
      <sparseX i="433" alpha="-6.9084109699220448" sparseCutoff="1.0000000000000000"/>
      <sparseX i="434" alpha="8.4463180684626487" sparseCutoff="1.0000000000000000"/>
      <sparseX i="435" alpha="-5.1972138655053648" sparseCutoff="1.0000000000000000"/>
      <sparseX i="436" alpha="-8.4497294897162618" sparseCutoff="1.0000000000000000"/>
      <sparseX i="437" alpha="5.2623143712918345" sparseCutoff="1.0000000000000000"/>
      <sparseX i="438" alpha="5.5267443801314435" sparseCutoff="1.0000000000000000"/>
      <sparseX i="439" alpha="-6.6773714714680521" sparseCutoff="1.0000000000000000"/>
      <sparseX i="440" alpha="-7.5952699400117423" sparseCutoff="1.0000000000000000"/>
      <sparseX i="441" alpha="-5.6705390449221955" sparseCutoff="1.0000000000000000"/>
      <sparseX i="442" alpha="-2.9203010329668890" sparseCutoff="1.0000000000000000"/>
      <sparseX i="443" alpha="9.4912243424617522" sparseCutoff="1.0000000000000000"/>
      <sparseX i="444" alpha="-8.9618874118291902" sparseCutoff="1.0000000000000000"/>
      <sparseX i="445" alpha="-9.1472913549882016" sparseCutoff="1.0000000000000000"/>
      <sparseX i="446" alpha="-.76816448169636031" sparseCutoff="1.0000000000000000"/>
      <sparseX i="447" alpha="-2.0919017927748582" sparseCutoff="1.0000000000000000"/>
      <sparseX i="448" alpha="13.639449012518106" sparseCutoff="1.0000000000000000"/>
      <sparseX i="449" alpha="3.7846223926966838" sparseCutoff="1.0000000000000000"/>
      <sparseX i="450" alpha="1.4736331175666488" sparseCutoff="1.0000000000000000"/>
      <sparseX i="451" alpha="5.3824954175362292" sparseCutoff="1.0000000000000000"/>
      <sparseX i="452" alpha="2.2516860682077802" sparseCutoff="1.0000000000000000"/>
      <sparseX i="453" alpha="-10.886194548000010" sparseCutoff="1.0000000000000000"/>
      <sparseX i="454" alpha="-.34916560176626760" sparseCutoff="1.0000000000000000"/>
      <sparseX i="455" alpha="-1.6299656544267487" sparseCutoff="1.0000000000000000"/>
      <sparseX i="456" alpha="-.32009184897359511" sparseCutoff="1.0000000000000000"/>
      <sparseX i="457" alpha="14.626810694805863" sparseCutoff="1.0000000000000000"/>
      <sparseX i="458" alpha="1.6462543370994405" sparseCutoff="1.0000000000000000"/>
      <sparseX i="459" alpha="6.1859921766621770" sparseCutoff="1.0000000000000000"/>
      <sparseX i="460" alpha="-.73971439970664443" sparseCutoff="1.0000000000000000"/>
      <sparseX i="461" alpha=".10900762705657439" sparseCutoff="1.0000000000000000"/>
      <sparseX i="462" alpha="5.3571295263265490" sparseCutoff="1.0000000000000000"/>
      <sparseX i="463" alpha="11.970803630642683" sparseCutoff="1.0000000000000000"/>
      <sparseX i="464" alpha="-2.9135867075854778" sparseCutoff="1.0000000000000000"/>
      <sparseX i="465" alpha="-2.5396420804971660" sparseCutoff="1.0000000000000000"/>
      <sparseX i="466" alpha="3.7837633052254369" sparseCutoff="1.0000000000000000"/>
      <sparseX i="467" alpha="8.9529376596544079" sparseCutoff="1.0000000000000000"/>
      <sparseX i="468" alpha=".71253925066065527" sparseCutoff="1.0000000000000000"/>
      <sparseX i="469" alpha="11.293341247934213" sparseCutoff="1.0000000000000000"/>
      <sparseX i="470" alpha="-3.4157467195938360" sparseCutoff="1.0000000000000000"/>
      <sparseX i="471" alpha="3.4734838752747814" sparseCutoff="1.0000000000000000"/>
      <sparseX i="472" alpha="16.092008956847938" sparseCutoff="1.0000000000000000"/>
      <sparseX i="473" alpha="2.4601306485258987" sparseCutoff="1.0000000000000000"/>
      <sparseX i="474" alpha="-3.8544422556889160" sparseCutoff="1.0000000000000000"/>
      <sparseX i="475" alpha="-1.7101469260800997" sparseCutoff="1.0000000000000000"/>
      <sparseX i="476" alpha="-13.515211527680716" sparseCutoff="1.0000000000000000"/>
      <sparseX i="477" alpha="-1.7079452100705141" sparseCutoff="1.0000000000000000"/>
      <sparseX i="478" alpha="-3.3597486473251217" sparseCutoff="1.0000000000000000"/>
      <sparseX i="479" alpha="-4.3734311262817709" sparseCutoff="1.0000000000000000"/>
      <sparseX i="480" alpha="-.64512130543160184" sparseCutoff="1.0000000000000000"/>
      <sparseX i="481" alpha="1.0905637071886118" sparseCutoff="1.0000000000000000"/>
      <sparseX i="482" alpha="6.1438139579216404" sparseCutoff="1.0000000000000000"/>
      <sparseX i="483" alpha="-15.494065893701571" sparseCutoff="1.0000000000000000"/>
      <sparseX i="484" alpha=".88274918714691275" sparseCutoff="1.0000000000000000"/>
      <sparseX i="485" alpha="2.6096742747365393" sparseCutoff="1.0000000000000000"/>
      <sparseX i="486" alpha="-4.7467377311544556" sparseCutoff="1.0000000000000000"/>
      <sparseX i="487" alpha="4.5625350373635118" sparseCutoff="1.0000000000000000"/>
      <sparseX i="488" alpha="-2.1076794832181380" sparseCutoff="1.0000000000000000"/>
      <sparseX i="489" alpha="-6.7154090114585614" sparseCutoff="1.0000000000000000"/>
      <sparseX i="490" alpha="3.6206745411717423" sparseCutoff="1.0000000000000000"/>
      <sparseX i="491" alpha="-.88324872804371024" sparseCutoff="1.0000000000000000"/>
      <sparseX i="492" alpha="-3.4037101491022739" sparseCutoff="1.0000000000000000"/>
      <sparseX i="493" alpha="-8.7638905679190220" sparseCutoff="1.0000000000000000"/>
      <sparseX i="494" alpha="-9.3414332370259743" sparseCutoff="1.0000000000000000"/>
      <sparseX i="495" alpha="5.7116028231082048" sparseCutoff="1.0000000000000000"/>
      <sparseX i="496" alpha="6.3213294777494884" sparseCutoff="1.0000000000000000"/>
      <sparseX i="497" alpha="-8.6735035658703232" sparseCutoff="1.0000000000000000"/>
      <sparseX i="498" alpha="13.133411208934248" sparseCutoff="1.0000000000000000"/>
      <sparseX i="499" alpha="-7.7854776093510232" sparseCutoff="1.0000000000000000"/>
      <sparseX i="500" alpha="-4.2664692028205193" sparseCutoff="1.0000000000000000"/>
      <sparseX i="501" alpha="2.0808548615953013" sparseCutoff="1.0000000000000000"/>
      <sparseX i="502" alpha="-1.0376429926914892" sparseCutoff="1.0000000000000000"/>
      <sparseX i="503" alpha="6.4031640008595767" sparseCutoff="1.0000000000000000"/>
      <sparseX i="504" alpha="9.2035209296508498" sparseCutoff="1.0000000000000000"/>
      <sparseX i="505" alpha="10.572256522570974" sparseCutoff="1.0000000000000000"/>
      <sparseX i="506" alpha="14.952440158972601" sparseCutoff="1.0000000000000000"/>
      <sparseX i="507" alpha="-3.1161992214057928" sparseCutoff="1.0000000000000000"/>
      <sparseX i="508" alpha="12.396942994017760" sparseCutoff="1.0000000000000000"/>
      <sparseX i="509" alpha="-8.5556747149723993" sparseCutoff="1.0000000000000000"/>
      <sparseX i="510" alpha="-10.971518105086870" sparseCutoff="1.0000000000000000"/>
      <sparseX i="511" alpha="-4.1057845730404692" sparseCutoff="1.0000000000000000"/>
      <sparseX i="512" alpha="-12.360313835588457" sparseCutoff="1.0000000000000000"/>
      <sparseX i="513" alpha="-7.2104570093310834" sparseCutoff="1.0000000000000000"/>
      <sparseX i="514" alpha="-5.7136662422893245" sparseCutoff="1.0000000000000000"/>
      <sparseX i="515" alpha="2.2636413824824970" sparseCutoff="1.0000000000000000"/>
      <sparseX i="516" alpha="-3.2936796341478769" sparseCutoff="1.0000000000000000"/>
      <sparseX i="517" alpha="-5.7934223924560584" sparseCutoff="1.0000000000000000"/>
      <sparseX i="518" alpha="-5.0812419513541309" sparseCutoff="1.0000000000000000"/>
      <sparseX i="519" alpha="-4.3246936360335342" sparseCutoff="1.0000000000000000"/>
      <sparseX i="520" alpha="-6.1842370459315275" sparseCutoff="1.0000000000000000"/>
      <sparseX i="521" alpha="-5.6976635772845503" sparseCutoff="1.0000000000000000"/>
      <sparseX i="522" alpha="-6.7581687032454818" sparseCutoff="1.0000000000000000"/>
      <sparseX i="523" alpha="-3.3852461916706007" sparseCutoff="1.0000000000000000"/>
      <sparseX i="524" alpha="3.8850328922973971" sparseCutoff="1.0000000000000000"/>
      <sparseX i="525" alpha="-9.8429775712016525" sparseCutoff="1.0000000000000000"/>
      <sparseX i="526" alpha="-15.262749387703339" sparseCutoff="1.0000000000000000"/>
      <sparseX i="527" alpha="12.200123814512201" sparseCutoff="1.0000000000000000"/>
      <sparseX i="528" alpha="1.4828567732568601" sparseCutoff="1.0000000000000000"/>
      <sparseX i="529" alpha="1.3452953397346510" sparseCutoff="1.0000000000000000"/>
      <sparseX i="530" alpha="-1.1850429410453549" sparseCutoff="1.0000000000000000"/>
      <sparseX i="531" alpha="1.5470110957824696" sparseCutoff="1.0000000000000000"/>
      <sparseX i="532" alpha="2.1034360839840436" sparseCutoff="1.0000000000000000"/>
      <sparseX i="533" alpha=".14895212046171671" sparseCutoff="1.0000000000000000"/>
      <sparseX i="534" alpha="-2.6420310010289403" sparseCutoff="1.0000000000000000"/>
      <sparseX i="535" alpha="-2.5432490796606442" sparseCutoff="1.0000000000000000"/>
      <sparseX i="536" alpha=".77868368450360193" sparseCutoff="1.0000000000000000"/>
      <sparseX i="537" alpha="2.7556995578817873" sparseCutoff="1.0000000000000000"/>
      <sparseX i="538" alpha="-10.932517842527467" sparseCutoff="1.0000000000000000"/>
      <sparseX i="539" alpha="5.6199478004639376" sparseCutoff="1.0000000000000000"/>
      <sparseX i="540" alpha="-14.869249672789950" sparseCutoff="1.0000000000000000"/>
      <sparseX i="541" alpha="-6.9676271879046929" sparseCutoff="1.0000000000000000"/>
      <sparseX i="542" alpha="5.5975392162538995" sparseCutoff="1.0000000000000000"/>
      <sparseX i="543" alpha="18.780304003556143" sparseCutoff="1.0000000000000000"/>
      <sparseX i="544" alpha="-.64685226819663999" sparseCutoff="1.0000000000000000"/>
      <sparseX i="545" alpha="-.23834352509718210" sparseCutoff="1.0000000000000000"/>
      <sparseX i="546" alpha="11.833875037283335" sparseCutoff="1.0000000000000000"/>
      <sparseX i="547" alpha="-1.3752889569405751" sparseCutoff="1.0000000000000000"/>
      <sparseX i="548" alpha="1.6918928463637564" sparseCutoff="1.0000000000000000"/>
      <sparseX i="549" alpha="9.0744108357640538" sparseCutoff="1.0000000000000000"/>
      <sparseX i="550" alpha="-.59835908745708122" sparseCutoff="1.0000000000000000"/>
      <sparseX i="551" alpha="-3.3668584947265501" sparseCutoff="1.0000000000000000"/>
      <sparseX i="552" alpha="-10.542820585157500" sparseCutoff="1.0000000000000000"/>
      <sparseX i="553" alpha="1.0764752717008599" sparseCutoff="1.0000000000000000"/>
      <sparseX i="554" alpha="-1.5639345497598363" sparseCutoff="1.0000000000000000"/>
      <sparseX i="555" alpha="-3.6442975795439416" sparseCutoff="1.0000000000000000"/>
      <sparseX i="556" alpha="-11.474419639685394" sparseCutoff="1.0000000000000000"/>
      <sparseX i="557" alpha="-10.552493813384059" sparseCutoff="1.0000000000000000"/>
      <sparseX i="558" alpha="2.6050322610914360" sparseCutoff="1.0000000000000000"/>
      <sparseX i="559" alpha="3.6618232412916574" sparseCutoff="1.0000000000000000"/>
      <sparseX i="560" alpha="2.0429184728272292" sparseCutoff="1.0000000000000000"/>
      <sparseX i="561" alpha="-7.6915642963908226" sparseCutoff="1.0000000000000000"/>
      <sparseX i="562" alpha="-5.5302901797056654" sparseCutoff="1.0000000000000000"/>
      <sparseX i="563" alpha="-12.300958753297875" sparseCutoff="1.0000000000000000"/>
      <sparseX i="564" alpha="-10.004331265297182" sparseCutoff="1.0000000000000000"/>
      <sparseX i="565" alpha="11.060077709041543" sparseCutoff="1.0000000000000000"/>
      <sparseX i="566" alpha="9.3374558113448831" sparseCutoff="1.0000000000000000"/>
      <sparseX i="567" alpha="5.2480724986423430" sparseCutoff="1.0000000000000000"/>
      <sparseX i="568" alpha="13.870353223183889" sparseCutoff="1.0000000000000000"/>
      <sparseX i="569" alpha=".33164065351521776" sparseCutoff="1.0000000000000000"/>
      <sparseX i="570" alpha="6.9262495817664895" sparseCutoff="1.0000000000000000"/>
      <sparseX i="571" alpha="11.451120497731289" sparseCutoff="1.0000000000000000"/>
      <sparseX i="572" alpha="-.60514679049275738E-001" sparseCutoff="1.0000000000000000"/>
      <sparseX i="573" alpha="3.0033208711673107" sparseCutoff="1.0000000000000000"/>
      <sparseX i="574" alpha="-2.9292888785647708" sparseCutoff="1.0000000000000000"/>
      <sparseX i="575" alpha="14.840144181354241" sparseCutoff="1.0000000000000000"/>
      <sparseX i="576" alpha="-3.9643929398803706" sparseCutoff="1.0000000000000000"/>
      <sparseX i="577" alpha="-8.5204206457991614" sparseCutoff="1.0000000000000000"/>
      <sparseX i="578" alpha="12.115309698574587" sparseCutoff="1.0000000000000000"/>
      <sparseX i="579" alpha="-7.3262074909060519" sparseCutoff="1.0000000000000000"/>
      <sparseX i="580" alpha="-7.9065345885096043" sparseCutoff="1.0000000000000000"/>
      <sparseX i="581" alpha="6.2446068918225848" sparseCutoff="1.0000000000000000"/>
      <sparseX i="582" alpha="5.6764466775403530" sparseCutoff="1.0000000000000000"/>
      <sparseX i="583" alpha="-4.2585639310497685" sparseCutoff="1.0000000000000000"/>
      <sparseX i="584" alpha="-8.4704627317404544" sparseCutoff="1.0000000000000000"/>
      <sparseX i="585" alpha="14.528854464201528" sparseCutoff="1.0000000000000000"/>
      <sparseX i="586" alpha="-1.5191727621285593" sparseCutoff="1.0000000000000000"/>
      <sparseX i="587" alpha=".41306633808339549" sparseCutoff="1.0000000000000000"/>
      <sparseX i="588" alpha="-2.8001131407696529" sparseCutoff="1.0000000000000000"/>
      <sparseX i="589" alpha="-15.774875930704612" sparseCutoff="1.0000000000000000"/>
      <sparseX i="590" alpha="-2.8174944375877273" sparseCutoff="1.0000000000000000"/>
      <sparseX i="591" alpha="-1.7234918716129148" sparseCutoff="1.0000000000000000"/>
      <sparseX i="592" alpha="1.9119602658283721" sparseCutoff="1.0000000000000000"/>
      <sparseX i="593" alpha="3.7946162618057633" sparseCutoff="1.0000000000000000"/>
      <sparseX i="594" alpha="6.0423043125830160" sparseCutoff="1.0000000000000000"/>
      <sparseX i="595" alpha="-3.3842302690522925" sparseCutoff="1.0000000000000000"/>
      <sparseX i="596" alpha="3.3523996752052829" sparseCutoff="1.0000000000000000"/>
      <sparseX i="597" alpha="20.030524544646848" sparseCutoff="1.0000000000000000"/>
      <sparseX i="598" alpha="-12.921143282230485" sparseCutoff="1.0000000000000000"/>
      <sparseX i="599" alpha="7.8339873915740306" sparseCutoff="1.0000000000000000"/>
      <sparseX i="600" alpha="-5.1066259893134802" sparseCutoff="1.0000000000000000"/>
      <sparseX i="601" alpha="-3.3230675861364869" sparseCutoff="1.0000000000000000"/>
      <sparseX i="602" alpha="10.389959339526555" sparseCutoff="1.0000000000000000"/>
      <sparseX i="603" alpha="-.52893626159083118" sparseCutoff="1.0000000000000000"/>
      <sparseX i="604" alpha="8.2410090106827401" sparseCutoff="1.0000000000000000"/>
      <sparseX i="605" alpha="-5.6181253335670736" sparseCutoff="1.0000000000000000"/>
      <sparseX i="606" alpha="10.376361184878446" sparseCutoff="1.0000000000000000"/>
      <sparseX i="607" alpha="-8.8086380329717322" sparseCutoff="1.0000000000000000"/>
      <sparseX i="608" alpha="-13.404594049245370" sparseCutoff="1.0000000000000000"/>
      <sparseX i="609" alpha="-9.0531605441968246" sparseCutoff="1.0000000000000000"/>
      <sparseX i="610" alpha="5.4191865137991666" sparseCutoff="1.0000000000000000"/>
      <sparseX i="611" alpha="3.2978630821441457" sparseCutoff="1.0000000000000000"/>
      <sparseX i="612" alpha=".32172013110254416" sparseCutoff="1.0000000000000000"/>
      <sparseX i="613" alpha="3.8133631807083801" sparseCutoff="1.0000000000000000"/>
      <sparseX i="614" alpha="2.2618317507554719" sparseCutoff="1.0000000000000000"/>
      <sparseX i="615" alpha="-15.165910699419756" sparseCutoff="1.0000000000000000"/>
      <sparseX i="616" alpha="-6.3832693763496389" sparseCutoff="1.0000000000000000"/>
      <sparseX i="617" alpha="-4.5002106526507024" sparseCutoff="1.0000000000000000"/>
      <sparseX i="618" alpha=".33308919067659615" sparseCutoff="1.0000000000000000"/>
      <sparseX i="619" alpha="-4.6955666020641553" sparseCutoff="1.0000000000000000"/>
      <sparseX i="620" alpha="-4.3929217391615225" sparseCutoff="1.0000000000000000"/>
      <sparseX i="621" alpha="-5.1552163529237935" sparseCutoff="1.0000000000000000"/>
      <sparseX i="622" alpha="-3.0686776717253132" sparseCutoff="1.0000000000000000"/>
      <sparseX i="623" alpha="2.9787183303198201" sparseCutoff="1.0000000000000000"/>
      <sparseX i="624" alpha="7.8076283279866470" sparseCutoff="1.0000000000000000"/>
      <sparseX i="625" alpha="9.1523866565377414" sparseCutoff="1.0000000000000000"/>
      <sparseX i="626" alpha="-2.5947970377918881" sparseCutoff="1.0000000000000000"/>
      <sparseX i="627" alpha="8.7824623846320868" sparseCutoff="1.0000000000000000"/>
      <sparseX i="628" alpha="-3.2161026523858212" sparseCutoff="1.0000000000000000"/>
      <sparseX i="629" alpha="10.763636310540463" sparseCutoff="1.0000000000000000"/>
      <sparseX i="630" alpha="-2.0261759152161587" sparseCutoff="1.0000000000000000"/>
      <sparseX i="631" alpha="-1.6482879511601074" sparseCutoff="1.0000000000000000"/>
      <sparseX i="632" alpha=".19190011525192996" sparseCutoff="1.0000000000000000"/>
      <sparseX i="633" alpha="-11.691734287819793" sparseCutoff="1.0000000000000000"/>
      <sparseX i="634" alpha="-12.283965422105474" sparseCutoff="1.0000000000000000"/>
      <sparseX i="635" alpha="8.8048662028403530" sparseCutoff="1.0000000000000000"/>
      <sparseX i="636" alpha="-1.8874821238261170" sparseCutoff="1.0000000000000000"/>
      <sparseX i="637" alpha="-4.4713494903607245" sparseCutoff="1.0000000000000000"/>
      <sparseX i="638" alpha="-9.1587456093329092" sparseCutoff="1.0000000000000000"/>
      <sparseX i="639" alpha="4.2755604036147288" sparseCutoff="1.0000000000000000"/>
      <sparseX i="640" alpha="-3.3422624299892565" sparseCutoff="1.0000000000000000"/>
      <sparseX i="641" alpha="-13.737213016214163" sparseCutoff="1.0000000000000000"/>
      <sparseX i="642" alpha="5.6329249563938335" sparseCutoff="1.0000000000000000"/>
      <sparseX i="643" alpha="12.494220583825786" sparseCutoff="1.0000000000000000"/>
      <sparseX i="644" alpha="-12.393541597808063" sparseCutoff="1.0000000000000000"/>
      <sparseX i="645" alpha="3.4090895690340353" sparseCutoff="1.0000000000000000"/>
      <sparseX i="646" alpha="-4.9159097300970798" sparseCutoff="1.0000000000000000"/>
      <sparseX i="647" alpha="1.3795494655129523" sparseCutoff="1.0000000000000000"/>
