<GAP_2021_4_19_120_7_32_55_336>
<Potential label="GAP_2021_4_19_120_7_32_55_336" init_args="IP GAP label=GAP_2021_4_19_120_7_32_55_336"/>
<GAP_params label="GAP_2021_4_19_120_7_32_55_336" gap_version="1586208933">
  <GAP_data do_core="F">
    <e0 Z="1" value=".00000000000000000E+000"/>
    <e0 Z="2" value=".00000000000000000E+000"/>
    <e0 Z="3" value=".00000000000000000E+000"/>
    <e0 Z="4" value=".00000000000000000E+000"/>
    <e0 Z="5" value=".00000000000000000E+000"/>
    <e0 Z="6" value=".00000000000000000E+000"/>
    <e0 Z="7" value=".00000000000000000E+000"/>
    <e0 Z="8" value="-.74034032000000005"/>
    <e0 Z="9" value=".00000000000000000E+000"/>
    <e0 Z="10" value=".00000000000000000E+000"/>
    <e0 Z="11" value=".00000000000000000E+000"/>
    <e0 Z="12" value=".00000000000000000E+000"/>
    <e0 Z="13" value=".00000000000000000E+000"/>
    <e0 Z="14" value="-4.1456843200000000"/>
    <e0 Z="15" value=".00000000000000000E+000"/>
    <e0 Z="16" value=".00000000000000000E+000"/>
    <e0 Z="17" value=".00000000000000000E+000"/>
    <e0 Z="18" value=".00000000000000000E+000"/>
    <e0 Z="19" value=".00000000000000000E+000"/>
    <e0 Z="20" value=".00000000000000000E+000"/>
    <e0 Z="21" value=".00000000000000000E+000"/>
    <e0 Z="22" value=".00000000000000000E+000"/>
    <e0 Z="23" value=".00000000000000000E+000"/>
    <e0 Z="24" value=".00000000000000000E+000"/>
    <e0 Z="25" value=".00000000000000000E+000"/>
    <e0 Z="26" value=".00000000000000000E+000"/>
    <e0 Z="27" value=".00000000000000000E+000"/>
    <e0 Z="28" value=".00000000000000000E+000"/>
    <e0 Z="29" value=".00000000000000000E+000"/>
    <e0 Z="30" value=".00000000000000000E+000"/>
    <e0 Z="31" value=".00000000000000000E+000"/>
    <e0 Z="32" value=".00000000000000000E+000"/>
    <e0 Z="33" value=".00000000000000000E+000"/>
    <e0 Z="34" value=".00000000000000000E+000"/>
    <e0 Z="35" value=".00000000000000000E+000"/>
    <e0 Z="36" value=".00000000000000000E+000"/>
    <e0 Z="37" value=".00000000000000000E+000"/>
    <e0 Z="38" value=".00000000000000000E+000"/>
    <e0 Z="39" value=".00000000000000000E+000"/>
    <e0 Z="40" value=".00000000000000000E+000"/>
    <e0 Z="41" value=".00000000000000000E+000"/>
    <e0 Z="42" value=".00000000000000000E+000"/>
    <e0 Z="43" value=".00000000000000000E+000"/>
    <e0 Z="44" value=".00000000000000000E+000"/>
    <e0 Z="45" value=".00000000000000000E+000"/>
    <e0 Z="46" value=".00000000000000000E+000"/>
    <e0 Z="47" value=".00000000000000000E+000"/>
    <e0 Z="48" value=".00000000000000000E+000"/>
    <e0 Z="49" value=".00000000000000000E+000"/>
    <e0 Z="50" value=".00000000000000000E+000"/>
    <e0 Z="51" value=".00000000000000000E+000"/>
    <e0 Z="52" value=".00000000000000000E+000"/>
    <e0 Z="53" value=".00000000000000000E+000"/>
    <e0 Z="54" value=".00000000000000000E+000"/>
    <e0 Z="55" value=".00000000000000000E+000"/>
    <e0 Z="56" value=".00000000000000000E+000"/>
    <e0 Z="57" value=".00000000000000000E+000"/>
    <e0 Z="58" value=".00000000000000000E+000"/>
    <e0 Z="59" value=".00000000000000000E+000"/>
    <e0 Z="60" value=".00000000000000000E+000"/>
    <e0 Z="61" value=".00000000000000000E+000"/>
    <e0 Z="62" value=".00000000000000000E+000"/>
    <e0 Z="63" value=".00000000000000000E+000"/>
    <e0 Z="64" value=".00000000000000000E+000"/>
    <e0 Z="65" value=".00000000000000000E+000"/>
    <e0 Z="66" value=".00000000000000000E+000"/>
    <e0 Z="67" value=".00000000000000000E+000"/>
    <e0 Z="68" value=".00000000000000000E+000"/>
    <e0 Z="69" value=".00000000000000000E+000"/>
    <e0 Z="70" value=".00000000000000000E+000"/>
    <e0 Z="71" value=".00000000000000000E+000"/>
    <e0 Z="72" value=".00000000000000000E+000"/>
    <e0 Z="73" value=".00000000000000000E+000"/>
    <e0 Z="74" value=".00000000000000000E+000"/>
    <e0 Z="75" value=".00000000000000000E+000"/>
    <e0 Z="76" value=".00000000000000000E+000"/>
    <e0 Z="77" value=".00000000000000000E+000"/>
    <e0 Z="78" value=".00000000000000000E+000"/>
    <e0 Z="79" value=".00000000000000000E+000"/>
    <e0 Z="80" value=".00000000000000000E+000"/>
    <e0 Z="81" value=".00000000000000000E+000"/>
    <e0 Z="82" value=".00000000000000000E+000"/>
    <e0 Z="83" value=".00000000000000000E+000"/>
    <e0 Z="84" value=".00000000000000000E+000"/>
    <e0 Z="85" value=".00000000000000000E+000"/>
    <e0 Z="86" value=".00000000000000000E+000"/>
    <e0 Z="87" value=".00000000000000000E+000"/>
    <e0 Z="88" value=".00000000000000000E+000"/>
    <e0 Z="89" value=".00000000000000000E+000"/>
    <e0 Z="90" value=".00000000000000000E+000"/>
    <e0 Z="91" value=".00000000000000000E+000"/>
    <e0 Z="92" value=".00000000000000000E+000"/>
    <e0 Z="93" value=".00000000000000000E+000"/>
    <e0 Z="94" value=".00000000000000000E+000"/>
    <e0 Z="95" value=".00000000000000000E+000"/>
    <e0 Z="96" value=".00000000000000000E+000"/>
    <e0 Z="97" value=".00000000000000000E+000"/>
    <e0 Z="98" value=".00000000000000000E+000"/>
    <e0 Z="99" value=".00000000000000000E+000"/>
    <e0 Z="100" value=".00000000000000000E+000"/>
    <e0 Z="101" value=".00000000000000000E+000"/>
    <e0 Z="102" value=".00000000000000000E+000"/>
    <e0 Z="103" value=".00000000000000000E+000"/>
    <e0 Z="104" value=".00000000000000000E+000"/>
    <e0 Z="105" value=".00000000000000000E+000"/>
    <e0 Z="106" value=".00000000000000000E+000"/>
    <e0 Z="107" value=".00000000000000000E+000"/>
    <e0 Z="108" value=".00000000000000000E+000"/>
    <e0 Z="109" value=".00000000000000000E+000"/>
    <e0 Z="110" value=".00000000000000000E+000"/>
    <e0 Z="111" value=".00000000000000000E+000"/>
    <e0 Z="112" value=".00000000000000000E+000"/>
    <e0 Z="113" value=".00000000000000000E+000"/>
    <e0 Z="114" value=".00000000000000000E+000"/>
    <e0 Z="115" value=".00000000000000000E+000"/>
    <e0 Z="116" value=".00000000000000000E+000"/>
    <e0 Z="117" value=".00000000000000000E+000"/>
    <e0 Z="118" value=".00000000000000000E+000"/>
  </GAP_data>
  <gpSparse label="GAP_2021_4_19_120_7_32_55_336" n_coordinate="5">
    <gpCoordinates label="GAP_2021_4_19_120_7_32_55_3361" dimensions="1" signal_variance="4.0000000000000000" signal_mean=".00000000000000000E+000" sparsified="T" n_permutations="1" covariance_type="1" n_sparseX="15" sparseX_filename="silica_gap.xml.sparseX.GAP_2021_4_19_120_7_32_55_3361" sparseX_md5sum="78a28f979c9713bf05e21c2139c29682">
      <theta>  0.20000000000000000E+001 </theta>
      <descriptor>distance_Nb order=2 cutoff=5 n_sparse=15 covariance_type=ard_se delta=4 theta_uniform=2.0 sparse_method=uniform compact_clusters=T n_species=2 add_species=F Z={8 14}</descriptor>
      <permutation i="1">1  </permutation>
      <sparseX i="1" alpha="-30662.316308591104" sparseCutoff="1.0000000000000000"/>
      <sparseX i="2" alpha="-145952.34317815391" sparseCutoff="1.0000000000000000"/>
      <sparseX i="3" alpha="191.02854566691468" sparseCutoff="1.0000000000000000"/>
      <sparseX i="4" alpha="28473.395151134817" sparseCutoff="1.0000000000000000"/>
      <sparseX i="5" alpha="-55505.610059774866" sparseCutoff="1.0000000000000000"/>
      <sparseX i="6" alpha="34690.948484915563" sparseCutoff="1.0000000000000000"/>
      <sparseX i="7" alpha="2751.9124637745836" sparseCutoff="1.0000000000000000"/>
      <sparseX i="8" alpha="2324.4950843663291" sparseCutoff=".49860209273390743E-002"/>
      <sparseX i="9" alpha="-11768.368729720969" sparseCutoff=".19084706448598265"/>
      <sparseX i="10" alpha="68568.878231260009" sparseCutoff="1.0000000000000000"/>
      <sparseX i="11" alpha="59287.879560709865" sparseCutoff="1.0000000000000000"/>
      <sparseX i="12" alpha="8082.7408336539329" sparseCutoff="1.0000000000000000"/>
      <sparseX i="13" alpha="-60814.936309142220" sparseCutoff="1.0000000000000000"/>
      <sparseX i="14" alpha="143164.70410820612" sparseCutoff="1.0000000000000000"/>
      <sparseX i="15" alpha="-50030.616583286312" sparseCutoff="1.0000000000000000"/>
    </gpCoordinates>
    <gpCoordinates label="GAP_2021_4_19_120_7_32_55_3362" dimensions="1" signal_variance="4.0000000000000000" signal_mean=".00000000000000000E+000" sparsified="T" n_permutations="2" covariance_type="1" n_sparseX="15" sparseX_filename="silica_gap.xml.sparseX.GAP_2021_4_19_120_7_32_55_3362" sparseX_md5sum="463d67c402a1d26fdf22cbcb1148cdd9">
      <theta>  0.20000000000000000E+001 </theta>
      <descriptor> distance_Nb order=2 cutoff=5 n_sparse=15 covariance_type=ard_se delta=4.0 theta_uniform=2.0 sparse_method=uniform compact_clusters=T n_species=1 Z={14 14} add_species=F</descriptor>
      <permutation i="1">1  </permutation>
      <permutation i="2">1  </permutation>
      <sparseX i="1" alpha="-162.79618282068537" sparseCutoff="1.0000000000000000"/>
      <sparseX i="2" alpha="-1968.1355825683279" sparseCutoff="1.0000000000000000"/>
      <sparseX i="3" alpha="-830.22716019026120" sparseCutoff="1.0000000000000000"/>
      <sparseX i="4" alpha="-1383.3981690162595" sparseCutoff="1.0000000000000000"/>
      <sparseX i="5" alpha="873.34752338691749" sparseCutoff=".82199474802189609"/>
      <sparseX i="6" alpha="-763.72044740531442" sparseCutoff="1.0000000000000000"/>
      <sparseX i="7" alpha="-577.22812934987928" sparseCutoff="1.0000000000000000"/>
      <sparseX i="8" alpha="-2.4028298773182470" sparseCutoff=".34817355462957167E-004"/>
      <sparseX i="9" alpha="164.68427204502336" sparseCutoff="1.0000000000000000"/>
      <sparseX i="10" alpha="2612.9406991353753" sparseCutoff="1.0000000000000000"/>
      <sparseX i="11" alpha="2474.5626109850291" sparseCutoff="1.0000000000000000"/>
      <sparseX i="12" alpha="1473.0054633237430" sparseCutoff="1.0000000000000000"/>
      <sparseX i="13" alpha="-985.18214496347582" sparseCutoff="1.0000000000000000"/>
      <sparseX i="14" alpha="1484.6135365206471" sparseCutoff="1.0000000000000000"/>
      <sparseX i="15" alpha="-2253.3412826430481" sparseCutoff="1.0000000000000000"/>
    </gpCoordinates>
    <gpCoordinates label="GAP_2021_4_19_120_7_32_55_3363" dimensions="1" signal_variance="4.0000000000000000" signal_mean=".00000000000000000E+000" sparsified="T" n_permutations="2" covariance_type="1" n_sparseX="15" sparseX_filename="silica_gap.xml.sparseX.GAP_2021_4_19_120_7_32_55_3363" sparseX_md5sum="127998d6caac94f9a09795da84c20671">
      <theta>  0.12500000000000000E+001 </theta>
      <descriptor> distance_Nb order=2 cutoff=5 n_sparse=15 covariance_type=ard_se delta=4.0 theta_uniform=1.25 sparse_method=uniform compact_clusters=T n_species=1 Z={8 8} add_species=F</descriptor>
      <permutation i="1">1  </permutation>
      <permutation i="2">1  </permutation>
      <sparseX i="1" alpha="41277.557871972720" sparseCutoff=".87244188435907921E-001"/>
      <sparseX i="2" alpha="6413.4054942833909" sparseCutoff="1.0000000000000000"/>
      <sparseX i="3" alpha="-18726.577441796057" sparseCutoff=".37712606934956483"/>
      <sparseX i="4" alpha="8036.1625137576393" sparseCutoff="1.0000000000000000"/>
      <sparseX i="5" alpha="17837.019177938248" sparseCutoff="1.0000000000000000"/>
      <sparseX i="6" alpha="-4457.1358368309548" sparseCutoff="1.0000000000000000"/>
      <sparseX i="7" alpha="18402.419390931464" sparseCutoff="1.0000000000000000"/>
      <sparseX i="8" alpha="-11141.986510962750" sparseCutoff="1.0000000000000000"/>
      <sparseX i="9" alpha="-28108.065514779959" sparseCutoff="1.0000000000000000"/>
      <sparseX i="10" alpha="9584.9589628958220" sparseCutoff="1.0000000000000000"/>
      <sparseX i="11" alpha="-10251.691503136974" sparseCutoff="1.0000000000000000"/>
      <sparseX i="12" alpha="-17828.721566025939" sparseCutoff="1.0000000000000000"/>
      <sparseX i="13" alpha="20221.859592514920" sparseCutoff="1.0000000000000000"/>
      <sparseX i="14" alpha="-67449.681912581713" sparseCutoff="1.0000000000000000"/>
      <sparseX i="15" alpha="62208.655269599672" sparseCutoff="1.0000000000000000"/>
    </gpCoordinates>
    <gpCoordinates label="GAP_2021_4_19_120_7_32_55_3364" dimensions="1501" signal_variance=".40000000000000002" signal_mean=".00000000000000000E+000" sparsified="T" n_permutations="1" covariance_type="2" zeta="4.0000000000000000" n_sparseX="4060" sparseX_filename="silica_gap.xml.sparseX.GAP_2021_4_19_120_7_32_55_3364" sparseX_md5sum="7fdd79d202effda0d95b8979566353bf">
      <descriptor> soap l_max=4 n_max=12 atom_sigma=0.5 zeta=4 cutoff=5.0 cutoff_transition_width=1.0 central_weight=1.0 config_type_n_sparse=bulk_amo:1000:bulk_cryst:1000:cluster:60:quench:1000:liquid:1000 delta=0.4 f0=0.0 covariance_type=dot_product sparse_method=cur_points               n_species=2 Z=8 species_Z={8 14 }</descriptor>
      <permutation i="1">1  </permutation>
      <sparseX i="1" alpha="-654.34335586922373" sparseCutoff="1.0000000000000000"/>
      <sparseX i="2" alpha="-577.85508377982887" sparseCutoff="1.0000000000000000"/>
      <sparseX i="3" alpha="-3913.3545075762813" sparseCutoff="1.0000000000000000"/>
      <sparseX i="4" alpha="-2337.3998516168567" sparseCutoff="1.0000000000000000"/>
      <sparseX i="5" alpha="-221.17953817469433" sparseCutoff="1.0000000000000000"/>
      <sparseX i="6" alpha="552.95846288713778" sparseCutoff="1.0000000000000000"/>
      <sparseX i="7" alpha="-80.252110958256068" sparseCutoff="1.0000000000000000"/>
      <sparseX i="8" alpha="2273.2523646649597" sparseCutoff="1.0000000000000000"/>
      <sparseX i="9" alpha="-1406.8137517515577" sparseCutoff="1.0000000000000000"/>
      <sparseX i="10" alpha="139.16826017881610" sparseCutoff="1.0000000000000000"/>
      <sparseX i="11" alpha="1547.6382608035483" sparseCutoff="1.0000000000000000"/>
      <sparseX i="12" alpha="199.58489511694862" sparseCutoff="1.0000000000000000"/>
      <sparseX i="13" alpha="-892.63609330079885" sparseCutoff="1.0000000000000000"/>
      <sparseX i="14" alpha="-4691.6884925172481" sparseCutoff="1.0000000000000000"/>
      <sparseX i="15" alpha="-735.36655095781452" sparseCutoff="1.0000000000000000"/>
      <sparseX i="16" alpha="343.47463253164767" sparseCutoff="1.0000000000000000"/>
      <sparseX i="17" alpha="418.68157678370972" sparseCutoff="1.0000000000000000"/>
      <sparseX i="18" alpha="671.59560035222296" sparseCutoff="1.0000000000000000"/>
      <sparseX i="19" alpha="-2915.0067258080076" sparseCutoff="1.0000000000000000"/>
      <sparseX i="20" alpha="2769.3593836295267" sparseCutoff="1.0000000000000000"/>
      <sparseX i="21" alpha="-4190.3671188254357" sparseCutoff="1.0000000000000000"/>
      <sparseX i="22" alpha="1896.5808975575910" sparseCutoff="1.0000000000000000"/>
      <sparseX i="23" alpha="9269.3609220408016" sparseCutoff="1.0000000000000000"/>
      <sparseX i="24" alpha="-1059.5817468617072" sparseCutoff="1.0000000000000000"/>
      <sparseX i="25" alpha="534.14830342222433" sparseCutoff="1.0000000000000000"/>
      <sparseX i="26" alpha="-568.54148074591808" sparseCutoff="1.0000000000000000"/>
      <sparseX i="27" alpha="2950.8239488543504" sparseCutoff="1.0000000000000000"/>
      <sparseX i="28" alpha="2816.1561434220343" sparseCutoff="1.0000000000000000"/>
      <sparseX i="29" alpha="-217.73972537482248" sparseCutoff="1.0000000000000000"/>
      <sparseX i="30" alpha="-5117.2567643199245" sparseCutoff="1.0000000000000000"/>
      <sparseX i="31" alpha="1917.7658070784294" sparseCutoff="1.0000000000000000"/>
      <sparseX i="32" alpha="2243.8564765504930" sparseCutoff="1.0000000000000000"/>
      <sparseX i="33" alpha="123.94810662607949" sparseCutoff="1.0000000000000000"/>
      <sparseX i="34" alpha="2794.8158791483856" sparseCutoff="1.0000000000000000"/>
      <sparseX i="35" alpha="-1749.8331961778824" sparseCutoff="1.0000000000000000"/>
      <sparseX i="36" alpha="417.33689483842937" sparseCutoff="1.0000000000000000"/>
      <sparseX i="37" alpha="675.64626896101322" sparseCutoff="1.0000000000000000"/>
      <sparseX i="38" alpha="-1143.3500287522777" sparseCutoff="1.0000000000000000"/>
      <sparseX i="39" alpha="896.36014538501547" sparseCutoff="1.0000000000000000"/>
      <sparseX i="40" alpha="-683.19162693481269" sparseCutoff="1.0000000000000000"/>
      <sparseX i="41" alpha="-323.55200850391174" sparseCutoff="1.0000000000000000"/>
      <sparseX i="42" alpha="1455.7006758566504" sparseCutoff="1.0000000000000000"/>
      <sparseX i="43" alpha="-828.66429189848009" sparseCutoff="1.0000000000000000"/>
      <sparseX i="44" alpha="-3795.7927493233638" sparseCutoff="1.0000000000000000"/>
      <sparseX i="45" alpha="-4225.1271847631833" sparseCutoff="1.0000000000000000"/>
      <sparseX i="46" alpha="-242.65677453076944" sparseCutoff="1.0000000000000000"/>
      <sparseX i="47" alpha="-1968.3922516645900" sparseCutoff="1.0000000000000000"/>
      <sparseX i="48" alpha="-4836.0420357281728" sparseCutoff="1.0000000000000000"/>
      <sparseX i="49" alpha="885.48496460261117" sparseCutoff="1.0000000000000000"/>
      <sparseX i="50" alpha="1640.1058206685500" sparseCutoff="1.0000000000000000"/>
      <sparseX i="51" alpha="3206.7989957079212" sparseCutoff="1.0000000000000000"/>
      <sparseX i="52" alpha="-3608.1497342129169" sparseCutoff="1.0000000000000000"/>
      <sparseX i="53" alpha="8951.5922694223518" sparseCutoff="1.0000000000000000"/>
      <sparseX i="54" alpha="1315.3076203394851" sparseCutoff="1.0000000000000000"/>
      <sparseX i="55" alpha="-1265.0589079263891" sparseCutoff="1.0000000000000000"/>
      <sparseX i="56" alpha="-1030.1703280150873" sparseCutoff="1.0000000000000000"/>
      <sparseX i="57" alpha="5945.8656965007149" sparseCutoff="1.0000000000000000"/>
      <sparseX i="58" alpha="-1960.3978561942683" sparseCutoff="1.0000000000000000"/>
      <sparseX i="59" alpha="-1476.7908428845706" sparseCutoff="1.0000000000000000"/>
      <sparseX i="60" alpha="1985.9844730412512" sparseCutoff="1.0000000000000000"/>
      <sparseX i="61" alpha="-856.50646820913460" sparseCutoff="1.0000000000000000"/>
      <sparseX i="62" alpha="1877.6785903380787" sparseCutoff="1.0000000000000000"/>
      <sparseX i="63" alpha="2338.0961097767149" sparseCutoff="1.0000000000000000"/>
      <sparseX i="64" alpha="169.57012030743385" sparseCutoff="1.0000000000000000"/>
      <sparseX i="65" alpha="-207.16440611384576" sparseCutoff="1.0000000000000000"/>
      <sparseX i="66" alpha="19.906085922534906" sparseCutoff="1.0000000000000000"/>
      <sparseX i="67" alpha="-3163.0160151683936" sparseCutoff="1.0000000000000000"/>
      <sparseX i="68" alpha="-351.05722331970156" sparseCutoff="1.0000000000000000"/>
      <sparseX i="69" alpha="-2165.1298063905024" sparseCutoff="1.0000000000000000"/>
      <sparseX i="70" alpha="176.45123201218527" sparseCutoff="1.0000000000000000"/>
      <sparseX i="71" alpha="195.08409342605006" sparseCutoff="1.0000000000000000"/>
      <sparseX i="72" alpha="-703.48272281004483" sparseCutoff="1.0000000000000000"/>
      <sparseX i="73" alpha="-7340.0439403703358" sparseCutoff="1.0000000000000000"/>
      <sparseX i="74" alpha="-419.85266058468932" sparseCutoff="1.0000000000000000"/>
      <sparseX i="75" alpha="-283.85539975799753" sparseCutoff="1.0000000000000000"/>
      <sparseX i="76" alpha="-910.83267159714387" sparseCutoff="1.0000000000000000"/>
      <sparseX i="77" alpha="-333.22651426799860" sparseCutoff="1.0000000000000000"/>
      <sparseX i="78" alpha="1840.7452243416205" sparseCutoff="1.0000000000000000"/>
      <sparseX i="79" alpha="456.15576859302723" sparseCutoff="1.0000000000000000"/>
      <sparseX i="80" alpha="1205.8313167585929" sparseCutoff="1.0000000000000000"/>
      <sparseX i="81" alpha="2243.1401464407049" sparseCutoff="1.0000000000000000"/>
      <sparseX i="82" alpha="2064.4897986168917" sparseCutoff="1.0000000000000000"/>
      <sparseX i="83" alpha="8.1755689073932789" sparseCutoff="1.0000000000000000"/>
      <sparseX i="84" alpha="-777.44451726540285" sparseCutoff="1.0000000000000000"/>
      <sparseX i="85" alpha="-456.29128143387243" sparseCutoff="1.0000000000000000"/>
      <sparseX i="86" alpha="1441.0005091645360" sparseCutoff="1.0000000000000000"/>
      <sparseX i="87" alpha="-763.19704622058339" sparseCutoff="1.0000000000000000"/>
      <sparseX i="88" alpha="944.13905860269870" sparseCutoff="1.0000000000000000"/>
      <sparseX i="89" alpha="-1149.4947858789219" sparseCutoff="1.0000000000000000"/>
      <sparseX i="90" alpha="-960.84278693845533" sparseCutoff="1.0000000000000000"/>
      <sparseX i="91" alpha="-1345.0499804991086" sparseCutoff="1.0000000000000000"/>
      <sparseX i="92" alpha="933.05428063255954" sparseCutoff="1.0000000000000000"/>
      <sparseX i="93" alpha="-2125.4394297315484" sparseCutoff="1.0000000000000000"/>
      <sparseX i="94" alpha="2101.7897077671428" sparseCutoff="1.0000000000000000"/>
      <sparseX i="95" alpha="495.55686668899028" sparseCutoff="1.0000000000000000"/>
      <sparseX i="96" alpha="-1211.0504121524050" sparseCutoff="1.0000000000000000"/>
      <sparseX i="97" alpha="-3088.7417391943095" sparseCutoff="1.0000000000000000"/>
      <sparseX i="98" alpha="-863.22272895741992" sparseCutoff="1.0000000000000000"/>
      <sparseX i="99" alpha="-1997.0640448959862" sparseCutoff="1.0000000000000000"/>
      <sparseX i="100" alpha="-10.406140060557725" sparseCutoff="1.0000000000000000"/>
      <sparseX i="101" alpha="439.23465782711418" sparseCutoff="1.0000000000000000"/>
      <sparseX i="102" alpha="141.33572578129889" sparseCutoff="1.0000000000000000"/>
      <sparseX i="103" alpha="1889.9160818624091" sparseCutoff="1.0000000000000000"/>
      <sparseX i="104" alpha="-818.26915397548271" sparseCutoff="1.0000000000000000"/>
      <sparseX i="105" alpha="-1152.4775302036894" sparseCutoff="1.0000000000000000"/>
      <sparseX i="106" alpha="-3106.7730460971648" sparseCutoff="1.0000000000000000"/>
      <sparseX i="107" alpha="-753.01565184935055" sparseCutoff="1.0000000000000000"/>
      <sparseX i="108" alpha="3143.8125821734311" sparseCutoff="1.0000000000000000"/>
      <sparseX i="109" alpha="-60.383546233636238" sparseCutoff="1.0000000000000000"/>
      <sparseX i="110" alpha="-2631.1945441150524" sparseCutoff="1.0000000000000000"/>
      <sparseX i="111" alpha="-901.27885836637029" sparseCutoff="1.0000000000000000"/>
      <sparseX i="112" alpha="-2948.6619474436079" sparseCutoff="1.0000000000000000"/>
      <sparseX i="113" alpha="5931.5086005131980" sparseCutoff="1.0000000000000000"/>
      <sparseX i="114" alpha="-1753.6661185407002" sparseCutoff="1.0000000000000000"/>
      <sparseX i="115" alpha="1860.6440873267622" sparseCutoff="1.0000000000000000"/>
      <sparseX i="116" alpha="-1495.4472667917316" sparseCutoff="1.0000000000000000"/>
      <sparseX i="117" alpha="-70.265571124454709" sparseCutoff="1.0000000000000000"/>
      <sparseX i="118" alpha="-2525.6367075005178" sparseCutoff="1.0000000000000000"/>
      <sparseX i="119" alpha="4297.8220470792239" sparseCutoff="1.0000000000000000"/>
      <sparseX i="120" alpha="-273.79917281995631" sparseCutoff="1.0000000000000000"/>
      <sparseX i="121" alpha="-3572.5903958101380" sparseCutoff="1.0000000000000000"/>
      <sparseX i="122" alpha="4643.6037831592939" sparseCutoff="1.0000000000000000"/>
      <sparseX i="123" alpha="819.23070593373302" sparseCutoff="1.0000000000000000"/>
      <sparseX i="124" alpha="3394.5956303176758" sparseCutoff="1.0000000000000000"/>
      <sparseX i="125" alpha="-1147.0690025306424" sparseCutoff="1.0000000000000000"/>
      <sparseX i="126" alpha="2106.4823189720501" sparseCutoff="1.0000000000000000"/>
      <sparseX i="127" alpha="-1139.8921229957823" sparseCutoff="1.0000000000000000"/>
      <sparseX i="128" alpha="-1178.4108979163893" sparseCutoff="1.0000000000000000"/>
      <sparseX i="129" alpha="636.92383332495513" sparseCutoff="1.0000000000000000"/>
      <sparseX i="130" alpha="19.855626662672471" sparseCutoff="1.0000000000000000"/>
      <sparseX i="131" alpha="-1552.4230866104924" sparseCutoff="1.0000000000000000"/>
      <sparseX i="132" alpha="-6437.5643908324701" sparseCutoff="1.0000000000000000"/>
      <sparseX i="133" alpha="4336.8007916494234" sparseCutoff="1.0000000000000000"/>
      <sparseX i="134" alpha="1211.4693105472043" sparseCutoff="1.0000000000000000"/>
      <sparseX i="135" alpha="3302.5041087751515" sparseCutoff="1.0000000000000000"/>
      <sparseX i="136" alpha="3900.6352847077319" sparseCutoff="1.0000000000000000"/>
      <sparseX i="137" alpha="-1269.2042731948682" sparseCutoff="1.0000000000000000"/>
      <sparseX i="138" alpha="-603.84805054398305" sparseCutoff="1.0000000000000000"/>
      <sparseX i="139" alpha="-9939.2185915403043" sparseCutoff="1.0000000000000000"/>
      <sparseX i="140" alpha="-303.73858071703467" sparseCutoff="1.0000000000000000"/>
      <sparseX i="141" alpha="179.40053428779376" sparseCutoff="1.0000000000000000"/>
      <sparseX i="142" alpha="-176.92778639860344" sparseCutoff="1.0000000000000000"/>
      <sparseX i="143" alpha="3550.6004671696669" sparseCutoff="1.0000000000000000"/>
      <sparseX i="144" alpha="4107.5906750301701" sparseCutoff="1.0000000000000000"/>
      <sparseX i="145" alpha="190.50439095798308" sparseCutoff="1.0000000000000000"/>
      <sparseX i="146" alpha="531.56860277841929" sparseCutoff="1.0000000000000000"/>
      <sparseX i="147" alpha="4509.7856393822694" sparseCutoff="1.0000000000000000"/>
      <sparseX i="148" alpha="-2938.5598641477231" sparseCutoff="1.0000000000000000"/>
      <sparseX i="149" alpha="5603.1566760163159" sparseCutoff="1.0000000000000000"/>
      <sparseX i="150" alpha="-1335.9335501466771" sparseCutoff="1.0000000000000000"/>
      <sparseX i="151" alpha="-63.862303953422646" sparseCutoff="1.0000000000000000"/>
      <sparseX i="152" alpha="-232.85468938205375" sparseCutoff="1.0000000000000000"/>
      <sparseX i="153" alpha="-5514.8960037725165" sparseCutoff="1.0000000000000000"/>
      <sparseX i="154" alpha="192.65242526623157" sparseCutoff="1.0000000000000000"/>
      <sparseX i="155" alpha="-13342.988628201640" sparseCutoff="1.0000000000000000"/>
      <sparseX i="156" alpha="1424.8743706192972" sparseCutoff="1.0000000000000000"/>
      <sparseX i="157" alpha="-2655.3501684237549" sparseCutoff="1.0000000000000000"/>
      <sparseX i="158" alpha="845.22699882007987" sparseCutoff="1.0000000000000000"/>
      <sparseX i="159" alpha="501.15748681954682" sparseCutoff="1.0000000000000000"/>
      <sparseX i="160" alpha="3409.3638268397926" sparseCutoff="1.0000000000000000"/>
      <sparseX i="161" alpha="193.52231872109718" sparseCutoff="1.0000000000000000"/>
      <sparseX i="162" alpha="1741.4871785753292" sparseCutoff="1.0000000000000000"/>
      <sparseX i="163" alpha="-2449.0830720493741" sparseCutoff="1.0000000000000000"/>
      <sparseX i="164" alpha="-1476.8174005631624" sparseCutoff="1.0000000000000000"/>
      <sparseX i="165" alpha="14077.791778231051" sparseCutoff="1.0000000000000000"/>
      <sparseX i="166" alpha="26.996508771994854" sparseCutoff="1.0000000000000000"/>
      <sparseX i="167" alpha="204.17758954128345" sparseCutoff="1.0000000000000000"/>
      <sparseX i="168" alpha="-384.55827675294938" sparseCutoff="1.0000000000000000"/>
      <sparseX i="169" alpha="-1355.1221238493201" sparseCutoff="1.0000000000000000"/>
      <sparseX i="170" alpha="-1034.2474969242060" sparseCutoff="1.0000000000000000"/>
      <sparseX i="171" alpha="-1095.2346864127933" sparseCutoff="1.0000000000000000"/>
      <sparseX i="172" alpha="1360.7407213876170" sparseCutoff="1.0000000000000000"/>
      <sparseX i="173" alpha="-2552.1806454446905" sparseCutoff="1.0000000000000000"/>
      <sparseX i="174" alpha="152.91874011056061" sparseCutoff="1.0000000000000000"/>
      <sparseX i="175" alpha="4795.6752247139339" sparseCutoff="1.0000000000000000"/>
      <sparseX i="176" alpha="-4334.2416131905020" sparseCutoff="1.0000000000000000"/>
      <sparseX i="177" alpha="4613.6714556522684" sparseCutoff="1.0000000000000000"/>
      <sparseX i="178" alpha="1607.7745383902213" sparseCutoff="1.0000000000000000"/>
      <sparseX i="179" alpha="-1270.7763321675454" sparseCutoff="1.0000000000000000"/>
      <sparseX i="180" alpha="-2426.2421632486248" sparseCutoff="1.0000000000000000"/>
      <sparseX i="181" alpha="4379.0036870561471" sparseCutoff="1.0000000000000000"/>
      <sparseX i="182" alpha="-3328.5566116302257" sparseCutoff="1.0000000000000000"/>
      <sparseX i="183" alpha="961.38121461589367" sparseCutoff="1.0000000000000000"/>
      <sparseX i="184" alpha="-666.80968257699192" sparseCutoff="1.0000000000000000"/>
      <sparseX i="185" alpha="9744.1660421424040" sparseCutoff="1.0000000000000000"/>
      <sparseX i="186" alpha="-1382.9241202062576" sparseCutoff="1.0000000000000000"/>
      <sparseX i="187" alpha="-1909.7251223186233" sparseCutoff="1.0000000000000000"/>
      <sparseX i="188" alpha="-256.55855450871667" sparseCutoff="1.0000000000000000"/>
      <sparseX i="189" alpha="689.69627086909338" sparseCutoff="1.0000000000000000"/>
      <sparseX i="190" alpha="4664.7078582152017" sparseCutoff="1.0000000000000000"/>
      <sparseX i="191" alpha="3580.0760868221946" sparseCutoff="1.0000000000000000"/>
      <sparseX i="192" alpha="-7388.6007453855382" sparseCutoff="1.0000000000000000"/>
      <sparseX i="193" alpha="-830.72438893346214" sparseCutoff="1.0000000000000000"/>
      <sparseX i="194" alpha="2542.5319841071559" sparseCutoff="1.0000000000000000"/>
      <sparseX i="195" alpha="601.73993296672677" sparseCutoff="1.0000000000000000"/>
      <sparseX i="196" alpha="2007.3374579053384" sparseCutoff="1.0000000000000000"/>
      <sparseX i="197" alpha="475.40810166215329" sparseCutoff="1.0000000000000000"/>
      <sparseX i="198" alpha="13150.854509851162" sparseCutoff="1.0000000000000000"/>
      <sparseX i="199" alpha="-134.30327017165101" sparseCutoff="1.0000000000000000"/>
      <sparseX i="200" alpha="-11661.770900169451" sparseCutoff="1.0000000000000000"/>
      <sparseX i="201" alpha="2955.2273581928052" sparseCutoff="1.0000000000000000"/>
      <sparseX i="202" alpha="-2532.6696213875330" sparseCutoff="1.0000000000000000"/>
      <sparseX i="203" alpha="1697.5989586145345" sparseCutoff="1.0000000000000000"/>
      <sparseX i="204" alpha="1785.1831160403365" sparseCutoff="1.0000000000000000"/>
      <sparseX i="205" alpha="-3272.1262514997716" sparseCutoff="1.0000000000000000"/>
      <sparseX i="206" alpha="933.05108850864906" sparseCutoff="1.0000000000000000"/>
      <sparseX i="207" alpha="-1044.9033190340456" sparseCutoff="1.0000000000000000"/>
      <sparseX i="208" alpha="382.79873723070597" sparseCutoff="1.0000000000000000"/>
      <sparseX i="209" alpha="-949.14247055774877" sparseCutoff="1.0000000000000000"/>
      <sparseX i="210" alpha="-304.77756960051846" sparseCutoff="1.0000000000000000"/>
      <sparseX i="211" alpha="2531.2988549123902" sparseCutoff="1.0000000000000000"/>
      <sparseX i="212" alpha="-1332.9864292629600" sparseCutoff="1.0000000000000000"/>
      <sparseX i="213" alpha="-3221.1569153082446" sparseCutoff="1.0000000000000000"/>
      <sparseX i="214" alpha="-3124.6948288557783" sparseCutoff="1.0000000000000000"/>
      <sparseX i="215" alpha="-1276.8646021911968" sparseCutoff="1.0000000000000000"/>
      <sparseX i="216" alpha="-626.30515892396488" sparseCutoff="1.0000000000000000"/>
      <sparseX i="217" alpha="3153.7507918817209" sparseCutoff="1.0000000000000000"/>
      <sparseX i="218" alpha="-3465.3970167106509" sparseCutoff="1.0000000000000000"/>
      <sparseX i="219" alpha="-2258.0937784619637" sparseCutoff="1.0000000000000000"/>
      <sparseX i="220" alpha="2532.5428444585223" sparseCutoff="1.0000000000000000"/>
      <sparseX i="221" alpha="-1680.8864115534336" sparseCutoff="1.0000000000000000"/>
      <sparseX i="222" alpha="3626.1446338601436" sparseCutoff="1.0000000000000000"/>
      <sparseX i="223" alpha="1716.0237868829304" sparseCutoff="1.0000000000000000"/>
      <sparseX i="224" alpha="122.24648648844197" sparseCutoff="1.0000000000000000"/>
      <sparseX i="225" alpha="928.04052232089396" sparseCutoff="1.0000000000000000"/>
      <sparseX i="226" alpha="-68.776127219365591" sparseCutoff="1.0000000000000000"/>
      <sparseX i="227" alpha="-1566.7158740271716" sparseCutoff="1.0000000000000000"/>
      <sparseX i="228" alpha="87.941020937265904" sparseCutoff="1.0000000000000000"/>
      <sparseX i="229" alpha="-3704.2667960164144" sparseCutoff="1.0000000000000000"/>
      <sparseX i="230" alpha="1306.7414897004332" sparseCutoff="1.0000000000000000"/>
      <sparseX i="231" alpha="-1430.8907950228029" sparseCutoff="1.0000000000000000"/>
      <sparseX i="232" alpha="1125.0404047365405" sparseCutoff="1.0000000000000000"/>
      <sparseX i="233" alpha="-2242.0757726820657" sparseCutoff="1.0000000000000000"/>
      <sparseX i="234" alpha="-2671.5333781763807" sparseCutoff="1.0000000000000000"/>
      <sparseX i="235" alpha="902.04944459591934" sparseCutoff="1.0000000000000000"/>
      <sparseX i="236" alpha="-2378.2153913571678" sparseCutoff="1.0000000000000000"/>
      <sparseX i="237" alpha="-944.36193249307780" sparseCutoff="1.0000000000000000"/>
      <sparseX i="238" alpha="2093.4943963006058" sparseCutoff="1.0000000000000000"/>
      <sparseX i="239" alpha="-1166.0156728545305" sparseCutoff="1.0000000000000000"/>
      <sparseX i="240" alpha="-937.90348010665537" sparseCutoff="1.0000000000000000"/>
      <sparseX i="241" alpha="6889.7991518092958" sparseCutoff="1.0000000000000000"/>
      <sparseX i="242" alpha="-6144.3363822193614" sparseCutoff="1.0000000000000000"/>
      <sparseX i="243" alpha="642.68783077290755" sparseCutoff="1.0000000000000000"/>
      <sparseX i="244" alpha="-2191.9177615889266" sparseCutoff="1.0000000000000000"/>
      <sparseX i="245" alpha="-2655.7984330210475" sparseCutoff="1.0000000000000000"/>
      <sparseX i="246" alpha="-1029.3606125963258" sparseCutoff="1.0000000000000000"/>
      <sparseX i="247" alpha="2111.3644273159061" sparseCutoff="1.0000000000000000"/>
      <sparseX i="248" alpha="2868.2851283563305" sparseCutoff="1.0000000000000000"/>
      <sparseX i="249" alpha="-700.84517252235537" sparseCutoff="1.0000000000000000"/>
      <sparseX i="250" alpha="2519.3560946387825" sparseCutoff="1.0000000000000000"/>
      <sparseX i="251" alpha="7019.3946156983584" sparseCutoff="1.0000000000000000"/>
      <sparseX i="252" alpha="-997.16292701387624" sparseCutoff="1.0000000000000000"/>
      <sparseX i="253" alpha="2083.0859608882151" sparseCutoff="1.0000000000000000"/>
      <sparseX i="254" alpha="5692.7115526702437" sparseCutoff="1.0000000000000000"/>
      <sparseX i="255" alpha="3846.4587816240987" sparseCutoff="1.0000000000000000"/>
      <sparseX i="256" alpha="603.09602296226865" sparseCutoff="1.0000000000000000"/>
      <sparseX i="257" alpha="209.89393337175346" sparseCutoff="1.0000000000000000"/>
      <sparseX i="258" alpha="-1528.1353019780472" sparseCutoff="1.0000000000000000"/>
      <sparseX i="259" alpha="1845.3097772796054" sparseCutoff="1.0000000000000000"/>
      <sparseX i="260" alpha="4272.5613420112295" sparseCutoff="1.0000000000000000"/>
      <sparseX i="261" alpha="3300.6548682013836" sparseCutoff="1.0000000000000000"/>
      <sparseX i="262" alpha="514.25632424788739" sparseCutoff="1.0000000000000000"/>
      <sparseX i="263" alpha="-626.67953465010783" sparseCutoff="1.0000000000000000"/>
      <sparseX i="264" alpha="-4016.2885732140480" sparseCutoff="1.0000000000000000"/>
      <sparseX i="265" alpha="3971.1549983380455" sparseCutoff="1.0000000000000000"/>
      <sparseX i="266" alpha="-2160.5616785993598" sparseCutoff="1.0000000000000000"/>
      <sparseX i="267" alpha="3443.5917210341304" sparseCutoff="1.0000000000000000"/>
      <sparseX i="268" alpha="-3759.4193023962348" sparseCutoff="1.0000000000000000"/>
      <sparseX i="269" alpha="-4238.2292768637208" sparseCutoff="1.0000000000000000"/>
      <sparseX i="270" alpha="3764.1476492273105" sparseCutoff="1.0000000000000000"/>
      <sparseX i="271" alpha="14.850745886119824" sparseCutoff="1.0000000000000000"/>
      <sparseX i="272" alpha="2638.9304635313970" sparseCutoff="1.0000000000000000"/>
      <sparseX i="273" alpha="-933.30972958742666" sparseCutoff="1.0000000000000000"/>
      <sparseX i="274" alpha="1288.0969731324813" sparseCutoff="1.0000000000000000"/>
      <sparseX i="275" alpha="2788.8861211753806" sparseCutoff="1.0000000000000000"/>
      <sparseX i="276" alpha="2568.9168670438244" sparseCutoff="1.0000000000000000"/>
      <sparseX i="277" alpha="1167.4783170172991" sparseCutoff="1.0000000000000000"/>
      <sparseX i="278" alpha="2194.4980680187105" sparseCutoff="1.0000000000000000"/>
      <sparseX i="279" alpha="-8216.7810321407196" sparseCutoff="1.0000000000000000"/>
      <sparseX i="280" alpha="-952.95847180857538" sparseCutoff="1.0000000000000000"/>
      <sparseX i="281" alpha="-541.28984654378633" sparseCutoff="1.0000000000000000"/>
      <sparseX i="282" alpha="298.42176986039237" sparseCutoff="1.0000000000000000"/>
      <sparseX i="283" alpha="-1742.1242946555330" sparseCutoff="1.0000000000000000"/>
      <sparseX i="284" alpha="-302.18492196530832" sparseCutoff="1.0000000000000000"/>
      <sparseX i="285" alpha="-956.50780875760904" sparseCutoff="1.0000000000000000"/>
      <sparseX i="286" alpha="-252.16323871526160" sparseCutoff="1.0000000000000000"/>
      <sparseX i="287" alpha="-812.74133159799555" sparseCutoff="1.0000000000000000"/>
      <sparseX i="288" alpha="1895.6692808791681" sparseCutoff="1.0000000000000000"/>
      <sparseX i="289" alpha="-307.23875776198298" sparseCutoff="1.0000000000000000"/>
      <sparseX i="290" alpha="1473.2100472444822" sparseCutoff="1.0000000000000000"/>
      <sparseX i="291" alpha="-324.17343181905733" sparseCutoff="1.0000000000000000"/>
      <sparseX i="292" alpha="1867.2287723459219" sparseCutoff="1.0000000000000000"/>
      <sparseX i="293" alpha="-872.72885709111358" sparseCutoff="1.0000000000000000"/>
      <sparseX i="294" alpha="1991.5734147439925" sparseCutoff="1.0000000000000000"/>
      <sparseX i="295" alpha="1967.5411992855043" sparseCutoff="1.0000000000000000"/>
      <sparseX i="296" alpha="2819.8422350965457" sparseCutoff="1.0000000000000000"/>
      <sparseX i="297" alpha="-2702.8848835827803" sparseCutoff="1.0000000000000000"/>
      <sparseX i="298" alpha="-2733.4136597848524" sparseCutoff="1.0000000000000000"/>
      <sparseX i="299" alpha="-1955.4777842507676" sparseCutoff="1.0000000000000000"/>
      <sparseX i="300" alpha="-7063.5537586903874" sparseCutoff="1.0000000000000000"/>
      <sparseX i="301" alpha="8297.6753422616330" sparseCutoff="1.0000000000000000"/>
      <sparseX i="302" alpha="-484.72738906403038" sparseCutoff="1.0000000000000000"/>
      <sparseX i="303" alpha="-689.93411403679204" sparseCutoff="1.0000000000000000"/>
      <sparseX i="304" alpha="3250.7042765774722" sparseCutoff="1.0000000000000000"/>
      <sparseX i="305" alpha="-1512.0076460652469" sparseCutoff="1.0000000000000000"/>
      <sparseX i="306" alpha="547.70667948341156" sparseCutoff="1.0000000000000000"/>
      <sparseX i="307" alpha="137.30850570244920" sparseCutoff="1.0000000000000000"/>
      <sparseX i="308" alpha="-2143.8018952987659" sparseCutoff="1.0000000000000000"/>
      <sparseX i="309" alpha="447.91728803147026" sparseCutoff="1.0000000000000000"/>
      <sparseX i="310" alpha="956.69757915772152" sparseCutoff="1.0000000000000000"/>
      <sparseX i="311" alpha="3626.2012748130423" sparseCutoff="1.0000000000000000"/>
      <sparseX i="312" alpha="-1613.0579846647458" sparseCutoff="1.0000000000000000"/>
      <sparseX i="313" alpha="1741.0729264037484" sparseCutoff="1.0000000000000000"/>
      <sparseX i="314" alpha="6168.1352372523625" sparseCutoff="1.0000000000000000"/>
      <sparseX i="315" alpha="3667.6346148229131" sparseCutoff="1.0000000000000000"/>
      <sparseX i="316" alpha="284.01819576932991" sparseCutoff="1.0000000000000000"/>
      <sparseX i="317" alpha="1719.7356628579612" sparseCutoff="1.0000000000000000"/>
      <sparseX i="318" alpha="373.46208951922455" sparseCutoff="1.0000000000000000"/>
      <sparseX i="319" alpha="-1609.1031913539175" sparseCutoff="1.0000000000000000"/>
      <sparseX i="320" alpha="-749.66862168107923" sparseCutoff="1.0000000000000000"/>
      <sparseX i="321" alpha="4907.3031959019354" sparseCutoff="1.0000000000000000"/>
      <sparseX i="322" alpha="876.04457399174589" sparseCutoff="1.0000000000000000"/>
      <sparseX i="323" alpha="-696.62460949675244" sparseCutoff="1.0000000000000000"/>
      <sparseX i="324" alpha="437.56988799774058" sparseCutoff="1.0000000000000000"/>
      <sparseX i="325" alpha="-2797.9190306388368" sparseCutoff="1.0000000000000000"/>
      <sparseX i="326" alpha="800.57913263545424" sparseCutoff="1.0000000000000000"/>
      <sparseX i="327" alpha="3937.9821818144032" sparseCutoff="1.0000000000000000"/>
      <sparseX i="328" alpha="638.98582466859398" sparseCutoff="1.0000000000000000"/>
      <sparseX i="329" alpha="-646.59477709968394" sparseCutoff="1.0000000000000000"/>
      <sparseX i="330" alpha="-975.46614872209307" sparseCutoff="1.0000000000000000"/>
      <sparseX i="331" alpha="488.31821905939739" sparseCutoff="1.0000000000000000"/>
      <sparseX i="332" alpha="1416.9139663656545" sparseCutoff="1.0000000000000000"/>
      <sparseX i="333" alpha="631.70144911576858" sparseCutoff="1.0000000000000000"/>
      <sparseX i="334" alpha="-2374.5315810364991" sparseCutoff="1.0000000000000000"/>
      <sparseX i="335" alpha="1430.2396290951549" sparseCutoff="1.0000000000000000"/>
      <sparseX i="336" alpha="-1897.0944294223787" sparseCutoff="1.0000000000000000"/>
      <sparseX i="337" alpha="742.44649430688332" sparseCutoff="1.0000000000000000"/>
      <sparseX i="338" alpha="-362.51859001368513" sparseCutoff="1.0000000000000000"/>
      <sparseX i="339" alpha="1151.6420339896260" sparseCutoff="1.0000000000000000"/>
      <sparseX i="340" alpha="241.58085955522679" sparseCutoff="1.0000000000000000"/>
      <sparseX i="341" alpha="882.75175521787594" sparseCutoff="1.0000000000000000"/>
      <sparseX i="342" alpha="-745.56175477614170" sparseCutoff="1.0000000000000000"/>
      <sparseX i="343" alpha="-129.71353239624190" sparseCutoff="1.0000000000000000"/>
      <sparseX i="344" alpha="700.28919392290891" sparseCutoff="1.0000000000000000"/>
      <sparseX i="345" alpha="-2428.6012033609040" sparseCutoff="1.0000000000000000"/>
      <sparseX i="346" alpha="-1043.9170952155634" sparseCutoff="1.0000000000000000"/>
      <sparseX i="347" alpha="3726.9938526687652" sparseCutoff="1.0000000000000000"/>
      <sparseX i="348" alpha="-1334.8113485681401" sparseCutoff="1.0000000000000000"/>
      <sparseX i="349" alpha="-1878.3688179111259" sparseCutoff="1.0000000000000000"/>
      <sparseX i="350" alpha="865.43638393605374" sparseCutoff="1.0000000000000000"/>
      <sparseX i="351" alpha="-24.577484782024531" sparseCutoff="1.0000000000000000"/>
      <sparseX i="352" alpha="856.20712527099113" sparseCutoff="1.0000000000000000"/>
      <sparseX i="353" alpha="802.69127695913210" sparseCutoff="1.0000000000000000"/>
      <sparseX i="354" alpha="45.943944945260490" sparseCutoff="1.0000000000000000"/>
      <sparseX i="355" alpha="-207.57752078758384" sparseCutoff="1.0000000000000000"/>
      <sparseX i="356" alpha="430.39498444597820" sparseCutoff="1.0000000000000000"/>
      <sparseX i="357" alpha="-113.99324551449565" sparseCutoff="1.0000000000000000"/>
      <sparseX i="358" alpha="-756.21611542640994" sparseCutoff="1.0000000000000000"/>
      <sparseX i="359" alpha="1615.7351750979622" sparseCutoff="1.0000000000000000"/>
      <sparseX i="360" alpha="624.61253877736476" sparseCutoff="1.0000000000000000"/>
      <sparseX i="361" alpha="-697.60054571724027" sparseCutoff="1.0000000000000000"/>
      <sparseX i="362" alpha="-4252.9445817926471" sparseCutoff="1.0000000000000000"/>
      <sparseX i="363" alpha="1737.2996274570771" sparseCutoff="1.0000000000000000"/>
      <sparseX i="364" alpha="2044.2096495491469" sparseCutoff="1.0000000000000000"/>
      <sparseX i="365" alpha="-1545.3320987274315" sparseCutoff="1.0000000000000000"/>
      <sparseX i="366" alpha="1975.7966603600755" sparseCutoff="1.0000000000000000"/>
      <sparseX i="367" alpha="-2571.5775084472234" sparseCutoff="1.0000000000000000"/>
      <sparseX i="368" alpha="-311.53667318876694" sparseCutoff="1.0000000000000000"/>
      <sparseX i="369" alpha="1604.1752471714065" sparseCutoff="1.0000000000000000"/>
      <sparseX i="370" alpha="4819.2077959381268" sparseCutoff="1.0000000000000000"/>
      <sparseX i="371" alpha="2661.7542382343081" sparseCutoff="1.0000000000000000"/>
      <sparseX i="372" alpha="-2349.3995540885553" sparseCutoff="1.0000000000000000"/>
      <sparseX i="373" alpha="-3994.4963089914877" sparseCutoff="1.0000000000000000"/>
      <sparseX i="374" alpha="-2160.7779803655158" sparseCutoff="1.0000000000000000"/>
      <sparseX i="375" alpha="-3571.3505356913602" sparseCutoff="1.0000000000000000"/>
      <sparseX i="376" alpha="849.23512934624705" sparseCutoff="1.0000000000000000"/>
      <sparseX i="377" alpha="4357.4199626586342" sparseCutoff="1.0000000000000000"/>
      <sparseX i="378" alpha="484.45009308516387" sparseCutoff="1.0000000000000000"/>
      <sparseX i="379" alpha="2732.8546953429905" sparseCutoff="1.0000000000000000"/>
      <sparseX i="380" alpha="-15.808251595770557" sparseCutoff="1.0000000000000000"/>
      <sparseX i="381" alpha="-3845.9849313128957" sparseCutoff="1.0000000000000000"/>
      <sparseX i="382" alpha="9289.4845339306466" sparseCutoff="1.0000000000000000"/>
      <sparseX i="383" alpha="-228.09582096098009" sparseCutoff="1.0000000000000000"/>
      <sparseX i="384" alpha="1215.6227220352141" sparseCutoff="1.0000000000000000"/>
      <sparseX i="385" alpha="-1976.3205371345375" sparseCutoff="1.0000000000000000"/>
      <sparseX i="386" alpha="-2230.8361772529597" sparseCutoff="1.0000000000000000"/>
      <sparseX i="387" alpha="-1520.1818016368272" sparseCutoff="1.0000000000000000"/>
      <sparseX i="388" alpha="457.17675612134769" sparseCutoff="1.0000000000000000"/>
      <sparseX i="389" alpha="1123.2842088061200" sparseCutoff="1.0000000000000000"/>
      <sparseX i="390" alpha="1953.3125161113542" sparseCutoff="1.0000000000000000"/>
      <sparseX i="391" alpha="-6525.8908813189591" sparseCutoff="1.0000000000000000"/>
      <sparseX i="392" alpha="23158.292588683653" sparseCutoff="1.0000000000000000"/>
      <sparseX i="393" alpha="-12555.575901127770" sparseCutoff="1.0000000000000000"/>
      <sparseX i="394" alpha="-8896.4106330891973" sparseCutoff="1.0000000000000000"/>
      <sparseX i="395" alpha="-18427.758997487697" sparseCutoff="1.0000000000000000"/>
      <sparseX i="396" alpha="2718.8010098243612" sparseCutoff="1.0000000000000000"/>
      <sparseX i="397" alpha="5007.1704294272959" sparseCutoff="1.0000000000000000"/>
      <sparseX i="398" alpha="2906.7719094405566" sparseCutoff="1.0000000000000000"/>
      <sparseX i="399" alpha="-19147.503272934275" sparseCutoff="1.0000000000000000"/>
      <sparseX i="400" alpha="12004.079430301375" sparseCutoff="1.0000000000000000"/>
      <sparseX i="401" alpha="12359.076674771701" sparseCutoff="1.0000000000000000"/>
      <sparseX i="402" alpha="-7991.4424266748329" sparseCutoff="1.0000000000000000"/>
      <sparseX i="403" alpha="2810.1245776893647" sparseCutoff="1.0000000000000000"/>
      <sparseX i="404" alpha="-85.850523439730168" sparseCutoff="1.0000000000000000"/>
      <sparseX i="405" alpha="-630.42403485707916" sparseCutoff="1.0000000000000000"/>
      <sparseX i="406" alpha="206.33691573684663" sparseCutoff="1.0000000000000000"/>
      <sparseX i="407" alpha="-101.20911274642739" sparseCutoff="1.0000000000000000"/>
      <sparseX i="408" alpha="38.678786774656473" sparseCutoff="1.0000000000000000"/>
      <sparseX i="409" alpha="75.076850021176696" sparseCutoff="1.0000000000000000"/>
      <sparseX i="410" alpha="-152.94717299994562" sparseCutoff="1.0000000000000000"/>
      <sparseX i="411" alpha="177.50488112424478" sparseCutoff="1.0000000000000000"/>
      <sparseX i="412" alpha="-80.484679108505532" sparseCutoff="1.0000000000000000"/>
      <sparseX i="413" alpha="205.57860827348310" sparseCutoff="1.0000000000000000"/>
      <sparseX i="414" alpha="57.070057986227305" sparseCutoff="1.0000000000000000"/>
      <sparseX i="415" alpha="-240.21514229763238" sparseCutoff="1.0000000000000000"/>
      <sparseX i="416" alpha="16.807693817859395" sparseCutoff="1.0000000000000000"/>
      <sparseX i="417" alpha="1143.2123690720375" sparseCutoff="1.0000000000000000"/>
      <sparseX i="418" alpha="-256.67631943553727" sparseCutoff="1.0000000000000000"/>
      <sparseX i="419" alpha="-21.137482899738409" sparseCutoff="1.0000000000000000"/>
      <sparseX i="420" alpha="-122.40631085927735" sparseCutoff="1.0000000000000000"/>
      <sparseX i="421" alpha="-608.51257007104550" sparseCutoff="1.0000000000000000"/>
      <sparseX i="422" alpha="998.03623400288575" sparseCutoff="1.0000000000000000"/>
      <sparseX i="423" alpha="51.402090949817257" sparseCutoff="1.0000000000000000"/>
      <sparseX i="424" alpha="-403.49873851018651" sparseCutoff="1.0000000000000000"/>
      <sparseX i="425" alpha="437.18677808560022" sparseCutoff="1.0000000000000000"/>
      <sparseX i="426" alpha="-488.03722122065227" sparseCutoff="1.0000000000000000"/>
      <sparseX i="427" alpha="-42.952124207906678" sparseCutoff="1.0000000000000000"/>
      <sparseX i="428" alpha="86.409054671768729" sparseCutoff="1.0000000000000000"/>
      <sparseX i="429" alpha="1037.3969151408194" sparseCutoff="1.0000000000000000"/>
      <sparseX i="430" alpha="-640.93017928949598" sparseCutoff="1.0000000000000000"/>
      <sparseX i="431" alpha="-288.47450048872486" sparseCutoff="1.0000000000000000"/>
      <sparseX i="432" alpha="944.69507893641003" sparseCutoff="1.0000000000000000"/>
      <sparseX i="433" alpha="83.659575517185147" sparseCutoff="1.0000000000000000"/>
      <sparseX i="434" alpha="284.03042556654520" sparseCutoff="1.0000000000000000"/>
      <sparseX i="435" alpha="-107.57427516871007" sparseCutoff="1.0000000000000000"/>
      <sparseX i="436" alpha="143.36618933751211" sparseCutoff="1.0000000000000000"/>
      <sparseX i="437" alpha="-159.98710331619537" sparseCutoff="1.0000000000000000"/>
      <sparseX i="438" alpha="213.19331715781010" sparseCutoff="1.0000000000000000"/>
      <sparseX i="439" alpha="214.44063759140860" sparseCutoff="1.0000000000000000"/>
      <sparseX i="440" alpha="124.45646209058633" sparseCutoff="1.0000000000000000"/>
      <sparseX i="441" alpha="693.73558311678039" sparseCutoff="1.0000000000000000"/>
      <sparseX i="442" alpha="198.82195178980868" sparseCutoff="1.0000000000000000"/>
      <sparseX i="443" alpha="55.370540291485476" sparseCutoff="1.0000000000000000"/>
      <sparseX i="444" alpha="115.44895566282493" sparseCutoff="1.0000000000000000"/>
      <sparseX i="445" alpha="-668.92979556194246" sparseCutoff="1.0000000000000000"/>
      <sparseX i="446" alpha="89.178006878147329" sparseCutoff="1.0000000000000000"/>
      <sparseX i="447" alpha="-43.467172910821752" sparseCutoff="1.0000000000000000"/>
      <sparseX i="448" alpha="574.04507142730495" sparseCutoff="1.0000000000000000"/>
      <sparseX i="449" alpha="-407.19866946549621" sparseCutoff="1.0000000000000000"/>
      <sparseX i="450" alpha="-1203.1352421388176" sparseCutoff="1.0000000000000000"/>
      <sparseX i="451" alpha="268.03627575252403" sparseCutoff="1.0000000000000000"/>
      <sparseX i="452" alpha="-207.94290251901407" sparseCutoff="1.0000000000000000"/>
      <sparseX i="453" alpha="-1400.7936880342545" sparseCutoff="1.0000000000000000"/>
      <sparseX i="454" alpha="287.08190446887681" sparseCutoff="1.0000000000000000"/>
      <sparseX i="455" alpha="-334.08762420380077" sparseCutoff="1.0000000000000000"/>
      <sparseX i="456" alpha="-143.10591038391735" sparseCutoff="1.0000000000000000"/>
      <sparseX i="457" alpha="215.65068155341137" sparseCutoff="1.0000000000000000"/>
      <sparseX i="458" alpha="-291.35046665724525" sparseCutoff="1.0000000000000000"/>
      <sparseX i="459" alpha="-599.92306104953093" sparseCutoff="1.0000000000000000"/>
      <sparseX i="460" alpha="-640.31299247109860" sparseCutoff="1.0000000000000000"/>
      <sparseX i="461" alpha="536.85444130145754" sparseCutoff="1.0000000000000000"/>
      <sparseX i="462" alpha="94.229195321400141" sparseCutoff="1.0000000000000000"/>
      <sparseX i="463" alpha="-230.84738481501873" sparseCutoff="1.0000000000000000"/>
      <sparseX i="464" alpha="43.239502127393230" sparseCutoff="1.0000000000000000"/>
      <sparseX i="465" alpha="506.10390830747599" sparseCutoff="1.0000000000000000"/>
      <sparseX i="466" alpha="403.28677066474336" sparseCutoff="1.0000000000000000"/>
      <sparseX i="467" alpha="-158.71046438654523" sparseCutoff="1.0000000000000000"/>
      <sparseX i="468" alpha="-289.63289637372458" sparseCutoff="1.0000000000000000"/>
      <sparseX i="469" alpha="-85.514624699550041" sparseCutoff="1.0000000000000000"/>
      <sparseX i="470" alpha="106.07805645130021" sparseCutoff="1.0000000000000000"/>
      <sparseX i="471" alpha="132.06830740853241" sparseCutoff="1.0000000000000000"/>
      <sparseX i="472" alpha="-64.525972250045939" sparseCutoff="1.0000000000000000"/>
      <sparseX i="473" alpha="95.863637767530136" sparseCutoff="1.0000000000000000"/>
      <sparseX i="474" alpha="-38.587771752074751" sparseCutoff="1.0000000000000000"/>
      <sparseX i="475" alpha="-48.798941578136272" sparseCutoff="1.0000000000000000"/>
      <sparseX i="476" alpha="575.83573814622400" sparseCutoff="1.0000000000000000"/>
      <sparseX i="477" alpha="102.25496408940272" sparseCutoff="1.0000000000000000"/>
      <sparseX i="478" alpha="-3.5344444336210996" sparseCutoff="1.0000000000000000"/>
      <sparseX i="479" alpha="122.65726138134052" sparseCutoff="1.0000000000000000"/>
      <sparseX i="480" alpha="-499.31938636849179" sparseCutoff="1.0000000000000000"/>
      <sparseX i="481" alpha="-582.57767818637103" sparseCutoff="1.0000000000000000"/>
      <sparseX i="482" alpha="312.50848967417329" sparseCutoff="1.0000000000000000"/>
      <sparseX i="483" alpha="-285.85698582132142" sparseCutoff="1.0000000000000000"/>
      <sparseX i="484" alpha="171.15378468840180" sparseCutoff="1.0000000000000000"/>
      <sparseX i="485" alpha="-11.962412720342938" sparseCutoff="1.0000000000000000"/>
      <sparseX i="486" alpha="91.548129489045152" sparseCutoff="1.0000000000000000"/>
      <sparseX i="487" alpha="-62.761500821378448" sparseCutoff="1.0000000000000000"/>
      <sparseX i="488" alpha="-104.53953797277941" sparseCutoff="1.0000000000000000"/>
      <sparseX i="489" alpha="474.40707997587089" sparseCutoff="1.0000000000000000"/>
      <sparseX i="490" alpha="-121.69100483261141" sparseCutoff="1.0000000000000000"/>
      <sparseX i="491" alpha="-36.756252782445983" sparseCutoff="1.0000000000000000"/>
      <sparseX i="492" alpha="118.42331343963420" sparseCutoff="1.0000000000000000"/>
      <sparseX i="493" alpha="326.02242971501357" sparseCutoff="1.0000000000000000"/>
      <sparseX i="494" alpha="-939.69231662155539" sparseCutoff="1.0000000000000000"/>
      <sparseX i="495" alpha="-224.00171021174600" sparseCutoff="1.0000000000000000"/>
      <sparseX i="496" alpha="-70.970674110341960" sparseCutoff="1.0000000000000000"/>
      <sparseX i="497" alpha="194.31302181135192" sparseCutoff="1.0000000000000000"/>
      <sparseX i="498" alpha="145.00781867786424" sparseCutoff="1.0000000000000000"/>
      <sparseX i="499" alpha="-609.74260443578817" sparseCutoff="1.0000000000000000"/>
      <sparseX i="500" alpha="-101.68873214927213" sparseCutoff="1.0000000000000000"/>
      <sparseX i="501" alpha="1.0590591727270522" sparseCutoff="1.0000000000000000"/>
      <sparseX i="502" alpha="-213.18739411369998" sparseCutoff="1.0000000000000000"/>
      <sparseX i="503" alpha="-797.75216916585373" sparseCutoff="1.0000000000000000"/>
      <sparseX i="504" alpha="383.45436922432668" sparseCutoff="1.0000000000000000"/>
      <sparseX i="505" alpha="418.18046273831362" sparseCutoff="1.0000000000000000"/>
      <sparseX i="506" alpha="-224.73815351007227" sparseCutoff="1.0000000000000000"/>
      <sparseX i="507" alpha="133.88826523316348" sparseCutoff="1.0000000000000000"/>
      <sparseX i="508" alpha="266.35756563828119" sparseCutoff="1.0000000000000000"/>
      <sparseX i="509" alpha="168.25039879422246" sparseCutoff="1.0000000000000000"/>
      <sparseX i="510" alpha="69.570838554466420" sparseCutoff="1.0000000000000000"/>
      <sparseX i="511" alpha="150.89112190945917" sparseCutoff="1.0000000000000000"/>
      <sparseX i="512" alpha="272.92406744836086" sparseCutoff="1.0000000000000000"/>
      <sparseX i="513" alpha="-416.38104539428576" sparseCutoff="1.0000000000000000"/>
      <sparseX i="514" alpha="-415.17258794571666" sparseCutoff="1.0000000000000000"/>
      <sparseX i="515" alpha="-953.98393384634642" sparseCutoff="1.0000000000000000"/>
      <sparseX i="516" alpha="-4.9530184837410260" sparseCutoff="1.0000000000000000"/>
      <sparseX i="517" alpha="-16.732496761149914" sparseCutoff="1.0000000000000000"/>
      <sparseX i="518" alpha="163.30589576338883" sparseCutoff="1.0000000000000000"/>
      <sparseX i="519" alpha="35.631732455597231" sparseCutoff="1.0000000000000000"/>
      <sparseX i="520" alpha="156.61617219475934" sparseCutoff="1.0000000000000000"/>
      <sparseX i="521" alpha="-157.97900061093779" sparseCutoff="1.0000000000000000"/>
      <sparseX i="522" alpha="-30.423948810056633" sparseCutoff="1.0000000000000000"/>
      <sparseX i="523" alpha="914.35209155877078" sparseCutoff="1.0000000000000000"/>
      <sparseX i="524" alpha="-1199.9042662358481" sparseCutoff="1.0000000000000000"/>
      <sparseX i="525" alpha="373.98882149876448" sparseCutoff="1.0000000000000000"/>
      <sparseX i="526" alpha="-148.88280148660681" sparseCutoff="1.0000000000000000"/>
      <sparseX i="527" alpha="528.98946995940139" sparseCutoff="1.0000000000000000"/>
      <sparseX i="528" alpha="-340.67288501800249" sparseCutoff="1.0000000000000000"/>
      <sparseX i="529" alpha="938.62062404095104" sparseCutoff="1.0000000000000000"/>
      <sparseX i="530" alpha="-320.72482358204678" sparseCutoff="1.0000000000000000"/>
      <sparseX i="531" alpha="236.04177677776485" sparseCutoff="1.0000000000000000"/>
      <sparseX i="532" alpha="-237.75571332036469" sparseCutoff="1.0000000000000000"/>
      <sparseX i="533" alpha="16.856167986382047" sparseCutoff="1.0000000000000000"/>
      <sparseX i="534" alpha="530.32020364552727" sparseCutoff="1.0000000000000000"/>
      <sparseX i="535" alpha="-133.02527648236310" sparseCutoff="1.0000000000000000"/>
      <sparseX i="536" alpha="29.125851407975208" sparseCutoff="1.0000000000000000"/>
      <sparseX i="537" alpha="661.39143870318992" sparseCutoff="1.0000000000000000"/>
      <sparseX i="538" alpha="236.96864522059394" sparseCutoff="1.0000000000000000"/>
      <sparseX i="539" alpha="-114.26983649531689" sparseCutoff="1.0000000000000000"/>
      <sparseX i="540" alpha="439.92922014152242" sparseCutoff="1.0000000000000000"/>
      <sparseX i="541" alpha=".23068641119154569E-001" sparseCutoff="1.0000000000000000"/>
      <sparseX i="542" alpha="774.40725621322827" sparseCutoff="1.0000000000000000"/>
      <sparseX i="543" alpha="-68.434107759727397" sparseCutoff="1.0000000000000000"/>
      <sparseX i="544" alpha="65.526430500869878" sparseCutoff="1.0000000000000000"/>
      <sparseX i="545" alpha="409.72609583120988" sparseCutoff="1.0000000000000000"/>
      <sparseX i="546" alpha="-126.24319468340990" sparseCutoff="1.0000000000000000"/>
      <sparseX i="547" alpha="-129.27092635007290" sparseCutoff="1.0000000000000000"/>
      <sparseX i="548" alpha="105.40992285157786" sparseCutoff="1.0000000000000000"/>
      <sparseX i="549" alpha="-530.91178198297746" sparseCutoff="1.0000000000000000"/>
      <sparseX i="550" alpha="-776.83144191282975" sparseCutoff="1.0000000000000000"/>
      <sparseX i="551" alpha="671.60018689499168" sparseCutoff="1.0000000000000000"/>
      <sparseX i="552" alpha="1342.4431140243209" sparseCutoff="1.0000000000000000"/>
      <sparseX i="553" alpha="114.48816778982777" sparseCutoff="1.0000000000000000"/>
      <sparseX i="554" alpha="-82.431256210409529" sparseCutoff="1.0000000000000000"/>
      <sparseX i="555" alpha="-71.327731795009583" sparseCutoff="1.0000000000000000"/>
      <sparseX i="556" alpha="44.080260113725359" sparseCutoff="1.0000000000000000"/>
      <sparseX i="557" alpha="52.051947077030832" sparseCutoff="1.0000000000000000"/>
      <sparseX i="558" alpha="-152.33269959287384" sparseCutoff="1.0000000000000000"/>
      <sparseX i="559" alpha="-438.95974725408485" sparseCutoff="1.0000000000000000"/>
      <sparseX i="560" alpha="-111.28205666226776" sparseCutoff="1.0000000000000000"/>
      <sparseX i="561" alpha="170.94980107181874" sparseCutoff="1.0000000000000000"/>
      <sparseX i="562" alpha="-1.9218447907528116" sparseCutoff="1.0000000000000000"/>
      <sparseX i="563" alpha="-13.095944886399845" sparseCutoff="1.0000000000000000"/>
      <sparseX i="564" alpha="-4.5805569123987153" sparseCutoff="1.0000000000000000"/>
      <sparseX i="565" alpha="411.03503685079846" sparseCutoff="1.0000000000000000"/>
      <sparseX i="566" alpha="-721.03470086395123" sparseCutoff="1.0000000000000000"/>
      <sparseX i="567" alpha="-237.07447871479090" sparseCutoff="1.0000000000000000"/>
      <sparseX i="568" alpha="165.80795402059351" sparseCutoff="1.0000000000000000"/>
      <sparseX i="569" alpha="-635.82594370940114" sparseCutoff="1.0000000000000000"/>
      <sparseX i="570" alpha="825.07762188386289" sparseCutoff="1.0000000000000000"/>
      <sparseX i="571" alpha="4.6217343005801794" sparseCutoff="1.0000000000000000"/>
      <sparseX i="572" alpha="-145.63072076490545" sparseCutoff="1.0000000000000000"/>
      <sparseX i="573" alpha="146.72403022284450" sparseCutoff="1.0000000000000000"/>
      <sparseX i="574" alpha="16.050526193289052" sparseCutoff="1.0000000000000000"/>
      <sparseX i="575" alpha="391.16239136921166" sparseCutoff="1.0000000000000000"/>
      <sparseX i="576" alpha="-692.37827984584794" sparseCutoff="1.0000000000000000"/>
      <sparseX i="577" alpha="15.236827215091600" sparseCutoff="1.0000000000000000"/>
      <sparseX i="578" alpha="-280.40751221324126" sparseCutoff="1.0000000000000000"/>
      <sparseX i="579" alpha="20.981700487542106" sparseCutoff="1.0000000000000000"/>
      <sparseX i="580" alpha="-1071.8379362425496" sparseCutoff="1.0000000000000000"/>
      <sparseX i="581" alpha="-184.95754921335214" sparseCutoff="1.0000000000000000"/>
      <sparseX i="582" alpha="-255.58444599771673" sparseCutoff="1.0000000000000000"/>
      <sparseX i="583" alpha="390.79466432493126" sparseCutoff="1.0000000000000000"/>
      <sparseX i="584" alpha="132.99758549639074" sparseCutoff="1.0000000000000000"/>
      <sparseX i="585" alpha="-911.20256965985675" sparseCutoff="1.0000000000000000"/>
      <sparseX i="586" alpha="524.80245479319012" sparseCutoff="1.0000000000000000"/>
      <sparseX i="587" alpha="-423.64425106948062" sparseCutoff="1.0000000000000000"/>
      <sparseX i="588" alpha="109.71890903470847" sparseCutoff="1.0000000000000000"/>
      <sparseX i="589" alpha="-430.94640033120351" sparseCutoff="1.0000000000000000"/>
      <sparseX i="590" alpha="-414.94047383983792" sparseCutoff="1.0000000000000000"/>
      <sparseX i="591" alpha="223.08654790036636" sparseCutoff="1.0000000000000000"/>
      <sparseX i="592" alpha="263.72858489092465" sparseCutoff="1.0000000000000000"/>
      <sparseX i="593" alpha="-272.97329307957477" sparseCutoff="1.0000000000000000"/>
      <sparseX i="594" alpha="-87.353463431265936" sparseCutoff="1.0000000000000000"/>
      <sparseX i="595" alpha="103.77097391002684" sparseCutoff="1.0000000000000000"/>
      <sparseX i="596" alpha="296.46698444208278" sparseCutoff="1.0000000000000000"/>
      <sparseX i="597" alpha="58.951035635914785" sparseCutoff="1.0000000000000000"/>
      <sparseX i="598" alpha="1323.8166137813050" sparseCutoff="1.0000000000000000"/>
      <sparseX i="599" alpha="-800.69494778572027" sparseCutoff="1.0000000000000000"/>
      <sparseX i="600" alpha="106.08820004146686" sparseCutoff="1.0000000000000000"/>
      <sparseX i="601" alpha="-603.24304152385037" sparseCutoff="1.0000000000000000"/>
      <sparseX i="602" alpha=".41154025003524114" sparseCutoff="1.0000000000000000"/>
      <sparseX i="603" alpha="-257.67472249967221" sparseCutoff="1.0000000000000000"/>
      <sparseX i="604" alpha="273.20540273346563" sparseCutoff="1.0000000000000000"/>
      <sparseX i="605" alpha="638.30087869659098" sparseCutoff="1.0000000000000000"/>
      <sparseX i="606" alpha="819.09791807308886" sparseCutoff="1.0000000000000000"/>
      <sparseX i="607" alpha="213.10936839319689" sparseCutoff="1.0000000000000000"/>
      <sparseX i="608" alpha="-115.01329762942514" sparseCutoff="1.0000000000000000"/>
      <sparseX i="609" alpha="1458.3699784091348" sparseCutoff="1.0000000000000000"/>
      <sparseX i="610" alpha="-52.376536131274953" sparseCutoff="1.0000000000000000"/>
      <sparseX i="611" alpha="-101.23236796125053" sparseCutoff="1.0000000000000000"/>
      <sparseX i="612" alpha="128.01013627322246" sparseCutoff="1.0000000000000000"/>
      <sparseX i="613" alpha="-100.47306790560124" sparseCutoff="1.0000000000000000"/>
      <sparseX i="614" alpha="-77.796689766266695" sparseCutoff="1.0000000000000000"/>
      <sparseX i="615" alpha="-54.725945306440899" sparseCutoff="1.0000000000000000"/>
      <sparseX i="616" alpha="-811.42935152904727" sparseCutoff="1.0000000000000000"/>
      <sparseX i="617" alpha="331.32149447211566" sparseCutoff="1.0000000000000000"/>
      <sparseX i="618" alpha="9.6212553688354827" sparseCutoff="1.0000000000000000"/>
      <sparseX i="619" alpha="-640.10145167218570" sparseCutoff="1.0000000000000000"/>
      <sparseX i="620" alpha="885.84248307256962" sparseCutoff="1.0000000000000000"/>
      <sparseX i="621" alpha="297.36598232208183" sparseCutoff="1.0000000000000000"/>
      <sparseX i="622" alpha="-254.04821674188182" sparseCutoff="1.0000000000000000"/>
      <sparseX i="623" alpha="110.60692577457415" sparseCutoff="1.0000000000000000"/>
      <sparseX i="624" alpha="187.17817230272027" sparseCutoff="1.0000000000000000"/>
      <sparseX i="625" alpha="155.90409581950493" sparseCutoff="1.0000000000000000"/>
      <sparseX i="626" alpha="240.66563319004842" sparseCutoff="1.0000000000000000"/>
      <sparseX i="627" alpha="-292.46493308072201" sparseCutoff="1.0000000000000000"/>
      <sparseX i="628" alpha="85.328614163274295" sparseCutoff="1.0000000000000000"/>
      <sparseX i="629" alpha="-118.49610812571184" sparseCutoff="1.0000000000000000"/>
      <sparseX i="630" alpha="132.73613412502380" sparseCutoff="1.0000000000000000"/>
      <sparseX i="631" alpha="-359.22341913628946" sparseCutoff="1.0000000000000000"/>
      <sparseX i="632" alpha="88.984092811564892" sparseCutoff="1.0000000000000000"/>
      <sparseX i="633" alpha="233.12732345918550" sparseCutoff="1.0000000000000000"/>
      <sparseX i="634" alpha="835.31104475054883" sparseCutoff="1.0000000000000000"/>
      <sparseX i="635" alpha="716.87287140021226" sparseCutoff="1.0000000000000000"/>
      <sparseX i="636" alpha="-380.56044611246722" sparseCutoff="1.0000000000000000"/>
      <sparseX i="637" alpha="-459.54904470673347" sparseCutoff="1.0000000000000000"/>
      <sparseX i="638" alpha="-14.484037262555139" sparseCutoff="1.0000000000000000"/>
      <sparseX i="639" alpha="33.468475462812485" sparseCutoff="1.0000000000000000"/>
      <sparseX i="640" alpha="-216.84846772593164" sparseCutoff="1.0000000000000000"/>
      <sparseX i="641" alpha="747.46939709094590" sparseCutoff="1.0000000000000000"/>
      <sparseX i="642" alpha="-641.10239477341463" sparseCutoff="1.0000000000000000"/>
      <sparseX i="643" alpha="-102.41527846186763" sparseCutoff="1.0000000000000000"/>
      <sparseX i="644" alpha="-239.88369649793373" sparseCutoff="1.0000000000000000"/>
      <sparseX i="645" alpha="-459.57136780964009" sparseCutoff="1.0000000000000000"/>
      <sparseX i="646" alpha="-186.90253791093352" sparseCutoff="1.0000000000000000"/>
      <sparseX i="647" alpha="259.01538264898721" sparseCutoff="1.0000000000000000"/>
      <sparseX i="648" alpha="575.79940751086792" sparseCutoff="1.0000000000000000"/>
      <sparseX i="649" alpha="-289.35207603391621" sparseCutoff="1.0000000000000000"/>
      <sparseX i="650" alpha="229.13168703411611" sparseCutoff="1.0000000000000000"/>
      <sparseX i="651" alpha="-410.19405525551383" sparseCutoff="1.0000000000000000"/>
      <sparseX i="652" alpha="812.60229431757659" sparseCutoff="1.0000000000000000"/>
      <sparseX i="653" alpha="-643.39180143553097" sparseCutoff="1.0000000000000000"/>
      <sparseX i="654" alpha="-281.69602957302322" sparseCutoff="1.0000000000000000"/>
      <sparseX i="655" alpha="-355.92390645687675" sparseCutoff="1.0000000000000000"/>
      <sparseX i="656" alpha="-690.68180977894542" sparseCutoff="1.0000000000000000"/>
      <sparseX i="657" alpha="-338.03953781822230" sparseCutoff="1.0000000000000000"/>
      <sparseX i="658" alpha="-467.55709329322400" sparseCutoff="1.0000000000000000"/>
      <sparseX i="659" alpha="122.37650658382910" sparseCutoff="1.0000000000000000"/>
      <sparseX i="660" alpha="-44.620017560488890" sparseCutoff="1.0000000000000000"/>
      <sparseX i="661" alpha="-589.44057603891508" sparseCutoff="1.0000000000000000"/>
      <sparseX i="662" alpha="731.53093779842027" sparseCutoff="1.0000000000000000"/>
      <sparseX i="663" alpha="229.29840307506745" sparseCutoff="1.0000000000000000"/>
      <sparseX i="664" alpha="414.43329266771917" sparseCutoff="1.0000000000000000"/>
      <sparseX i="665" alpha="-31.336072520892049" sparseCutoff="1.0000000000000000"/>
      <sparseX i="666" alpha="308.83987030419451" sparseCutoff="1.0000000000000000"/>
      <sparseX i="667" alpha="1625.4186457587059" sparseCutoff="1.0000000000000000"/>
      <sparseX i="668" alpha="1465.9981212435544" sparseCutoff="1.0000000000000000"/>
      <sparseX i="669" alpha="277.80087204921074" sparseCutoff="1.0000000000000000"/>
      <sparseX i="670" alpha="-663.96410965562916" sparseCutoff="1.0000000000000000"/>
      <sparseX i="671" alpha="186.72337879423603" sparseCutoff="1.0000000000000000"/>
      <sparseX i="672" alpha="-1000.3096965472770" sparseCutoff="1.0000000000000000"/>
      <sparseX i="673" alpha="-211.05417351014242" sparseCutoff="1.0000000000000000"/>
      <sparseX i="674" alpha="-199.37164133037521" sparseCutoff="1.0000000000000000"/>
      <sparseX i="675" alpha="-336.96100552406438" sparseCutoff="1.0000000000000000"/>
      <sparseX i="676" alpha="-405.75777463937220" sparseCutoff="1.0000000000000000"/>
      <sparseX i="677" alpha="-124.46472149135447" sparseCutoff="1.0000000000000000"/>
      <sparseX i="678" alpha="-584.15787841805923" sparseCutoff="1.0000000000000000"/>
      <sparseX i="679" alpha="149.03269908448684" sparseCutoff="1.0000000000000000"/>
      <sparseX i="680" alpha="144.32199077160934" sparseCutoff="1.0000000000000000"/>
      <sparseX i="681" alpha="-10.627926373142781" sparseCutoff="1.0000000000000000"/>
      <sparseX i="682" alpha="-440.21899687662938" sparseCutoff="1.0000000000000000"/>
      <sparseX i="683" alpha="-716.94206126946199" sparseCutoff="1.0000000000000000"/>
      <sparseX i="684" alpha="-501.62151567562739" sparseCutoff="1.0000000000000000"/>
      <sparseX i="685" alpha="672.17982066388049" sparseCutoff="1.0000000000000000"/>
      <sparseX i="686" alpha="436.54326600767922" sparseCutoff="1.0000000000000000"/>
      <sparseX i="687" alpha="-247.51112775705124" sparseCutoff="1.0000000000000000"/>
      <sparseX i="688" alpha="-10.275067758648241" sparseCutoff="1.0000000000000000"/>
      <sparseX i="689" alpha="-1883.4594436292723" sparseCutoff="1.0000000000000000"/>
      <sparseX i="690" alpha="-844.90386317510809" sparseCutoff="1.0000000000000000"/>
      <sparseX i="691" alpha="255.70475889955412" sparseCutoff="1.0000000000000000"/>
      <sparseX i="692" alpha="653.69354247469767" sparseCutoff="1.0000000000000000"/>
      <sparseX i="693" alpha="-662.58584413350718" sparseCutoff="1.0000000000000000"/>
      <sparseX i="694" alpha="-36.602516647947084" sparseCutoff="1.0000000000000000"/>
      <sparseX i="695" alpha="-207.81665884222190" sparseCutoff="1.0000000000000000"/>
      <sparseX i="696" alpha="59.280583693852066" sparseCutoff="1.0000000000000000"/>
      <sparseX i="697" alpha="-189.03671348343730" sparseCutoff="1.0000000000000000"/>
      <sparseX i="698" alpha="114.17997523404364" sparseCutoff="1.0000000000000000"/>
      <sparseX i="699" alpha="-24.400303092981837" sparseCutoff="1.0000000000000000"/>
      <sparseX i="700" alpha="339.45742559224794" sparseCutoff="1.0000000000000000"/>
      <sparseX i="701" alpha="-972.32312612633939" sparseCutoff="1.0000000000000000"/>
      <sparseX i="702" alpha="-385.34917487139927" sparseCutoff="1.0000000000000000"/>
      <sparseX i="703" alpha="-43.183018394503677" sparseCutoff="1.0000000000000000"/>
      <sparseX i="704" alpha="-64.516232468981784" sparseCutoff="1.0000000000000000"/>
      <sparseX i="705" alpha="-338.34831346174252" sparseCutoff="1.0000000000000000"/>
      <sparseX i="706" alpha="403.22463772392030" sparseCutoff="1.0000000000000000"/>
      <sparseX i="707" alpha="1011.6990024203250" sparseCutoff="1.0000000000000000"/>
      <sparseX i="708" alpha="353.16410667717230" sparseCutoff="1.0000000000000000"/>
      <sparseX i="709" alpha="515.96621199351739" sparseCutoff="1.0000000000000000"/>
      <sparseX i="710" alpha="505.26884875301891" sparseCutoff="1.0000000000000000"/>
      <sparseX i="711" alpha="115.73595698367319" sparseCutoff="1.0000000000000000"/>
      <sparseX i="712" alpha="99.556714137480810" sparseCutoff="1.0000000000000000"/>
      <sparseX i="713" alpha="311.32886436828198" sparseCutoff="1.0000000000000000"/>
      <sparseX i="714" alpha="20.570942332252265" sparseCutoff="1.0000000000000000"/>
      <sparseX i="715" alpha="470.40764311580483" sparseCutoff="1.0000000000000000"/>
      <sparseX i="716" alpha="660.29600427107027" sparseCutoff="1.0000000000000000"/>
      <sparseX i="717" alpha="19.803788504888594" sparseCutoff="1.0000000000000000"/>
      <sparseX i="718" alpha="-468.84614370241724" sparseCutoff="1.0000000000000000"/>
      <sparseX i="719" alpha="-155.55453598091401" sparseCutoff="1.0000000000000000"/>
      <sparseX i="720" alpha="425.97501194225026" sparseCutoff="1.0000000000000000"/>
      <sparseX i="721" alpha="-28.039165901783278" sparseCutoff="1.0000000000000000"/>
      <sparseX i="722" alpha="253.98862006742507" sparseCutoff="1.0000000000000000"/>
      <sparseX i="723" alpha="-246.24216965479803" sparseCutoff="1.0000000000000000"/>
      <sparseX i="724" alpha="-83.704608967267788" sparseCutoff="1.0000000000000000"/>
      <sparseX i="725" alpha="-34.694712953380318" sparseCutoff="1.0000000000000000"/>
      <sparseX i="726" alpha="-970.61794321027401" sparseCutoff="1.0000000000000000"/>
      <sparseX i="727" alpha="-475.17965104047181" sparseCutoff="1.0000000000000000"/>
      <sparseX i="728" alpha="116.83724951285153" sparseCutoff="1.0000000000000000"/>
      <sparseX i="729" alpha="-568.15396618171121" sparseCutoff="1.0000000000000000"/>
      <sparseX i="730" alpha="419.18044667460140" sparseCutoff="1.0000000000000000"/>
      <sparseX i="731" alpha="-221.06974132459698" sparseCutoff="1.0000000000000000"/>
      <sparseX i="732" alpha="-259.79764363950568" sparseCutoff="1.0000000000000000"/>
      <sparseX i="733" alpha="106.00548627474666" sparseCutoff="1.0000000000000000"/>
      <sparseX i="734" alpha="-255.89596511248516" sparseCutoff="1.0000000000000000"/>
      <sparseX i="735" alpha="-253.29939519662528" sparseCutoff="1.0000000000000000"/>
      <sparseX i="736" alpha="131.78336988665666" sparseCutoff="1.0000000000000000"/>
      <sparseX i="737" alpha="140.30709492022035" sparseCutoff="1.0000000000000000"/>
      <sparseX i="738" alpha="294.47006466004825" sparseCutoff="1.0000000000000000"/>
      <sparseX i="739" alpha="-882.53261297873655" sparseCutoff="1.0000000000000000"/>
      <sparseX i="740" alpha="166.11477969385760" sparseCutoff="1.0000000000000000"/>
      <sparseX i="741" alpha="-824.91565687940431" sparseCutoff="1.0000000000000000"/>
      <sparseX i="742" alpha="59.435023519543790" sparseCutoff="1.0000000000000000"/>
      <sparseX i="743" alpha="-121.39509535794633" sparseCutoff="1.0000000000000000"/>
      <sparseX i="744" alpha="268.79279225954514" sparseCutoff="1.0000000000000000"/>
      <sparseX i="745" alpha="299.89977971510092" sparseCutoff="1.0000000000000000"/>
      <sparseX i="746" alpha="-180.01547385932295" sparseCutoff="1.0000000000000000"/>
      <sparseX i="747" alpha="-205.93462071864923" sparseCutoff="1.0000000000000000"/>
      <sparseX i="748" alpha="-275.63448089903767" sparseCutoff="1.0000000000000000"/>
      <sparseX i="749" alpha="-1235.3224596703760" sparseCutoff="1.0000000000000000"/>
      <sparseX i="750" alpha="213.96305839622414" sparseCutoff="1.0000000000000000"/>
      <sparseX i="751" alpha="158.75757972909062" sparseCutoff="1.0000000000000000"/>
      <sparseX i="752" alpha="-253.34629478773385" sparseCutoff="1.0000000000000000"/>
      <sparseX i="753" alpha="89.728092200004639" sparseCutoff="1.0000000000000000"/>
      <sparseX i="754" alpha="720.45356813054798" sparseCutoff="1.0000000000000000"/>
      <sparseX i="755" alpha="-136.53278502543762" sparseCutoff="1.0000000000000000"/>
      <sparseX i="756" alpha="815.30930005406469" sparseCutoff="1.0000000000000000"/>
      <sparseX i="757" alpha="6.1069700051997895" sparseCutoff="1.0000000000000000"/>
      <sparseX i="758" alpha="1028.1616404126880" sparseCutoff="1.0000000000000000"/>
      <sparseX i="759" alpha="-153.51472595319134" sparseCutoff="1.0000000000000000"/>
      <sparseX i="760" alpha="-232.04597209719199" sparseCutoff="1.0000000000000000"/>
      <sparseX i="761" alpha="1076.5829780380463" sparseCutoff="1.0000000000000000"/>
      <sparseX i="762" alpha="-56.012973352292143" sparseCutoff="1.0000000000000000"/>
      <sparseX i="763" alpha="-607.98709442204620" sparseCutoff="1.0000000000000000"/>
      <sparseX i="764" alpha="-311.63932131391334" sparseCutoff="1.0000000000000000"/>
      <sparseX i="765" alpha="30.848952691825666" sparseCutoff="1.0000000000000000"/>
      <sparseX i="766" alpha="693.09623871953613" sparseCutoff="1.0000000000000000"/>
      <sparseX i="767" alpha="1269.2881151775694" sparseCutoff="1.0000000000000000"/>
      <sparseX i="768" alpha="-140.87946405922347" sparseCutoff="1.0000000000000000"/>
      <sparseX i="769" alpha="-1269.9312495367474" sparseCutoff="1.0000000000000000"/>
      <sparseX i="770" alpha="-323.46785341170107" sparseCutoff="1.0000000000000000"/>
      <sparseX i="771" alpha="598.86125938223256" sparseCutoff="1.0000000000000000"/>
      <sparseX i="772" alpha="443.98506968994099" sparseCutoff="1.0000000000000000"/>
      <sparseX i="773" alpha="-81.873821312132222" sparseCutoff="1.0000000000000000"/>
      <sparseX i="774" alpha="677.26944968332703" sparseCutoff="1.0000000000000000"/>
      <sparseX i="775" alpha="523.58126858148592" sparseCutoff="1.0000000000000000"/>
      <sparseX i="776" alpha="-1080.2538154608412" sparseCutoff="1.0000000000000000"/>
      <sparseX i="777" alpha="-27.091494829051626" sparseCutoff="1.0000000000000000"/>
      <sparseX i="778" alpha="-651.03961289042536" sparseCutoff="1.0000000000000000"/>
      <sparseX i="779" alpha="-81.375482820745333" sparseCutoff="1.0000000000000000"/>
      <sparseX i="780" alpha="794.09142863476143" sparseCutoff="1.0000000000000000"/>
      <sparseX i="781" alpha="822.41677721982569" sparseCutoff="1.0000000000000000"/>
      <sparseX i="782" alpha="-30.649165347940652" sparseCutoff="1.0000000000000000"/>
      <sparseX i="783" alpha="-886.28311040451581" sparseCutoff="1.0000000000000000"/>
      <sparseX i="784" alpha="-138.98916018130222" sparseCutoff="1.0000000000000000"/>
      <sparseX i="785" alpha="844.91023578246256" sparseCutoff="1.0000000000000000"/>
      <sparseX i="786" alpha="855.51005508857440" sparseCutoff="1.0000000000000000"/>
      <sparseX i="787" alpha="-266.39815403086942" sparseCutoff="1.0000000000000000"/>
      <sparseX i="788" alpha="-180.59823313683157" sparseCutoff="1.0000000000000000"/>
      <sparseX i="789" alpha="336.43204173509673" sparseCutoff="1.0000000000000000"/>
      <sparseX i="790" alpha="218.95677407115829" sparseCutoff="1.0000000000000000"/>
      <sparseX i="791" alpha="-180.60826820874615" sparseCutoff="1.0000000000000000"/>
      <sparseX i="792" alpha="317.04103541798770" sparseCutoff="1.0000000000000000"/>
      <sparseX i="793" alpha="112.54062494977015" sparseCutoff="1.0000000000000000"/>
      <sparseX i="794" alpha="388.21174563106939" sparseCutoff="1.0000000000000000"/>
      <sparseX i="795" alpha="108.23001037982085" sparseCutoff="1.0000000000000000"/>
      <sparseX i="796" alpha="563.61037055816087" sparseCutoff="1.0000000000000000"/>
      <sparseX i="797" alpha="-1209.3908691327933" sparseCutoff="1.0000000000000000"/>
      <sparseX i="798" alpha="337.76264471290693" sparseCutoff="1.0000000000000000"/>
      <sparseX i="799" alpha="203.79033719431271" sparseCutoff="1.0000000000000000"/>
      <sparseX i="800" alpha="653.27110377226529" sparseCutoff="1.0000000000000000"/>
      <sparseX i="801" alpha="86.424117468539521" sparseCutoff="1.0000000000000000"/>
      <sparseX i="802" alpha="-635.36790751215597" sparseCutoff="1.0000000000000000"/>
      <sparseX i="803" alpha="1201.5488799840737" sparseCutoff="1.0000000000000000"/>
      <sparseX i="804" alpha="-749.59536806714470" sparseCutoff="1.0000000000000000"/>
      <sparseX i="805" alpha="36.999952615915213" sparseCutoff="1.0000000000000000"/>
      <sparseX i="806" alpha="-967.54652321058927" sparseCutoff="1.0000000000000000"/>
      <sparseX i="807" alpha="-223.50226883191581" sparseCutoff="1.0000000000000000"/>
      <sparseX i="808" alpha="-61.567423918323591" sparseCutoff="1.0000000000000000"/>
      <sparseX i="809" alpha="-388.74856717392595" sparseCutoff="1.0000000000000000"/>
      <sparseX i="810" alpha="327.53444261208369" sparseCutoff="1.0000000000000000"/>
      <sparseX i="811" alpha="19.919956370378767" sparseCutoff="1.0000000000000000"/>
      <sparseX i="812" alpha="-651.06552375302499" sparseCutoff="1.0000000000000000"/>
      <sparseX i="813" alpha="162.44876033604123" sparseCutoff="1.0000000000000000"/>
      <sparseX i="814" alpha="183.96746710828103" sparseCutoff="1.0000000000000000"/>
      <sparseX i="815" alpha="98.533698731151745" sparseCutoff="1.0000000000000000"/>
      <sparseX i="816" alpha="589.42877424424285" sparseCutoff="1.0000000000000000"/>
      <sparseX i="817" alpha="270.52836667546268" sparseCutoff="1.0000000000000000"/>
      <sparseX i="818" alpha="-568.95175360780524" sparseCutoff="1.0000000000000000"/>
      <sparseX i="819" alpha="581.82559160308165" sparseCutoff="1.0000000000000000"/>
      <sparseX i="820" alpha="-220.36969889412825" sparseCutoff="1.0000000000000000"/>
      <sparseX i="821" alpha="-206.97814718295410" sparseCutoff="1.0000000000000000"/>
      <sparseX i="822" alpha="602.05356871260642" sparseCutoff="1.0000000000000000"/>
      <sparseX i="823" alpha="560.80240702410288" sparseCutoff="1.0000000000000000"/>
      <sparseX i="824" alpha="-104.78322785881166" sparseCutoff="1.0000000000000000"/>
      <sparseX i="825" alpha="-91.505236275495449" sparseCutoff="1.0000000000000000"/>
      <sparseX i="826" alpha="266.79037191444047" sparseCutoff="1.0000000000000000"/>
      <sparseX i="827" alpha="-59.588667245443993" sparseCutoff="1.0000000000000000"/>
      <sparseX i="828" alpha="-523.63232803918390" sparseCutoff="1.0000000000000000"/>
      <sparseX i="829" alpha="-47.473423271244521" sparseCutoff="1.0000000000000000"/>
      <sparseX i="830" alpha="-364.76376052875236" sparseCutoff="1.0000000000000000"/>
      <sparseX i="831" alpha="-73.582107568765224" sparseCutoff="1.0000000000000000"/>
      <sparseX i="832" alpha="140.99835333475318" sparseCutoff="1.0000000000000000"/>
      <sparseX i="833" alpha="-374.05718093025632" sparseCutoff="1.0000000000000000"/>
      <sparseX i="834" alpha="1074.1239698742113" sparseCutoff="1.0000000000000000"/>
      <sparseX i="835" alpha="339.88493363641936" sparseCutoff="1.0000000000000000"/>
      <sparseX i="836" alpha="-162.61771920946700" sparseCutoff="1.0000000000000000"/>
      <sparseX i="837" alpha="-311.61116068236782" sparseCutoff="1.0000000000000000"/>
      <sparseX i="838" alpha="957.48275223497308" sparseCutoff="1.0000000000000000"/>
      <sparseX i="839" alpha="-61.882593007496190" sparseCutoff="1.0000000000000000"/>
      <sparseX i="840" alpha="61.949626262540356" sparseCutoff="1.0000000000000000"/>
      <sparseX i="841" alpha="488.23123665201126" sparseCutoff="1.0000000000000000"/>
      <sparseX i="842" alpha="314.97348661003650" sparseCutoff="1.0000000000000000"/>
      <sparseX i="843" alpha="-230.96990092078511" sparseCutoff="1.0000000000000000"/>
      <sparseX i="844" alpha="-469.43342495308639" sparseCutoff="1.0000000000000000"/>
      <sparseX i="845" alpha="133.72492179917160" sparseCutoff="1.0000000000000000"/>
      <sparseX i="846" alpha="123.45986344402220" sparseCutoff="1.0000000000000000"/>
      <sparseX i="847" alpha="-156.50263755270231" sparseCutoff="1.0000000000000000"/>
      <sparseX i="848" alpha="-163.56601827727602" sparseCutoff="1.0000000000000000"/>
      <sparseX i="849" alpha="691.57151524211793" sparseCutoff="1.0000000000000000"/>
      <sparseX i="850" alpha="752.16876687199215" sparseCutoff="1.0000000000000000"/>
      <sparseX i="851" alpha="-190.76278889615028" sparseCutoff="1.0000000000000000"/>
      <sparseX i="852" alpha="863.15256522392690" sparseCutoff="1.0000000000000000"/>
      <sparseX i="853" alpha="-343.48276079954087" sparseCutoff="1.0000000000000000"/>
      <sparseX i="854" alpha="185.84559614407482" sparseCutoff="1.0000000000000000"/>
      <sparseX i="855" alpha="-291.49311778213803" sparseCutoff="1.0000000000000000"/>
      <sparseX i="856" alpha="142.31705861020791" sparseCutoff="1.0000000000000000"/>
      <sparseX i="857" alpha="-379.54601331814263" sparseCutoff="1.0000000000000000"/>
      <sparseX i="858" alpha="-244.28870584527019" sparseCutoff="1.0000000000000000"/>
      <sparseX i="859" alpha="315.18589223700957" sparseCutoff="1.0000000000000000"/>
      <sparseX i="860" alpha="-206.33922033072403" sparseCutoff="1.0000000000000000"/>
      <sparseX i="861" alpha="-419.03587258726736" sparseCutoff="1.0000000000000000"/>
      <sparseX i="862" alpha="-355.83240845903907" sparseCutoff="1.0000000000000000"/>
      <sparseX i="863" alpha="775.69583604196100" sparseCutoff="1.0000000000000000"/>
      <sparseX i="864" alpha="113.27171056030237" sparseCutoff="1.0000000000000000"/>
      <sparseX i="865" alpha="-482.30498227106318" sparseCutoff="1.0000000000000000"/>
      <sparseX i="866" alpha="-687.90613840379842" sparseCutoff="1.0000000000000000"/>
      <sparseX i="867" alpha="78.625123465875291" sparseCutoff="1.0000000000000000"/>
      <sparseX i="868" alpha="-42.250953572644370" sparseCutoff="1.0000000000000000"/>
      <sparseX i="869" alpha="-181.09915274939021" sparseCutoff="1.0000000000000000"/>
      <sparseX i="870" alpha="15.887434912245180" sparseCutoff="1.0000000000000000"/>
      <sparseX i="871" alpha="-203.68730683082916" sparseCutoff="1.0000000000000000"/>
      <sparseX i="872" alpha="-262.42640147237756" sparseCutoff="1.0000000000000000"/>
      <sparseX i="873" alpha="-211.11995888849330" sparseCutoff="1.0000000000000000"/>
      <sparseX i="874" alpha="-469.22504925123746" sparseCutoff="1.0000000000000000"/>
      <sparseX i="875" alpha="907.22611006536397" sparseCutoff="1.0000000000000000"/>
      <sparseX i="876" alpha="-334.64796939895609" sparseCutoff="1.0000000000000000"/>
      <sparseX i="877" alpha="-123.89664253239057" sparseCutoff="1.0000000000000000"/>
      <sparseX i="878" alpha="1632.9352386070425" sparseCutoff="1.0000000000000000"/>
      <sparseX i="879" alpha="865.16683104020990" sparseCutoff="1.0000000000000000"/>
      <sparseX i="880" alpha="206.91032091491695" sparseCutoff="1.0000000000000000"/>
      <sparseX i="881" alpha="102.16860441118895" sparseCutoff="1.0000000000000000"/>
      <sparseX i="882" alpha="278.66502307284532" sparseCutoff="1.0000000000000000"/>
      <sparseX i="883" alpha="-211.12123003254442" sparseCutoff="1.0000000000000000"/>
      <sparseX i="884" alpha="55.502556831541931" sparseCutoff="1.0000000000000000"/>
      <sparseX i="885" alpha="31.345866892228781" sparseCutoff="1.0000000000000000"/>
      <sparseX i="886" alpha="128.30820760170246" sparseCutoff="1.0000000000000000"/>
      <sparseX i="887" alpha="406.95842126390448" sparseCutoff="1.0000000000000000"/>
      <sparseX i="888" alpha="745.43244651141788" sparseCutoff="1.0000000000000000"/>
      <sparseX i="889" alpha="-600.92831840591600" sparseCutoff="1.0000000000000000"/>
      <sparseX i="890" alpha="-332.06449102797518" sparseCutoff="1.0000000000000000"/>
      <sparseX i="891" alpha="-235.68523611151622" sparseCutoff="1.0000000000000000"/>
      <sparseX i="892" alpha="-384.78939507448570" sparseCutoff="1.0000000000000000"/>
      <sparseX i="893" alpha="-63.720794517073216" sparseCutoff="1.0000000000000000"/>
      <sparseX i="894" alpha="65.761081811663900" sparseCutoff="1.0000000000000000"/>
      <sparseX i="895" alpha="-462.66798211368229" sparseCutoff="1.0000000000000000"/>
      <sparseX i="896" alpha="79.272092851476245" sparseCutoff="1.0000000000000000"/>
      <sparseX i="897" alpha="-81.007886760239927" sparseCutoff="1.0000000000000000"/>
      <sparseX i="898" alpha="-214.72432245222853" sparseCutoff="1.0000000000000000"/>
      <sparseX i="899" alpha="-411.04564423688510" sparseCutoff="1.0000000000000000"/>
      <sparseX i="900" alpha="-239.39477778317374" sparseCutoff="1.0000000000000000"/>
      <sparseX i="901" alpha="1025.1094742253870" sparseCutoff="1.0000000000000000"/>
      <sparseX i="902" alpha="-708.32457573767044" sparseCutoff="1.0000000000000000"/>
      <sparseX i="903" alpha="451.65150304933616" sparseCutoff="1.0000000000000000"/>
      <sparseX i="904" alpha="886.45540838785791" sparseCutoff="1.0000000000000000"/>
      <sparseX i="905" alpha="276.16874104224996" sparseCutoff="1.0000000000000000"/>
      <sparseX i="906" alpha="-902.65795861271681" sparseCutoff="1.0000000000000000"/>
      <sparseX i="907" alpha="836.62920666239029" sparseCutoff="1.0000000000000000"/>
      <sparseX i="908" alpha="214.58539476459063" sparseCutoff="1.0000000000000000"/>
      <sparseX i="909" alpha="-81.337392950200609" sparseCutoff="1.0000000000000000"/>
      <sparseX i="910" alpha="1117.3521763482408" sparseCutoff="1.0000000000000000"/>
      <sparseX i="911" alpha="-861.94158782618626" sparseCutoff="1.0000000000000000"/>
      <sparseX i="912" alpha="696.92823580781192" sparseCutoff="1.0000000000000000"/>
      <sparseX i="913" alpha="-315.10701719588201" sparseCutoff="1.0000000000000000"/>
      <sparseX i="914" alpha="207.03189961101918" sparseCutoff="1.0000000000000000"/>
      <sparseX i="915" alpha="-641.96424917182469" sparseCutoff="1.0000000000000000"/>
      <sparseX i="916" alpha="822.30106918834940" sparseCutoff="1.0000000000000000"/>
      <sparseX i="917" alpha="-14.628597030011784" sparseCutoff="1.0000000000000000"/>
      <sparseX i="918" alpha="-192.96585783836130" sparseCutoff="1.0000000000000000"/>
      <sparseX i="919" alpha="-314.09643957131289" sparseCutoff="1.0000000000000000"/>
      <sparseX i="920" alpha="-148.13790407537783" sparseCutoff="1.0000000000000000"/>
      <sparseX i="921" alpha="1004.2997472660147" sparseCutoff="1.0000000000000000"/>
      <sparseX i="922" alpha="-121.40616866452297" sparseCutoff="1.0000000000000000"/>
      <sparseX i="923" alpha="22.623462833079373" sparseCutoff="1.0000000000000000"/>
      <sparseX i="924" alpha="571.20837615558025" sparseCutoff="1.0000000000000000"/>
      <sparseX i="925" alpha="-206.49548150791685" sparseCutoff="1.0000000000000000"/>
      <sparseX i="926" alpha="336.51208961211915" sparseCutoff="1.0000000000000000"/>
      <sparseX i="927" alpha="451.63138059789367" sparseCutoff="1.0000000000000000"/>
      <sparseX i="928" alpha="849.72067149051827" sparseCutoff="1.0000000000000000"/>
      <sparseX i="929" alpha="418.70868303152230" sparseCutoff="1.0000000000000000"/>
      <sparseX i="930" alpha="996.53188631013529" sparseCutoff="1.0000000000000000"/>
      <sparseX i="931" alpha="497.87456926232466" sparseCutoff="1.0000000000000000"/>
      <sparseX i="932" alpha="2.0670086401674572" sparseCutoff="1.0000000000000000"/>
      <sparseX i="933" alpha="-7.5485718677051938" sparseCutoff="1.0000000000000000"/>
      <sparseX i="934" alpha="-74.740716950084717" sparseCutoff="1.0000000000000000"/>
      <sparseX i="935" alpha="99.974359065813701" sparseCutoff="1.0000000000000000"/>
      <sparseX i="936" alpha="42.358781858622208" sparseCutoff="1.0000000000000000"/>
      <sparseX i="937" alpha="187.96358027069107" sparseCutoff="1.0000000000000000"/>
      <sparseX i="938" alpha="299.48257034330936" sparseCutoff="1.0000000000000000"/>
      <sparseX i="939" alpha="-4.1302181302320262" sparseCutoff="1.0000000000000000"/>
      <sparseX i="940" alpha="-322.97610916616412" sparseCutoff="1.0000000000000000"/>
      <sparseX i="941" alpha="831.26201616161188" sparseCutoff="1.0000000000000000"/>
      <sparseX i="942" alpha="-348.08255027233628" sparseCutoff="1.0000000000000000"/>
      <sparseX i="943" alpha="149.42407744617782" sparseCutoff="1.0000000000000000"/>
      <sparseX i="944" alpha="-256.12790095767741" sparseCutoff="1.0000000000000000"/>
      <sparseX i="945" alpha="-514.32407659158912" sparseCutoff="1.0000000000000000"/>
      <sparseX i="946" alpha="-95.434418447759924" sparseCutoff="1.0000000000000000"/>
      <sparseX i="947" alpha="-318.40269195913311" sparseCutoff="1.0000000000000000"/>
      <sparseX i="948" alpha="221.83842814255715" sparseCutoff="1.0000000000000000"/>
      <sparseX i="949" alpha="1718.6777439975401" sparseCutoff="1.0000000000000000"/>
      <sparseX i="950" alpha="1359.6165201575407" sparseCutoff="1.0000000000000000"/>
      <sparseX i="951" alpha="-120.97581811677759" sparseCutoff="1.0000000000000000"/>
      <sparseX i="952" alpha="-458.64759672395917" sparseCutoff="1.0000000000000000"/>
      <sparseX i="953" alpha="-878.87979456273376" sparseCutoff="1.0000000000000000"/>
      <sparseX i="954" alpha="290.73151829774628" sparseCutoff="1.0000000000000000"/>
      <sparseX i="955" alpha="142.34643222648106" sparseCutoff="1.0000000000000000"/>
      <sparseX i="956" alpha="-48.953482990214873" sparseCutoff="1.0000000000000000"/>
      <sparseX i="957" alpha="532.92392113886808" sparseCutoff="1.0000000000000000"/>
      <sparseX i="958" alpha="557.26666530107821" sparseCutoff="1.0000000000000000"/>
      <sparseX i="959" alpha="-196.79313875048763" sparseCutoff="1.0000000000000000"/>
      <sparseX i="960" alpha="796.08807135259519" sparseCutoff="1.0000000000000000"/>
      <sparseX i="961" alpha="597.69362048407265" sparseCutoff="1.0000000000000000"/>
      <sparseX i="962" alpha="-636.25255755565865" sparseCutoff="1.0000000000000000"/>
      <sparseX i="963" alpha="-1254.7926481506590" sparseCutoff="1.0000000000000000"/>
      <sparseX i="964" alpha="-69.816021626180529" sparseCutoff="1.0000000000000000"/>
      <sparseX i="965" alpha="128.48872541312608" sparseCutoff="1.0000000000000000"/>
      <sparseX i="966" alpha="-635.75668334831357" sparseCutoff="1.0000000000000000"/>
      <sparseX i="967" alpha="524.54884951325539" sparseCutoff="1.0000000000000000"/>
      <sparseX i="968" alpha="1261.2769548020410" sparseCutoff="1.0000000000000000"/>
      <sparseX i="969" alpha="-74.112595307800007" sparseCutoff="1.0000000000000000"/>
      <sparseX i="970" alpha="-247.14732203713424" sparseCutoff="1.0000000000000000"/>
      <sparseX i="971" alpha="478.30592075906753" sparseCutoff="1.0000000000000000"/>
      <sparseX i="972" alpha="-1703.7152985545497" sparseCutoff="1.0000000000000000"/>
      <sparseX i="973" alpha="358.23220812505690" sparseCutoff="1.0000000000000000"/>
      <sparseX i="974" alpha="60.123643439421159" sparseCutoff="1.0000000000000000"/>
      <sparseX i="975" alpha="1715.8443736723334" sparseCutoff="1.0000000000000000"/>
      <sparseX i="976" alpha="-189.87270760605242" sparseCutoff="1.0000000000000000"/>
      <sparseX i="977" alpha="1288.3079166855646" sparseCutoff="1.0000000000000000"/>
      <sparseX i="978" alpha="877.49786528567711" sparseCutoff="1.0000000000000000"/>
      <sparseX i="979" alpha="66.244646060608432" sparseCutoff="1.0000000000000000"/>
      <sparseX i="980" alpha="-1056.7751058482709" sparseCutoff="1.0000000000000000"/>
      <sparseX i="981" alpha="1422.0451411780116" sparseCutoff="1.0000000000000000"/>
      <sparseX i="982" alpha="-502.02500266817350" sparseCutoff="1.0000000000000000"/>
      <sparseX i="983" alpha="-835.15419915165774" sparseCutoff="1.0000000000000000"/>
      <sparseX i="984" alpha="-242.29691932490081" sparseCutoff="1.0000000000000000"/>
      <sparseX i="985" alpha="-17.118778650365265" sparseCutoff="1.0000000000000000"/>
      <sparseX i="986" alpha="235.65966342204175" sparseCutoff="1.0000000000000000"/>
      <sparseX i="987" alpha="27.605485351201157" sparseCutoff="1.0000000000000000"/>
      <sparseX i="988" alpha="-191.05619804316731" sparseCutoff="1.0000000000000000"/>
      <sparseX i="989" alpha="-83.264719000026972" sparseCutoff="1.0000000000000000"/>
      <sparseX i="990" alpha="-435.28918768796734" sparseCutoff="1.0000000000000000"/>
      <sparseX i="991" alpha="-1164.0273692480489" sparseCutoff="1.0000000000000000"/>
      <sparseX i="992" alpha="283.52614624975030" sparseCutoff="1.0000000000000000"/>
      <sparseX i="993" alpha="295.02982297652659" sparseCutoff="1.0000000000000000"/>
      <sparseX i="994" alpha="224.94729948076829" sparseCutoff="1.0000000000000000"/>
      <sparseX i="995" alpha="271.59036100915085" sparseCutoff="1.0000000000000000"/>
      <sparseX i="996" alpha="605.92054907317890" sparseCutoff="1.0000000000000000"/>
      <sparseX i="997" alpha="2408.4383851440866" sparseCutoff="1.0000000000000000"/>
      <sparseX i="998" alpha="242.23933050773155" sparseCutoff="1.0000000000000000"/>
      <sparseX i="999" alpha="1708.4618118736767" sparseCutoff="1.0000000000000000"/>
      <sparseX i="1000" alpha="-378.44321386991220" sparseCutoff="1.0000000000000000"/>
      <sparseX i="1001" alpha="180.54753543688582" sparseCutoff="1.0000000000000000"/>
      <sparseX i="1002" alpha="692.64304879671806" sparseCutoff="1.0000000000000000"/>
      <sparseX i="1003" alpha="128.77752535998664" sparseCutoff="1.0000000000000000"/>
      <sparseX i="1004" alpha="59.542172422286093" sparseCutoff="1.0000000000000000"/>
      <sparseX i="1005" alpha="-1506.1417182535990" sparseCutoff="1.0000000000000000"/>
      <sparseX i="1006" alpha="866.42838543827293" sparseCutoff="1.0000000000000000"/>
      <sparseX i="1007" alpha="-415.14824707032841" sparseCutoff="1.0000000000000000"/>
      <sparseX i="1008" alpha="-147.73070804939175" sparseCutoff="1.0000000000000000"/>
      <sparseX i="1009" alpha="-160.36006725644617" sparseCutoff="1.0000000000000000"/>
