<GAP_2022_12_5_120_12_28_45_644>
<Potential label="GAP_2022_12_5_120_12_28_45_644" init_args="Sum init_args_pot1={IP Glue} init_args_pot2={IP GAP label=GAP_2022_12_5_120_12_28_45_644}"/>
<pairpot>
<Potential label="pairpot" init_args="IP Glue"/>
<Glue_params n_types="1">
 <per_type_data atomic_num="26" type="1">
  <!-- Fe, Z: 26, many-body data ==> zero energy for pair potential! -->
  <density num_points="10" density_y1="0.0" density_yn="0.0">
   <point a="0.5" rho="0.2"/>
   <point a="1.0" rho="0.2"/>
   <point a="1.5" rho="0.2"/>
   <point a="2.0" rho="0.2"/>
   <point a="2.5" rho="0.2"/>
   <point a="3.0" rho="0.2"/>
   <point a="3.5" rho="0.2"/>
   <point a="4.0" rho="0.2"/>
   <point a="4.5" rho="0.2"/>
   <point a="5.0" rho="0.2"/>
  </density>
  <potential_density num_points="10">
   <point rho="0.0" E="0.0"/>
   <point rho="0.1111111111111111" E="0.0"/>
   <point rho="0.2222222222222222" E="0.0"/>
   <point rho="0.3333333333333333" E="0.0"/>
   <point rho="0.4444444444444444" E="0.0"/>
   <point rho="0.5555555555555556" E="0.0"/>
   <point rho="0.6666666666666666" E="0.0"/>
   <point rho="0.7777777777777777" E="0.0"/>
   <point rho="0.8888888888888888" E="0.0"/>
   <point rho="1.0" E="0.0"/>
  </potential_density>
 </per_type_data>
 <per_pair_data type1="1" type2="1">
  <!-- Fe-Fe, Z: 26-26 pair potential -->
  <potential_pair num_points="20" y1="1.e50" yn="0.0">
   <point r="0.1" E="7748.44601183"/>
   <point r="0.2" E="3147.19345085"/>
   <point r="0.3" E="1647.01642163"/>
   <point r="0.4" E="936.69706389"/>
   <point r="0.5" E="548.89268204"/>
   <point r="0.6" E="324.9847427"/>
   <point r="0.7" E="191.36908051"/>
   <point r="0.8" E="108.92330248"/>
   <point r="0.9" E="58.34144238"/>
   <point r="1.0" E="27.85496265"/>
   <point r="1.1" E="11.23670267"/>
   <point r="1.2" E="2.5045744543903763"/>
   <point r="1.3" E="-1.6555811270614396"/>
   <point r="1.4" E="-3.601962210000001"/>
   <point r="1.5" E="-3.8434753344518433"/>
   <point r="1.6" E="-3.1230113907164014"/>
   <point r="1.7" E="-2.062869390000001"/>
   <point r="1.8" E="-1.0388872293204439"/>
   <point r="1.9" E="-0.27669734798204876"/>
   <point r="2.0" E="0.0"/>
  </potential_pair>
 </per_pair_data>
</Glue_params>
</pairpot><GAP_params label="GAP_2022_12_5_120_12_28_45_644" gap_version="1663247896">
  <GAP_data do_core="T">
    <e0 Z="1" value="-3.4067216949999999"/>
    <e0 Z="2" value="-3.4067216949999999"/>
    <e0 Z="3" value="-3.4067216949999999"/>
    <e0 Z="4" value="-3.4067216949999999"/>
    <e0 Z="5" value="-3.4067216949999999"/>
    <e0 Z="6" value="-3.4067216949999999"/>
    <e0 Z="7" value="-3.4067216949999999"/>
    <e0 Z="8" value="-3.4067216949999999"/>
    <e0 Z="9" value="-3.4067216949999999"/>
    <e0 Z="10" value="-3.4067216949999999"/>
    <e0 Z="11" value="-3.4067216949999999"/>
    <e0 Z="12" value="-3.4067216949999999"/>
    <e0 Z="13" value="-3.4067216949999999"/>
    <e0 Z="14" value="-3.4067216949999999"/>
    <e0 Z="15" value="-3.4067216949999999"/>
    <e0 Z="16" value="-3.4067216949999999"/>
    <e0 Z="17" value="-3.4067216949999999"/>
    <e0 Z="18" value="-3.4067216949999999"/>
    <e0 Z="19" value="-3.4067216949999999"/>
    <e0 Z="20" value="-3.4067216949999999"/>
    <e0 Z="21" value="-3.4067216949999999"/>
    <e0 Z="22" value="-3.4067216949999999"/>
    <e0 Z="23" value="-3.4067216949999999"/>
    <e0 Z="24" value="-3.4067216949999999"/>
    <e0 Z="25" value="-3.4067216949999999"/>
    <e0 Z="26" value="-3.4067216949999999"/>
    <e0 Z="27" value="-3.4067216949999999"/>
    <e0 Z="28" value="-3.4067216949999999"/>
    <e0 Z="29" value="-3.4067216949999999"/>
    <e0 Z="30" value="-3.4067216949999999"/>
    <e0 Z="31" value="-3.4067216949999999"/>
    <e0 Z="32" value="-3.4067216949999999"/>
    <e0 Z="33" value="-3.4067216949999999"/>
    <e0 Z="34" value="-3.4067216949999999"/>
    <e0 Z="35" value="-3.4067216949999999"/>
    <e0 Z="36" value="-3.4067216949999999"/>
    <e0 Z="37" value="-3.4067216949999999"/>
    <e0 Z="38" value="-3.4067216949999999"/>
    <e0 Z="39" value="-3.4067216949999999"/>
    <e0 Z="40" value="-3.4067216949999999"/>
    <e0 Z="41" value="-3.4067216949999999"/>
    <e0 Z="42" value="-3.4067216949999999"/>
    <e0 Z="43" value="-3.4067216949999999"/>
    <e0 Z="44" value="-3.4067216949999999"/>
    <e0 Z="45" value="-3.4067216949999999"/>
    <e0 Z="46" value="-3.4067216949999999"/>
    <e0 Z="47" value="-3.4067216949999999"/>
    <e0 Z="48" value="-3.4067216949999999"/>
    <e0 Z="49" value="-3.4067216949999999"/>
    <e0 Z="50" value="-3.4067216949999999"/>
    <e0 Z="51" value="-3.4067216949999999"/>
    <e0 Z="52" value="-3.4067216949999999"/>
    <e0 Z="53" value="-3.4067216949999999"/>
    <e0 Z="54" value="-3.4067216949999999"/>
    <e0 Z="55" value="-3.4067216949999999"/>
    <e0 Z="56" value="-3.4067216949999999"/>
    <e0 Z="57" value="-3.4067216949999999"/>
    <e0 Z="58" value="-3.4067216949999999"/>
    <e0 Z="59" value="-3.4067216949999999"/>
    <e0 Z="60" value="-3.4067216949999999"/>
    <e0 Z="61" value="-3.4067216949999999"/>
    <e0 Z="62" value="-3.4067216949999999"/>
    <e0 Z="63" value="-3.4067216949999999"/>
    <e0 Z="64" value="-3.4067216949999999"/>
    <e0 Z="65" value="-3.4067216949999999"/>
    <e0 Z="66" value="-3.4067216949999999"/>
    <e0 Z="67" value="-3.4067216949999999"/>
    <e0 Z="68" value="-3.4067216949999999"/>
    <e0 Z="69" value="-3.4067216949999999"/>
    <e0 Z="70" value="-3.4067216949999999"/>
    <e0 Z="71" value="-3.4067216949999999"/>
    <e0 Z="72" value="-3.4067216949999999"/>
    <e0 Z="73" value="-3.4067216949999999"/>
    <e0 Z="74" value="-3.4067216949999999"/>
    <e0 Z="75" value="-3.4067216949999999"/>
    <e0 Z="76" value="-3.4067216949999999"/>
    <e0 Z="77" value="-3.4067216949999999"/>
    <e0 Z="78" value="-3.4067216949999999"/>
    <e0 Z="79" value="-3.4067216949999999"/>
    <e0 Z="80" value="-3.4067216949999999"/>
    <e0 Z="81" value="-3.4067216949999999"/>
    <e0 Z="82" value="-3.4067216949999999"/>
    <e0 Z="83" value="-3.4067216949999999"/>
    <e0 Z="84" value="-3.4067216949999999"/>
    <e0 Z="85" value="-3.4067216949999999"/>
    <e0 Z="86" value="-3.4067216949999999"/>
    <e0 Z="87" value="-3.4067216949999999"/>
    <e0 Z="88" value="-3.4067216949999999"/>
    <e0 Z="89" value="-3.4067216949999999"/>
    <e0 Z="90" value="-3.4067216949999999"/>
    <e0 Z="91" value="-3.4067216949999999"/>
    <e0 Z="92" value="-3.4067216949999999"/>
    <e0 Z="93" value="-3.4067216949999999"/>
    <e0 Z="94" value="-3.4067216949999999"/>
    <e0 Z="95" value="-3.4067216949999999"/>
    <e0 Z="96" value="-3.4067216949999999"/>
    <e0 Z="97" value="-3.4067216949999999"/>
    <e0 Z="98" value="-3.4067216949999999"/>
    <e0 Z="99" value="-3.4067216949999999"/>
    <e0 Z="100" value="-3.4067216949999999"/>
    <e0 Z="101" value="-3.4067216949999999"/>
    <e0 Z="102" value="-3.4067216949999999"/>
    <e0 Z="103" value="-3.4067216949999999"/>
    <e0 Z="104" value="-3.4067216949999999"/>
    <e0 Z="105" value="-3.4067216949999999"/>
    <e0 Z="106" value="-3.4067216949999999"/>
    <e0 Z="107" value="-3.4067216949999999"/>
    <e0 Z="108" value="-3.4067216949999999"/>
    <e0 Z="109" value="-3.4067216949999999"/>
    <e0 Z="110" value="-3.4067216949999999"/>
    <e0 Z="111" value="-3.4067216949999999"/>
    <e0 Z="112" value="-3.4067216949999999"/>
    <e0 Z="113" value="-3.4067216949999999"/>
    <e0 Z="114" value="-3.4067216949999999"/>
    <e0 Z="115" value="-3.4067216949999999"/>
    <e0 Z="116" value="-3.4067216949999999"/>
    <e0 Z="117" value="-3.4067216949999999"/>
    <e0 Z="118" value="-3.4067216949999999"/>
  </GAP_data>
  <gpSparse label="GAP_2022_12_5_120_12_28_45_644" n_coordinate="3" fitted="T">
    <gpCoordinates label="GAP_2022_12_5_120_12_28_45_6441" dimensions="1" signal_variance="1.0000000000000000" signal_mean=".00000000000000000E+000" sparsified="T" n_permutations="1" covariance_type="1" n_sparseX="40" sparseX_filename="iron.xml.sparseX.GAP_2022_12_5_120_12_28_45_6441" sparseX_md5sum="06a84b1433816d44ad335fd429a39a07">
      <theta>  0.50000000000000000E+000 </theta>
      <descriptor> distance_2b Z1=26 Z2=26 cutoff=5.0 n_sparse=40 covariance_type=ard_se delta=1. theta_uniform=0.5 sparse_method=uniform add_species=F</descriptor>
      <permutation i="1">1  </permutation>
      <sparseX i="1" alpha="412450.40865268162" sparseCutoff="1.0000000000000000"/>
      <sparseX i="2" alpha="382819.12486702832" sparseCutoff="1.0000000000000000"/>
      <sparseX i="3" alpha="109126.17939233899" sparseCutoff="1.0000000000000000"/>
      <sparseX i="4" alpha="546445.29710002628" sparseCutoff=".99337203394126095"/>
      <sparseX i="5" alpha="240525.71168946591" sparseCutoff="1.0000000000000000"/>
      <sparseX i="6" alpha="-290402.12634800188" sparseCutoff="1.0000000000000000"/>
      <sparseX i="7" alpha="-51302.834530076252" sparseCutoff=".11778414604163090"/>
      <sparseX i="8" alpha="374042.20481049165" sparseCutoff="1.0000000000000000"/>
      <sparseX i="9" alpha="90418.859223141553" sparseCutoff=".35775183636469832"/>
      <sparseX i="10" alpha="350632.26205276954" sparseCutoff="1.0000000000000000"/>
      <sparseX i="11" alpha="-536374.67509980081" sparseCutoff="1.0000000000000000"/>
      <sparseX i="12" alpha="246073.03039927094" sparseCutoff="1.0000000000000000"/>
      <sparseX i="13" alpha="-302857.30030894448" sparseCutoff=".87792545631260921"/>
      <sparseX i="14" alpha="-124099.74768763222" sparseCutoff="1.0000000000000000"/>
      <sparseX i="15" alpha="-205036.27101164724" sparseCutoff="1.0000000000000000"/>
      <sparseX i="16" alpha="-357522.06505435344" sparseCutoff="1.0000000000000000"/>
      <sparseX i="17" alpha="-359553.00084941380" sparseCutoff="1.0000000000000000"/>
      <sparseX i="18" alpha="-229345.73361850565" sparseCutoff=".19136760038340750E-002"/>
      <sparseX i="19" alpha="278058.85450287652" sparseCutoff="1.0000000000000000"/>
      <sparseX i="20" alpha="-217390.52884650297" sparseCutoff="1.0000000000000000"/>
      <sparseX i="21" alpha="108684.71740973598" sparseCutoff="1.0000000000000000"/>
      <sparseX i="22" alpha="189760.01822647674" sparseCutoff="1.0000000000000000"/>
      <sparseX i="23" alpha="-181212.11248920372" sparseCutoff="1.0000000000000000"/>
      <sparseX i="24" alpha="-203062.94113573880" sparseCutoff="1.0000000000000000"/>
      <sparseX i="25" alpha="303782.75430688239" sparseCutoff="1.0000000000000000"/>
      <sparseX i="26" alpha="-178756.45135935725" sparseCutoff="1.0000000000000000"/>
      <sparseX i="27" alpha="289882.78410439967" sparseCutoff="1.0000000000000000"/>
      <sparseX i="28" alpha="-328195.22765751189" sparseCutoff="1.0000000000000000"/>
      <sparseX i="29" alpha="-502276.73641672509" sparseCutoff="1.0000000000000000"/>
      <sparseX i="30" alpha="136720.08634973801" sparseCutoff="1.0000000000000000"/>
      <sparseX i="31" alpha="-289376.83804341010" sparseCutoff="1.0000000000000000"/>
      <sparseX i="32" alpha="-223276.78177613471" sparseCutoff="1.0000000000000000"/>
      <sparseX i="33" alpha="-357328.75765565410" sparseCutoff="1.0000000000000000"/>
      <sparseX i="34" alpha="279103.60079401993" sparseCutoff="1.0000000000000000"/>
      <sparseX i="35" alpha="192277.81393815234" sparseCutoff="1.0000000000000000"/>
      <sparseX i="36" alpha="-174370.70335767465" sparseCutoff="1.0000000000000000"/>
      <sparseX i="37" alpha="341061.41742453520" sparseCutoff="1.0000000000000000"/>
      <sparseX i="38" alpha="-121468.87521279708" sparseCutoff="1.0000000000000000"/>
      <sparseX i="39" alpha="187602.84494030970" sparseCutoff="1.0000000000000000"/>
      <sparseX i="40" alpha="-75800.803074473341" sparseCutoff="1.0000000000000000"/>
    </gpCoordinates>
    <gpCoordinates label="GAP_2022_12_5_120_12_28_45_6442" dimensions="3" signal_variance=".10000000000000000E-001" signal_mean=".00000000000000000E+000" sparsified="T" n_permutations="1" covariance_type="4" n_sparseX="200" sparseX_filename="iron.xml.sparseX.GAP_2022_12_5_120_12_28_45_6442" sparseX_md5sum="2081c9919cb24591cdc96c157d00f078">
      <theta>  0.40000000000000000E+001  0.40000000000000000E+001  0.40000000000000000E+001 </theta>
      <descriptor> angle_3b Z_center=26 Z1=26 Z2=26 cutoff=3.0 n_sparse=200 covariance_type=pp delta=0.01 theta_uniform=4.0 sparse_method=uniform add_species=F</descriptor>
      <permutation i="1">1 2 3  </permutation>
      <sparseX i="1" alpha="-2324.9496541747358" sparseCutoff="1.0000000000000000"/>
      <sparseX i="2" alpha="-4722.6558366792324" sparseCutoff="1.0000000000000000"/>
      <sparseX i="3" alpha="-20472.521075126791" sparseCutoff=".72288776563123047E-004"/>
      <sparseX i="4" alpha="14157.325133721015" sparseCutoff="1.0000000000000000"/>
      <sparseX i="5" alpha="94626.539480358479" sparseCutoff="1.0000000000000000"/>
      <sparseX i="6" alpha="5.3430564937331404" sparseCutoff=".52256945228624377E-008"/>
      <sparseX i="7" alpha="-757.81067921197257" sparseCutoff="1.0000000000000000"/>
      <sparseX i="8" alpha="-8796.4493458532288" sparseCutoff=".72288776563123047E-004"/>
      <sparseX i="9" alpha="121854.26474075954" sparseCutoff=".71709841283963502E-001"/>
      <sparseX i="10" alpha="-50986.077450050689" sparseCutoff=".71709841283963502E-001"/>
      <sparseX i="11" alpha="62794.489315406696" sparseCutoff=".81560234202365911E-001"/>
      <sparseX i="12" alpha="-43235.017749680883" sparseCutoff=".87922554398309138"/>
      <sparseX i="13" alpha="1499.7937230805724" sparseCutoff=".87922554398309138"/>
      <sparseX i="14" alpha="-124879.96037924055" sparseCutoff=".74071379183379402E-001"/>
      <sparseX i="15" alpha="-101943.51494746943" sparseCutoff=".10239265298845029"/>
      <sparseX i="16" alpha="208944.69962381435" sparseCutoff="1.0000000000000000"/>
      <sparseX i="17" alpha="-155504.73752431283" sparseCutoff="1.0000000000000000"/>
      <sparseX i="18" alpha="116817.70968706132" sparseCutoff=".16687178947894510E-002"/>
      <sparseX i="19" alpha="8034.0686317360623" sparseCutoff=".14519884687780416E-003"/>
      <sparseX i="20" alpha="-9059.0875498080386" sparseCutoff="1.0000000000000000"/>
      <sparseX i="21" alpha="-38988.750102595390" sparseCutoff=".28238092210034632"/>
      <sparseX i="22" alpha="4239.5689689524734" sparseCutoff="1.0000000000000000"/>
      <sparseX i="23" alpha="-8484.3101607391309" sparseCutoff=".89913055469731196"/>
      <sparseX i="24" alpha="-35697.636943654201" sparseCutoff="1.0000000000000000"/>
      <sparseX i="25" alpha="-554302.10642662528" sparseCutoff=".34921439135275512E-001"/>
      <sparseX i="26" alpha="45977.543645670230" sparseCutoff=".32040070888575967E-002"/>
      <sparseX i="27" alpha="-165677.95223977577" sparseCutoff=".23180847491262030"/>
      <sparseX i="28" alpha="-85188.478755660442" sparseCutoff=".16856702535171408E-001"/>
      <sparseX i="29" alpha="255913.00911804065" sparseCutoff=".36416623916488611"/>
      <sparseX i="30" alpha="548575.92197311530" sparseCutoff=".43056323828980891E-001"/>
      <sparseX i="31" alpha="-84001.655645113133" sparseCutoff=".17045292893126257"/>
      <sparseX i="32" alpha="21529.269994666647" sparseCutoff=".33974999808330686"/>
      <sparseX i="33" alpha="-22869.510926304549" sparseCutoff=".99007538770113146E-001"/>
      <sparseX i="34" alpha="53222.434691527051" sparseCutoff=".50847466216550341E-002"/>
      <sparseX i="35" alpha="89172.313090740063" sparseCutoff=".66061991777188189E-002"/>
      <sparseX i="36" alpha="18772.080266735262" sparseCutoff="1.0000000000000000"/>
      <sparseX i="37" alpha="-17021.595378011407" sparseCutoff=".90525914538304775"/>
      <sparseX i="38" alpha="8046.3682279223103" sparseCutoff=".75681562714546069"/>
      <sparseX i="39" alpha="-90542.636333278948" sparseCutoff="1.0000000000000000"/>
      <sparseX i="40" alpha="13828.404211775116" sparseCutoff="1.0000000000000000"/>
      <sparseX i="41" alpha="-55412.553087611319" sparseCutoff=".37097886520006595"/>
      <sparseX i="42" alpha="5984.2919942219150" sparseCutoff=".75554742124394081"/>
      <sparseX i="43" alpha="-3290.6613924718963" sparseCutoff="1.0000000000000000"/>
      <sparseX i="44" alpha="2191.9248015969101" sparseCutoff=".12095838989284458E-003"/>
      <sparseX i="45" alpha="8759.8748464253404" sparseCutoff=".10743461244718810E-002"/>
      <sparseX i="46" alpha="5154.4719110582128" sparseCutoff=".41175013407727679"/>
      <sparseX i="47" alpha="153865.87046750452" sparseCutoff=".21815129886160889"/>
      <sparseX i="48" alpha="71086.349410921408" sparseCutoff="1.0000000000000000"/>
      <sparseX i="49" alpha="-190.04445884755503" sparseCutoff="1.0000000000000000"/>
      <sparseX i="50" alpha="-225362.23678855202" sparseCutoff="1.0000000000000000"/>
      <sparseX i="51" alpha="117917.58714864211" sparseCutoff=".94010050052379279E-001"/>
      <sparseX i="52" alpha="16198.958548969280" sparseCutoff=".33475614118756797"/>
      <sparseX i="53" alpha="30049.794527963506" sparseCutoff=".64020273208126185E-001"/>
      <sparseX i="54" alpha="128728.34291518206" sparseCutoff=".10467424448759502"/>
      <sparseX i="55" alpha="413493.73995272844" sparseCutoff=".87835672240807183E-001"/>
      <sparseX i="56" alpha="807.66406076389387" sparseCutoff=".13869945956973551E-003"/>
      <sparseX i="57" alpha="58468.957995286088" sparseCutoff=".38083846768106056E-002"/>
      <sparseX i="58" alpha="72585.787884346268" sparseCutoff=".21668434633169087E-001"/>
      <sparseX i="59" alpha="-91979.849698381600" sparseCutoff="1.0000000000000000"/>
      <sparseX i="60" alpha="3841.4765248183144" sparseCutoff="1.0000000000000000"/>
      <sparseX i="61" alpha="-17.647976157249968" sparseCutoff=".48261059777399140E-005"/>
      <sparseX i="62" alpha="-17253.102059590932" sparseCutoff=".52093361220426726"/>
      <sparseX i="63" alpha="-369405.20432777185" sparseCutoff=".95075802389436581E-002"/>
      <sparseX i="64" alpha="-10494.761910605408" sparseCutoff=".90270817255995217"/>
      <sparseX i="65" alpha="99397.249727373288" sparseCutoff="1.0000000000000000"/>
      <sparseX i="66" alpha="-22283.697650856906" sparseCutoff=".80862444247624832"/>
      <sparseX i="67" alpha="-53155.908787666303" sparseCutoff=".24369418001080695"/>
      <sparseX i="68" alpha="104315.95427904728" sparseCutoff=".17610926271942012E-002"/>
      <sparseX i="69" alpha="-29352.987286776883" sparseCutoff=".36492042138598929"/>
      <sparseX i="70" alpha="138315.14504703219" sparseCutoff="1.0000000000000000"/>
      <sparseX i="71" alpha="-56706.602224578870" sparseCutoff="1.0000000000000000"/>
      <sparseX i="72" alpha="9939.2801156859987" sparseCutoff=".87932060868820827"/>
      <sparseX i="73" alpha="-368039.22283651383" sparseCutoff=".82420527929866205E-002"/>
      <sparseX i="74" alpha="81115.103499693185" sparseCutoff=".74174564843700885E-002"/>
      <sparseX i="75" alpha="304789.14607269812" sparseCutoff=".29612852287058788E-001"/>
      <sparseX i="76" alpha="36418.087515724685" sparseCutoff=".64004554773484368"/>
      <sparseX i="77" alpha="-34806.762829241983" sparseCutoff=".42639561656261299"/>
      <sparseX i="78" alpha="-9555.8650051996883" sparseCutoff="1.0000000000000000"/>
      <sparseX i="79" alpha="-26460.793691197712" sparseCutoff=".93952363752129853"/>
      <sparseX i="80" alpha="-.90882560398481985E-001" sparseCutoff=".41752606705358630E-007"/>
      <sparseX i="81" alpha="4083.9801080074176" sparseCutoff=".74305349046228852"/>
      <sparseX i="82" alpha="-736902.25179051701" sparseCutoff=".84248158585069996E-001"/>
      <sparseX i="83" alpha="47825.642252252008" sparseCutoff=".15798134041269415"/>
      <sparseX i="84" alpha="2819.9608580353129" sparseCutoff=".84832783921038435"/>
      <sparseX i="85" alpha="22008.653288093159" sparseCutoff=".71861963415615593"/>
      <sparseX i="86" alpha="32296.301652850576" sparseCutoff=".43746433987363539E-001"/>
      <sparseX i="87" alpha="2484.7464797139005" sparseCutoff="1.0000000000000000"/>
      <sparseX i="88" alpha="-15198.786678070579" sparseCutoff="1.0000000000000000"/>
      <sparseX i="89" alpha="32399.387716328005" sparseCutoff=".14191008069673605"/>
      <sparseX i="90" alpha="-50556.284830267454" sparseCutoff="1.0000000000000000"/>
      <sparseX i="91" alpha="-22850.915224980668" sparseCutoff="1.0000000000000000"/>
      <sparseX i="92" alpha="-25020.593536250934" sparseCutoff=".23737369639416223"/>
      <sparseX i="93" alpha="45646.666900443313" sparseCutoff=".30305302004225243"/>
      <sparseX i="94" alpha="40537.435980106689" sparseCutoff="1.0000000000000000"/>
      <sparseX i="95" alpha="-28333.526271920196" sparseCutoff=".99835751943236350"/>
      <sparseX i="96" alpha="200126.22957085058" sparseCutoff="1.0000000000000000"/>
      <sparseX i="97" alpha="76035.398910737582" sparseCutoff=".88364499216848635E-002"/>
      <sparseX i="98" alpha="-15743.997189308504" sparseCutoff=".91580938599722383E-003"/>
      <sparseX i="99" alpha="-36912.101452763854" sparseCutoff="1.0000000000000000"/>
      <sparseX i="100" alpha="311582.74377578235" sparseCutoff="1.0000000000000000"/>
      <sparseX i="101" alpha="6279.1794536525113" sparseCutoff=".35604650661484938E-001"/>
      <sparseX i="102" alpha="299260.41562942875" sparseCutoff=".35604650661484938E-001"/>
      <sparseX i="103" alpha="6639.8552435695728" sparseCutoff="1.0000000000000000"/>
      <sparseX i="104" alpha="13760.874766296589" sparseCutoff="1.0000000000000000"/>
      <sparseX i="105" alpha="-99001.893547337197" sparseCutoff="1.0000000000000000"/>
      <sparseX i="106" alpha="68311.631325868933" sparseCutoff="1.0000000000000000"/>
      <sparseX i="107" alpha="203.62204751573225" sparseCutoff=".83474235593461454E-004"/>
      <sparseX i="108" alpha="-6264.5843197995964" sparseCutoff=".91382355590742348"/>
      <sparseX i="109" alpha="-37316.507626678067" sparseCutoff=".25691673602154831E-002"/>
      <sparseX i="110" alpha="-308846.88196453598" sparseCutoff=".92200548215442102E-001"/>
      <sparseX i="111" alpha="133425.75732691755" sparseCutoff="1.0000000000000000"/>
      <sparseX i="112" alpha="118022.92031960229" sparseCutoff=".94524221104794814"/>
      <sparseX i="113" alpha="89436.613644282435" sparseCutoff=".25719197017884110E-001"/>
      <sparseX i="114" alpha="131493.63462136025" sparseCutoff=".34545107931358510E-001"/>
      <sparseX i="115" alpha="-86280.298553779852" sparseCutoff="1.0000000000000000"/>
      <sparseX i="116" alpha="-3680.8627230592119" sparseCutoff=".99062864914667448"/>
      <sparseX i="117" alpha="50032.591830306352" sparseCutoff="1.0000000000000000"/>
      <sparseX i="118" alpha="28114.097584551488" sparseCutoff=".94897263153565636"/>
      <sparseX i="119" alpha="-8283.2049122895405" sparseCutoff=".57603851280466467"/>
      <sparseX i="120" alpha="-99348.918068037805" sparseCutoff="1.0000000000000000"/>
      <sparseX i="121" alpha="637.77920899728076" sparseCutoff="1.0000000000000000"/>
      <sparseX i="122" alpha="-115452.49472807646" sparseCutoff="1.0000000000000000"/>
      <sparseX i="123" alpha="-150750.91900384892" sparseCutoff="1.0000000000000000"/>
      <sparseX i="124" alpha="-95549.416901448014" sparseCutoff="1.0000000000000000"/>
      <sparseX i="125" alpha="157175.91534295274" sparseCutoff="1.0000000000000000"/>
      <sparseX i="126" alpha="-81718.758680425308" sparseCutoff=".98870400800537128"/>
      <sparseX i="127" alpha="69464.386108863342" sparseCutoff=".99802581039641303"/>
      <sparseX i="128" alpha="-32533.977981677075" sparseCutoff=".41896340784948749E-001"/>
      <sparseX i="129" alpha="-50281.062504328154" sparseCutoff="1.0000000000000000"/>
      <sparseX i="130" alpha="-17664.715729263738" sparseCutoff="1.0000000000000000"/>
      <sparseX i="131" alpha="-283154.06977808068" sparseCutoff="1.0000000000000000"/>
      <sparseX i="132" alpha="8303.7417006984051" sparseCutoff=".99948189527157849"/>
      <sparseX i="133" alpha="-65936.421360063949" sparseCutoff="1.0000000000000000"/>
      <sparseX i="134" alpha="228138.33997121282" sparseCutoff="1.0000000000000000"/>
      <sparseX i="135" alpha="40062.906819704840" sparseCutoff="1.0000000000000000"/>
      <sparseX i="136" alpha="186112.66322695932" sparseCutoff="1.0000000000000000"/>
      <sparseX i="137" alpha="229193.35673041840" sparseCutoff="1.0000000000000000"/>
      <sparseX i="138" alpha="73762.351627727287" sparseCutoff="1.0000000000000000"/>
      <sparseX i="139" alpha="-95592.975604433246" sparseCutoff=".12582438800874896E-001"/>
      <sparseX i="140" alpha="-116412.48494999154" sparseCutoff="1.0000000000000000"/>
      <sparseX i="141" alpha="49981.144024574322" sparseCutoff="1.0000000000000000"/>
      <sparseX i="142" alpha="-33491.279164592612" sparseCutoff=".36229666633077373"/>
      <sparseX i="143" alpha="-12597.132029355764" sparseCutoff=".88902570351094345"/>
      <sparseX i="144" alpha="91195.197087972148" sparseCutoff=".33383551775396647E-001"/>
      <sparseX i="145" alpha="23020.942435543297" sparseCutoff=".97837344234996082"/>
      <sparseX i="146" alpha="-57526.114616679501" sparseCutoff="1.0000000000000000"/>
      <sparseX i="147" alpha="-248224.65341802777" sparseCutoff="1.0000000000000000"/>
      <sparseX i="148" alpha="-108259.13715995377" sparseCutoff="1.0000000000000000"/>
      <sparseX i="149" alpha="-360762.69951098104" sparseCutoff="1.0000000000000000"/>
      <sparseX i="150" alpha="4451.3522137951750" sparseCutoff="1.0000000000000000"/>
      <sparseX i="151" alpha="43791.835937722615" sparseCutoff=".91114882058660229"/>
      <sparseX i="152" alpha="5416.3516604387514" sparseCutoff="1.0000000000000000"/>
      <sparseX i="153" alpha="8233.9247079744600" sparseCutoff=".48819396470411641"/>
      <sparseX i="154" alpha="246279.70997252452" sparseCutoff=".60666903924699311E-001"/>
      <sparseX i="155" alpha="-92906.426918063444" sparseCutoff=".91229124805357276E-001"/>
      <sparseX i="156" alpha="44064.810931102045" sparseCutoff="1.0000000000000000"/>
      <sparseX i="157" alpha="574688.93418463063" sparseCutoff=".32464353374737402E-001"/>
      <sparseX i="158" alpha="-31349.373004363115" sparseCutoff="1.0000000000000000"/>
      <sparseX i="159" alpha="-110237.28250042217" sparseCutoff=".84215148636741866"/>
      <sparseX i="160" alpha="-18820.050413173798" sparseCutoff="1.0000000000000000"/>
      <sparseX i="161" alpha="-17117.646781474137" sparseCutoff=".99883595600394592"/>
      <sparseX i="162" alpha="-4069.7019650830039" sparseCutoff=".13020068685956895"/>
      <sparseX i="163" alpha="-50390.646845807401" sparseCutoff="1.0000000000000000"/>
      <sparseX i="164" alpha="-124953.64493954326" sparseCutoff=".24089028677456513E-001"/>
      <sparseX i="165" alpha="8949.9411034179993" sparseCutoff=".99887356881526479"/>
      <sparseX i="166" alpha="234008.79872836723" sparseCutoff="1.0000000000000000"/>
      <sparseX i="167" alpha="-57295.628243804946" sparseCutoff=".73471759821412963E-002"/>
      <sparseX i="168" alpha="60868.582659947329" sparseCutoff=".99941631624402683"/>
      <sparseX i="169" alpha="2195.5006518270293" sparseCutoff=".84673172132027741"/>
      <sparseX i="170" alpha="-14128.510824990939" sparseCutoff=".82693010097995767"/>
      <sparseX i="171" alpha="-48536.606414738504" sparseCutoff=".21302671758430874"/>
      <sparseX i="172" alpha="-48536.706906783089" sparseCutoff=".21302670070327406"/>
      <sparseX i="173" alpha="-61667.909649445872" sparseCutoff=".11934799092539383"/>
      <sparseX i="174" alpha="56177.472918648011" sparseCutoff="1.0000000000000000"/>
      <sparseX i="175" alpha="-98649.854208020915" sparseCutoff="1.0000000000000000"/>
      <sparseX i="176" alpha="122309.38702914838" sparseCutoff="1.0000000000000000"/>
      <sparseX i="177" alpha="-768.43576047857880" sparseCutoff="1.0000000000000000"/>
      <sparseX i="178" alpha="6522.6357984786746" sparseCutoff="1.0000000000000000"/>
      <sparseX i="179" alpha="42349.135400925144" sparseCutoff="1.0000000000000000"/>
      <sparseX i="180" alpha="-40856.954070774089" sparseCutoff="1.0000000000000000"/>
      <sparseX i="181" alpha="95986.450047001286" sparseCutoff="1.0000000000000000"/>
      <sparseX i="182" alpha="53958.393171144773" sparseCutoff="1.0000000000000000"/>
      <sparseX i="183" alpha="385245.48113442643" sparseCutoff="1.0000000000000000"/>
      <sparseX i="184" alpha="-56934.434765977712" sparseCutoff="1.0000000000000000"/>
      <sparseX i="185" alpha="85720.546573126368" sparseCutoff="1.0000000000000000"/>
      <sparseX i="186" alpha="-423.36668073776644" sparseCutoff="1.0000000000000000"/>
      <sparseX i="187" alpha="36705.508857844790" sparseCutoff="1.0000000000000000"/>
      <sparseX i="188" alpha="-121527.08754247554" sparseCutoff="1.0000000000000000"/>
      <sparseX i="189" alpha="6859.3589582434724" sparseCutoff="1.0000000000000000"/>
      <sparseX i="190" alpha="-3977.3069447385446" sparseCutoff="1.0000000000000000"/>
      <sparseX i="191" alpha="-252791.03225457968" sparseCutoff="1.0000000000000000"/>
      <sparseX i="192" alpha="32439.552545595066" sparseCutoff="1.0000000000000000"/>
      <sparseX i="193" alpha="-7152.2345651038549" sparseCutoff="1.0000000000000000"/>
      <sparseX i="194" alpha="1585.5974308278571" sparseCutoff=".99238612032307216"/>
      <sparseX i="195" alpha="-88875.048425128960" sparseCutoff="1.0000000000000000"/>
      <sparseX i="196" alpha="-106025.86293192781" sparseCutoff="1.0000000000000000"/>
      <sparseX i="197" alpha="-33961.736858818964" sparseCutoff="1.0000000000000000"/>
      <sparseX i="198" alpha="-52145.163312809913" sparseCutoff="1.0000000000000000"/>
      <sparseX i="199" alpha="-1234.1639315507714" sparseCutoff="1.0000000000000000"/>
      <sparseX i="200" alpha="10541.015494908170" sparseCutoff="1.0000000000000000"/>
    </gpCoordinates>
    <gpCoordinates label="GAP_2022_12_5_120_12_28_45_6443" dimensions="72" signal_variance=".10000000000000001E+000" signal_mean=".00000000000000000E+000" sparsified="T" n_permutations="1" covariance_type="2" zeta="4.0000000000000000" n_sparseX="5733" sparseX_filename="iron.xml.sparseX.GAP_2022_12_5_120_12_28_45_6443" sparseX_md5sum="658b44cb759aed1b94aaa5493701a082">
      <descriptor> soap_turbo l_max=8 alpha_max={8} atom_sigma_r={0.4} atom_sigma_t={0.4} atom_sigma_r_scaling={0.} atom_sigma_t_scaling={0.} zeta=4 rcut_hard=5.0 rcut_soft=4.5 basis=poly3gauss scaling_mode=polynomial amplitude_scaling={1.0} n_species=1 species_Z=26 central_index=1 radial_enhancement={1} compress_file=compress.dat central_weight={1.0} config_type_n_sparse=BCC:275:FCC:275:HCP:275:SC:50:DIAMOND:75:NP:500:dimer:54:trimer:300:Fe-melt:75:surface_bcc_FM:500:surface_fcc_FMLS:500:surface_hcp_NM:500:thin_slab:500:bcc_FM_elastic_1e-2:200:bcc_FM_elastic_1e-2NORATTLE:200:bcc_FM_elastic_1e-3:200:bcc_FM_elastic_1e-3NORATTLE:200:fcc_AFM_elastic_1e-2:200:fcc_AFM_elastic_1e-2NORATTLE:200:fcc_AFM_elastic_1e-3:200:fcc_AFM_elastic_1e-3NORATTLE:200:hcp_NM_elastic_1e-2:200:hcp_NM_elastic_1e-2NORATTLE:200:hcp_NM_elastic_1e-3:200:hcp_NM_elastic_1e-3NORATTLE:200:transition:25:vacancy_interstitial:25:vacancy_migration:25:nucleation_cluster:25 delta=0.1 f0=0.0 covariance_type=dot_product sparse_method=cur_points 
add_species=F</descriptor>
      <permutation i="1">1  </permutation>
      <sparseX i="1" alpha="-49879.536367929519" sparseCutoff="1.0000000000000000"/>
      <sparseX i="2" alpha="6075.1588792585153" sparseCutoff="1.0000000000000000"/>
      <sparseX i="3" alpha="-9666.4848220477106" sparseCutoff="1.0000000000000000"/>
      <sparseX i="4" alpha="-123214.46319503327" sparseCutoff="1.0000000000000000"/>
      <sparseX i="5" alpha="-33124.702173391401" sparseCutoff="1.0000000000000000"/>
      <sparseX i="6" alpha="20134.706446984641" sparseCutoff="1.0000000000000000"/>
      <sparseX i="7" alpha="14989.278284693408" sparseCutoff="1.0000000000000000"/>
      <sparseX i="8" alpha="14989.081938144889" sparseCutoff="1.0000000000000000"/>
      <sparseX i="9" alpha="4755.3817911130163" sparseCutoff="1.0000000000000000"/>
      <sparseX i="10" alpha="25249.665049277526" sparseCutoff="1.0000000000000000"/>
      <sparseX i="11" alpha="-141563.01676254830" sparseCutoff="1.0000000000000000"/>
      <sparseX i="12" alpha="-61443.430518360234" sparseCutoff="1.0000000000000000"/>
      <sparseX i="13" alpha="-107931.77715308813" sparseCutoff="1.0000000000000000"/>
      <sparseX i="14" alpha="568.28309467311556" sparseCutoff="1.0000000000000000"/>
      <sparseX i="15" alpha="568.27929457411267" sparseCutoff="1.0000000000000000"/>
      <sparseX i="16" alpha="-55698.751316748065" sparseCutoff="1.0000000000000000"/>
      <sparseX i="17" alpha="-55698.810333505309" sparseCutoff="1.0000000000000000"/>
      <sparseX i="18" alpha="-65437.793992058098" sparseCutoff="1.0000000000000000"/>
      <sparseX i="19" alpha="23506.689895533516" sparseCutoff="1.0000000000000000"/>
      <sparseX i="20" alpha="-6411.9181845060793" sparseCutoff="1.0000000000000000"/>
      <sparseX i="21" alpha="-10041.490430481681" sparseCutoff="1.0000000000000000"/>
      <sparseX i="22" alpha="-7082.6278152147925" sparseCutoff="1.0000000000000000"/>
      <sparseX i="23" alpha="10859.929029894069" sparseCutoff="1.0000000000000000"/>
      <sparseX i="24" alpha="29900.645176977981" sparseCutoff="1.0000000000000000"/>
      <sparseX i="25" alpha="-1596.2647667282472" sparseCutoff="1.0000000000000000"/>
      <sparseX i="26" alpha="29900.232515106927" sparseCutoff="1.0000000000000000"/>
      <sparseX i="27" alpha="27896.746947084630" sparseCutoff="1.0000000000000000"/>
      <sparseX i="28" alpha="5369.0020837195761" sparseCutoff="1.0000000000000000"/>
      <sparseX i="29" alpha="-20905.664087960100" sparseCutoff="1.0000000000000000"/>
      <sparseX i="30" alpha="-36258.500715509850" sparseCutoff="1.0000000000000000"/>
      <sparseX i="31" alpha="1444.1481641781406" sparseCutoff="1.0000000000000000"/>
      <sparseX i="32" alpha="-54139.551775816944" sparseCutoff="1.0000000000000000"/>
      <sparseX i="33" alpha="114449.67535339229" sparseCutoff="1.0000000000000000"/>
      <sparseX i="34" alpha="-17696.831655672155" sparseCutoff="1.0000000000000000"/>
      <sparseX i="35" alpha="881.35783319588643" sparseCutoff="1.0000000000000000"/>
      <sparseX i="36" alpha="-84903.926160901290" sparseCutoff="1.0000000000000000"/>
      <sparseX i="37" alpha="-75947.274436629610" sparseCutoff="1.0000000000000000"/>
      <sparseX i="38" alpha="44550.392327623449" sparseCutoff="1.0000000000000000"/>
      <sparseX i="39" alpha="15775.144898290633" sparseCutoff="1.0000000000000000"/>
      <sparseX i="40" alpha="4078.5245381275954" sparseCutoff="1.0000000000000000"/>
      <sparseX i="41" alpha="-30599.502191712301" sparseCutoff="1.0000000000000000"/>
      <sparseX i="42" alpha="24759.907827765277" sparseCutoff="1.0000000000000000"/>
      <sparseX i="43" alpha="-7182.2088134934675" sparseCutoff="1.0000000000000000"/>
      <sparseX i="44" alpha="49826.119265312031" sparseCutoff="1.0000000000000000"/>
      <sparseX i="45" alpha="96677.810374565539" sparseCutoff="1.0000000000000000"/>
      <sparseX i="46" alpha="97226.566114595058" sparseCutoff="1.0000000000000000"/>
      <sparseX i="47" alpha="-83600.194132939432" sparseCutoff="1.0000000000000000"/>
      <sparseX i="48" alpha="-17616.944732572574" sparseCutoff="1.0000000000000000"/>
      <sparseX i="49" alpha="37198.635387491791" sparseCutoff="1.0000000000000000"/>
      <sparseX i="50" alpha="-3840.3457565367412" sparseCutoff="1.0000000000000000"/>
      <sparseX i="51" alpha="4087.3988691854670" sparseCutoff="1.0000000000000000"/>
      <sparseX i="52" alpha="-1465.9633544612648" sparseCutoff="1.0000000000000000"/>
      <sparseX i="53" alpha="5626.2165933297374" sparseCutoff="1.0000000000000000"/>
      <sparseX i="54" alpha="65709.391480590028" sparseCutoff="1.0000000000000000"/>
      <sparseX i="55" alpha="-8843.4143185894609" sparseCutoff="1.0000000000000000"/>
      <sparseX i="56" alpha="8138.4634926356739" sparseCutoff="1.0000000000000000"/>
      <sparseX i="57" alpha="-25987.241093871206" sparseCutoff="1.0000000000000000"/>
      <sparseX i="58" alpha="14394.473130669119" sparseCutoff="1.0000000000000000"/>
      <sparseX i="59" alpha="-27375.635722361869" sparseCutoff="1.0000000000000000"/>
      <sparseX i="60" alpha="-10019.324920608240" sparseCutoff="1.0000000000000000"/>
      <sparseX i="61" alpha="-4798.1182730419814" sparseCutoff="1.0000000000000000"/>
      <sparseX i="62" alpha="-6778.6196926975499" sparseCutoff="1.0000000000000000"/>
      <sparseX i="63" alpha="-33675.062102122822" sparseCutoff="1.0000000000000000"/>
      <sparseX i="64" alpha="61352.993014222360" sparseCutoff="1.0000000000000000"/>
      <sparseX i="65" alpha="-65715.032517046624" sparseCutoff="1.0000000000000000"/>
      <sparseX i="66" alpha="-90356.954432297731" sparseCutoff="1.0000000000000000"/>
      <sparseX i="67" alpha="-15350.871552988248" sparseCutoff="1.0000000000000000"/>
      <sparseX i="68" alpha="-8423.2479710939151" sparseCutoff="1.0000000000000000"/>
      <sparseX i="69" alpha="22671.938028735225" sparseCutoff="1.0000000000000000"/>
      <sparseX i="70" alpha="-8608.5228497738099" sparseCutoff="1.0000000000000000"/>
      <sparseX i="71" alpha="-9544.5739224660119" sparseCutoff="1.0000000000000000"/>
      <sparseX i="72" alpha="49831.137212822869" sparseCutoff="1.0000000000000000"/>
      <sparseX i="73" alpha="73709.440213874375" sparseCutoff="1.0000000000000000"/>
      <sparseX i="74" alpha="15167.388453826148" sparseCutoff="1.0000000000000000"/>
      <sparseX i="75" alpha="33412.178838071624" sparseCutoff="1.0000000000000000"/>
      <sparseX i="76" alpha="96804.835628224566" sparseCutoff="1.0000000000000000"/>
      <sparseX i="77" alpha="-57850.346499073021" sparseCutoff="1.0000000000000000"/>
      <sparseX i="78" alpha="-7228.4318000861831" sparseCutoff="1.0000000000000000"/>
      <sparseX i="79" alpha="-21347.496979042000" sparseCutoff="1.0000000000000000"/>
      <sparseX i="80" alpha="-1585.3402633117289" sparseCutoff="1.0000000000000000"/>
      <sparseX i="81" alpha="-6012.2827083181537" sparseCutoff="1.0000000000000000"/>
      <sparseX i="82" alpha="-94282.884475646351" sparseCutoff="1.0000000000000000"/>
      <sparseX i="83" alpha="17145.957562245334" sparseCutoff="1.0000000000000000"/>
      <sparseX i="84" alpha="19763.436407450685" sparseCutoff="1.0000000000000000"/>
      <sparseX i="85" alpha="-1741.7600949429152" sparseCutoff="1.0000000000000000"/>
      <sparseX i="86" alpha="5529.0675904227401" sparseCutoff="1.0000000000000000"/>
      <sparseX i="87" alpha="2800.1892219790052" sparseCutoff="1.0000000000000000"/>
      <sparseX i="88" alpha="79402.401983714168" sparseCutoff="1.0000000000000000"/>
      <sparseX i="89" alpha="48722.487118479468" sparseCutoff="1.0000000000000000"/>
      <sparseX i="90" alpha="-49749.830920240900" sparseCutoff="1.0000000000000000"/>
      <sparseX i="91" alpha="35305.579976253808" sparseCutoff="1.0000000000000000"/>
      <sparseX i="92" alpha="32664.549544980920" sparseCutoff="1.0000000000000000"/>
      <sparseX i="93" alpha="61395.145261077188" sparseCutoff="1.0000000000000000"/>
      <sparseX i="94" alpha="-1285.4120577891501" sparseCutoff="1.0000000000000000"/>
      <sparseX i="95" alpha="21103.108109272020" sparseCutoff="1.0000000000000000"/>
      <sparseX i="96" alpha="42058.664286545383" sparseCutoff="1.0000000000000000"/>
      <sparseX i="97" alpha="-15456.287589839283" sparseCutoff="1.0000000000000000"/>
      <sparseX i="98" alpha="23017.241773135662" sparseCutoff="1.0000000000000000"/>
      <sparseX i="99" alpha="18630.279285317727" sparseCutoff="1.0000000000000000"/>
      <sparseX i="100" alpha="61219.728003079959" sparseCutoff="1.0000000000000000"/>
      <sparseX i="101" alpha="29199.062572329411" sparseCutoff="1.0000000000000000"/>
      <sparseX i="102" alpha="32170.524061544034" sparseCutoff="1.0000000000000000"/>
      <sparseX i="103" alpha="68336.867768853699" sparseCutoff="1.0000000000000000"/>
      <sparseX i="104" alpha="51098.666608344553" sparseCutoff="1.0000000000000000"/>
      <sparseX i="105" alpha="-39916.409608293579" sparseCutoff="1.0000000000000000"/>
      <sparseX i="106" alpha="56890.343902246517" sparseCutoff="1.0000000000000000"/>
      <sparseX i="107" alpha="9583.9837494483745" sparseCutoff="1.0000000000000000"/>
      <sparseX i="108" alpha="-8278.0985437748168" sparseCutoff="1.0000000000000000"/>
      <sparseX i="109" alpha="-17731.828641493747" sparseCutoff="1.0000000000000000"/>
      <sparseX i="110" alpha="-71456.621431297754" sparseCutoff="1.0000000000000000"/>
      <sparseX i="111" alpha="5099.9196238195054" sparseCutoff="1.0000000000000000"/>
      <sparseX i="112" alpha="9904.1152443480096" sparseCutoff="1.0000000000000000"/>
      <sparseX i="113" alpha="13501.036676649057" sparseCutoff="1.0000000000000000"/>
      <sparseX i="114" alpha="22904.621466584074" sparseCutoff="1.0000000000000000"/>
      <sparseX i="115" alpha="70339.832855270244" sparseCutoff="1.0000000000000000"/>
      <sparseX i="116" alpha="90162.576503310207" sparseCutoff="1.0000000000000000"/>
      <sparseX i="117" alpha="-77346.329420411537" sparseCutoff="1.0000000000000000"/>
      <sparseX i="118" alpha="6258.5412285236216" sparseCutoff="1.0000000000000000"/>
      <sparseX i="119" alpha="33230.062275743156" sparseCutoff="1.0000000000000000"/>
      <sparseX i="120" alpha="17355.454272320530" sparseCutoff="1.0000000000000000"/>
      <sparseX i="121" alpha="36939.318576994534" sparseCutoff="1.0000000000000000"/>
      <sparseX i="122" alpha="23614.479863637287" sparseCutoff="1.0000000000000000"/>
      <sparseX i="123" alpha="-11264.792987582166" sparseCutoff="1.0000000000000000"/>
      <sparseX i="124" alpha="51025.073794740485" sparseCutoff="1.0000000000000000"/>
      <sparseX i="125" alpha="25519.725569885308" sparseCutoff="1.0000000000000000"/>
      <sparseX i="126" alpha="84568.825395852822" sparseCutoff="1.0000000000000000"/>
      <sparseX i="127" alpha="93336.715936287626" sparseCutoff="1.0000000000000000"/>
      <sparseX i="128" alpha="87202.021022269560" sparseCutoff="1.0000000000000000"/>
      <sparseX i="129" alpha="-6173.0218893329220" sparseCutoff="1.0000000000000000"/>
      <sparseX i="130" alpha="-14792.734520196231" sparseCutoff="1.0000000000000000"/>
      <sparseX i="131" alpha="-83383.226271431529" sparseCutoff="1.0000000000000000"/>
      <sparseX i="132" alpha="-17829.884233589481" sparseCutoff="1.0000000000000000"/>
      <sparseX i="133" alpha="-18110.922895292162" sparseCutoff="1.0000000000000000"/>
      <sparseX i="134" alpha="23602.609149981901" sparseCutoff="1.0000000000000000"/>
      <sparseX i="135" alpha="1023.2036071635514" sparseCutoff="1.0000000000000000"/>
      <sparseX i="136" alpha="-35665.461725374436" sparseCutoff="1.0000000000000000"/>
      <sparseX i="137" alpha="3328.0798613275792" sparseCutoff="1.0000000000000000"/>
      <sparseX i="138" alpha="-12213.626924441080" sparseCutoff="1.0000000000000000"/>
      <sparseX i="139" alpha="-1441.5408652682547" sparseCutoff="1.0000000000000000"/>
      <sparseX i="140" alpha="-3902.0368862148089" sparseCutoff="1.0000000000000000"/>
      <sparseX i="141" alpha="-854.18974219634322" sparseCutoff="1.0000000000000000"/>
      <sparseX i="142" alpha="757.70878340723493" sparseCutoff="1.0000000000000000"/>
      <sparseX i="143" alpha="-10127.446255652370" sparseCutoff="1.0000000000000000"/>
      <sparseX i="144" alpha="-695.45748248520817" sparseCutoff="1.0000000000000000"/>
      <sparseX i="145" alpha="1644.7201327715136" sparseCutoff="1.0000000000000000"/>
      <sparseX i="146" alpha="-3814.2636902083809" sparseCutoff="1.0000000000000000"/>
      <sparseX i="147" alpha="-1671.5318638907345" sparseCutoff="1.0000000000000000"/>
      <sparseX i="148" alpha="-854.98577334592551" sparseCutoff="1.0000000000000000"/>
      <sparseX i="149" alpha="-1491.3527032348597" sparseCutoff="1.0000000000000000"/>
      <sparseX i="150" alpha="-1629.9001318807918" sparseCutoff="1.0000000000000000"/>
      <sparseX i="151" alpha="-2694.5674963446968" sparseCutoff="1.0000000000000000"/>
      <sparseX i="152" alpha="-411.00127826504399" sparseCutoff="1.0000000000000000"/>
      <sparseX i="153" alpha="2276.4074140611929" sparseCutoff="1.0000000000000000"/>
      <sparseX i="154" alpha="-3907.3017767491206" sparseCutoff="1.0000000000000000"/>
      <sparseX i="155" alpha="-840.81125377777312" sparseCutoff="1.0000000000000000"/>
      <sparseX i="156" alpha="-8251.9553647583271" sparseCutoff="1.0000000000000000"/>
      <sparseX i="157" alpha="-7564.8110619864356" sparseCutoff="1.0000000000000000"/>
      <sparseX i="158" alpha="-1489.4771225388367" sparseCutoff="1.0000000000000000"/>
      <sparseX i="159" alpha="-565.31571533100237" sparseCutoff="1.0000000000000000"/>
      <sparseX i="160" alpha="-4336.5381576124528" sparseCutoff="1.0000000000000000"/>
      <sparseX i="161" alpha="-36416.743012970554" sparseCutoff="1.0000000000000000"/>
      <sparseX i="162" alpha="2591.8354594040161" sparseCutoff="1.0000000000000000"/>
      <sparseX i="163" alpha="-1166.0055218155255" sparseCutoff="1.0000000000000000"/>
      <sparseX i="164" alpha="-1017.0828089287481" sparseCutoff="1.0000000000000000"/>
      <sparseX i="165" alpha="-7679.1765069102230" sparseCutoff="1.0000000000000000"/>
      <sparseX i="166" alpha="-733.57593110909534" sparseCutoff="1.0000000000000000"/>
      <sparseX i="167" alpha="-2642.0837656624585" sparseCutoff="1.0000000000000000"/>
      <sparseX i="168" alpha="-5621.4394712822277" sparseCutoff="1.0000000000000000"/>
      <sparseX i="169" alpha="-3187.8703722149335" sparseCutoff="1.0000000000000000"/>
      <sparseX i="170" alpha="-3702.9050631959744" sparseCutoff="1.0000000000000000"/>
      <sparseX i="171" alpha="-2384.1881495637508" sparseCutoff="1.0000000000000000"/>
      <sparseX i="172" alpha="-2620.4439387315383" sparseCutoff="1.0000000000000000"/>
      <sparseX i="173" alpha="-1135.2537552907406" sparseCutoff="1.0000000000000000"/>
      <sparseX i="174" alpha="-687.15195037489661" sparseCutoff="1.0000000000000000"/>
      <sparseX i="175" alpha="-578.82624094877133" sparseCutoff="1.0000000000000000"/>
      <sparseX i="176" alpha="-616.15310705863396" sparseCutoff="1.0000000000000000"/>
      <sparseX i="177" alpha="4284.5875730788448" sparseCutoff="1.0000000000000000"/>
      <sparseX i="178" alpha="-4365.5508155465532" sparseCutoff="1.0000000000000000"/>
      <sparseX i="179" alpha="-1010.1095550330739" sparseCutoff="1.0000000000000000"/>
      <sparseX i="180" alpha="-1764.5711899160608" sparseCutoff="1.0000000000000000"/>
      <sparseX i="181" alpha="348.91729025859343" sparseCutoff="1.0000000000000000"/>
      <sparseX i="182" alpha="-9480.6676974840284" sparseCutoff="1.0000000000000000"/>
      <sparseX i="183" alpha="-783.28168388572931" sparseCutoff="1.0000000000000000"/>
      <sparseX i="184" alpha="-685.08167148541020" sparseCutoff="1.0000000000000000"/>
      <sparseX i="185" alpha="-698.89494966169582" sparseCutoff="1.0000000000000000"/>
      <sparseX i="186" alpha="-432.41378807810406" sparseCutoff="1.0000000000000000"/>
      <sparseX i="187" alpha="-8139.2670512944369" sparseCutoff="1.0000000000000000"/>
      <sparseX i="188" alpha="-731.54669478923677" sparseCutoff="1.0000000000000000"/>
      <sparseX i="189" alpha="-157.18305301105011" sparseCutoff="1.0000000000000000"/>
      <sparseX i="190" alpha="-14262.043412726252" sparseCutoff="1.0000000000000000"/>
      <sparseX i="191" alpha="-1701.0869234011659" sparseCutoff="1.0000000000000000"/>
      <sparseX i="192" alpha="-5777.3428636780955" sparseCutoff="1.0000000000000000"/>
      <sparseX i="193" alpha="-3562.3612163173711" sparseCutoff="1.0000000000000000"/>
      <sparseX i="194" alpha="-29856.118755361655" sparseCutoff="1.0000000000000000"/>
      <sparseX i="195" alpha="-1322.7202665138755" sparseCutoff="1.0000000000000000"/>
      <sparseX i="196" alpha="-24.558265869107103" sparseCutoff="1.0000000000000000"/>
      <sparseX i="197" alpha="-11138.769079623740" sparseCutoff="1.0000000000000000"/>
      <sparseX i="198" alpha="-1248.4448241500311" sparseCutoff="1.0000000000000000"/>
      <sparseX i="199" alpha="-4995.7917086435864" sparseCutoff="1.0000000000000000"/>
      <sparseX i="200" alpha="-723.41009678704427" sparseCutoff="1.0000000000000000"/>
      <sparseX i="201" alpha="-625.76559865379863" sparseCutoff="1.0000000000000000"/>
      <sparseX i="202" alpha="-2081.2762982533859" sparseCutoff="1.0000000000000000"/>
      <sparseX i="203" alpha="-2149.1459887349706" sparseCutoff="1.0000000000000000"/>
      <sparseX i="204" alpha="-26556.075008604887" sparseCutoff="1.0000000000000000"/>
      <sparseX i="205" alpha="-695.01758060558348" sparseCutoff="1.0000000000000000"/>
      <sparseX i="206" alpha="-5534.3117359847638" sparseCutoff="1.0000000000000000"/>
      <sparseX i="207" alpha="102.11608531679349" sparseCutoff="1.0000000000000000"/>
      <sparseX i="208" alpha="707.13605906336613" sparseCutoff="1.0000000000000000"/>
      <sparseX i="209" alpha="-11654.913984182591" sparseCutoff="1.0000000000000000"/>
      <sparseX i="210" alpha="-778.05283175376542" sparseCutoff="1.0000000000000000"/>
      <sparseX i="211" alpha="-1470.1380767657795" sparseCutoff="1.0000000000000000"/>
      <sparseX i="212" alpha="5741.5218392293700" sparseCutoff="1.0000000000000000"/>
      <sparseX i="213" alpha="-676.52513942931284" sparseCutoff="1.0000000000000000"/>
      <sparseX i="214" alpha="-15343.511337358428" sparseCutoff="1.0000000000000000"/>
      <sparseX i="215" alpha="-677.14595645150257" sparseCutoff="1.0000000000000000"/>
      <sparseX i="216" alpha="-1235.3256165860785" sparseCutoff="1.0000000000000000"/>
      <sparseX i="217" alpha="-329.41286205953520" sparseCutoff="1.0000000000000000"/>
      <sparseX i="218" alpha="-826.91220978390152" sparseCutoff="1.0000000000000000"/>
      <sparseX i="219" alpha="-2843.8172577522191" sparseCutoff="1.0000000000000000"/>
      <sparseX i="220" alpha="-12126.647333473458" sparseCutoff="1.0000000000000000"/>
      <sparseX i="221" alpha="-2579.0520741953187" sparseCutoff="1.0000000000000000"/>
      <sparseX i="222" alpha="-1642.7695512000651" sparseCutoff="1.0000000000000000"/>
      <sparseX i="223" alpha="-600.66006120565328" sparseCutoff="1.0000000000000000"/>
      <sparseX i="224" alpha="-15418.339028622879" sparseCutoff="1.0000000000000000"/>
      <sparseX i="225" alpha="-1540.9182428964536" sparseCutoff="1.0000000000000000"/>
      <sparseX i="226" alpha="-10556.298973035451" sparseCutoff="1.0000000000000000"/>
      <sparseX i="227" alpha="-1252.7440837223044" sparseCutoff="1.0000000000000000"/>
      <sparseX i="228" alpha="-2286.3640030574984" sparseCutoff="1.0000000000000000"/>
      <sparseX i="229" alpha="-13436.280185095946" sparseCutoff="1.0000000000000000"/>
      <sparseX i="230" alpha="-1295.2355869623600" sparseCutoff="1.0000000000000000"/>
      <sparseX i="231" alpha="-676.69093610884636" sparseCutoff="1.0000000000000000"/>
      <sparseX i="232" alpha="-906.83262452430677" sparseCutoff="1.0000000000000000"/>
      <sparseX i="233" alpha="-825.66012486721399" sparseCutoff="1.0000000000000000"/>
      <sparseX i="234" alpha="-1005.5393349039490" sparseCutoff="1.0000000000000000"/>
      <sparseX i="235" alpha="-11173.728713687287" sparseCutoff="1.0000000000000000"/>
      <sparseX i="236" alpha="-718.13966283510570" sparseCutoff="1.0000000000000000"/>
      <sparseX i="237" alpha="-1590.1015671321920" sparseCutoff="1.0000000000000000"/>
      <sparseX i="238" alpha="-460.55430632389425" sparseCutoff="1.0000000000000000"/>
      <sparseX i="239" alpha="-998.92482292748878" sparseCutoff="1.0000000000000000"/>
      <sparseX i="240" alpha="-1649.4585341398811" sparseCutoff="1.0000000000000000"/>
      <sparseX i="241" alpha="-8260.7819974972717" sparseCutoff="1.0000000000000000"/>
      <sparseX i="242" alpha="-966.16498645043146" sparseCutoff="1.0000000000000000"/>
      <sparseX i="243" alpha="-1062.6736438107021" sparseCutoff="1.0000000000000000"/>
      <sparseX i="244" alpha="-1819.3268898393562" sparseCutoff="1.0000000000000000"/>
      <sparseX i="245" alpha="-1341.0760282114602" sparseCutoff="1.0000000000000000"/>
      <sparseX i="246" alpha="-1126.8325397806595" sparseCutoff="1.0000000000000000"/>
      <sparseX i="247" alpha="-2759.1824574464736" sparseCutoff="1.0000000000000000"/>
      <sparseX i="248" alpha="-678.19174061785520" sparseCutoff="1.0000000000000000"/>
      <sparseX i="249" alpha="-961.18919249740759" sparseCutoff="1.0000000000000000"/>
      <sparseX i="250" alpha="1702.2263340405293" sparseCutoff="1.0000000000000000"/>
      <sparseX i="251" alpha="-4475.6380310899467" sparseCutoff="1.0000000000000000"/>
      <sparseX i="252" alpha="-679.86440285878427" sparseCutoff="1.0000000000000000"/>
      <sparseX i="253" alpha="-3789.0846621200931" sparseCutoff="1.0000000000000000"/>
      <sparseX i="254" alpha="-1114.2675993515534" sparseCutoff="1.0000000000000000"/>
      <sparseX i="255" alpha="-568.78645149736212" sparseCutoff="1.0000000000000000"/>
      <sparseX i="256" alpha="-3677.4133066199502" sparseCutoff="1.0000000000000000"/>
      <sparseX i="257" alpha="-687.08551083745817" sparseCutoff="1.0000000000000000"/>
      <sparseX i="258" alpha="-7572.1954401129969" sparseCutoff="1.0000000000000000"/>
      <sparseX i="259" alpha="-1867.0261646148629" sparseCutoff="1.0000000000000000"/>
      <sparseX i="260" alpha="-686.26980107667816" sparseCutoff="1.0000000000000000"/>
      <sparseX i="261" alpha="-750.56013302004146" sparseCutoff="1.0000000000000000"/>
      <sparseX i="262" alpha="-2249.7803831890087" sparseCutoff="1.0000000000000000"/>
      <sparseX i="263" alpha="-4075.1728781122961" sparseCutoff="1.0000000000000000"/>
      <sparseX i="264" alpha="-884.00159110481638" sparseCutoff="1.0000000000000000"/>
      <sparseX i="265" alpha="-3385.9594928145934" sparseCutoff="1.0000000000000000"/>
      <sparseX i="266" alpha="-15283.788817489525" sparseCutoff="1.0000000000000000"/>
      <sparseX i="267" alpha="-851.90533943719822" sparseCutoff="1.0000000000000000"/>
      <sparseX i="268" alpha="-3193.8946064598299" sparseCutoff="1.0000000000000000"/>
      <sparseX i="269" alpha="-639.68526681908440" sparseCutoff="1.0000000000000000"/>
      <sparseX i="270" alpha="-123.93931516045069" sparseCutoff="1.0000000000000000"/>
      <sparseX i="271" alpha="-3726.6494538652350" sparseCutoff="1.0000000000000000"/>
      <sparseX i="272" alpha="-730.75305206822009" sparseCutoff="1.0000000000000000"/>
      <sparseX i="273" alpha="-673.69907892662309" sparseCutoff="1.0000000000000000"/>
      <sparseX i="274" alpha="-2324.1185074527034" sparseCutoff="1.0000000000000000"/>
      <sparseX i="275" alpha="-1404.7793606670775" sparseCutoff="1.0000000000000000"/>
      <sparseX i="276" alpha="-1801.2996959912809" sparseCutoff="1.0000000000000000"/>
      <sparseX i="277" alpha="-13598.383335831917" sparseCutoff="1.0000000000000000"/>
      <sparseX i="278" alpha="-11342.922069642540" sparseCutoff="1.0000000000000000"/>
      <sparseX i="279" alpha="-1051.1603756645311" sparseCutoff="1.0000000000000000"/>
      <sparseX i="280" alpha="-508.47708968095480" sparseCutoff="1.0000000000000000"/>
      <sparseX i="281" alpha="-1507.3397002358176" sparseCutoff="1.0000000000000000"/>
      <sparseX i="282" alpha="-5659.0461712706719" sparseCutoff="1.0000000000000000"/>
      <sparseX i="283" alpha="-817.21534782401034" sparseCutoff="1.0000000000000000"/>
      <sparseX i="284" alpha="-17671.002257918455" sparseCutoff="1.0000000000000000"/>
      <sparseX i="285" alpha="289.22037610032771" sparseCutoff="1.0000000000000000"/>
      <sparseX i="286" alpha="-3386.3937483273289" sparseCutoff="1.0000000000000000"/>
      <sparseX i="287" alpha="-6231.5407470616192" sparseCutoff="1.0000000000000000"/>
      <sparseX i="288" alpha="-3543.8902821867237" sparseCutoff="1.0000000000000000"/>
      <sparseX i="289" alpha="-27339.342661666105" sparseCutoff="1.0000000000000000"/>
      <sparseX i="290" alpha="-804.13143304661821" sparseCutoff="1.0000000000000000"/>
      <sparseX i="291" alpha="-985.72149482069153" sparseCutoff="1.0000000000000000"/>
      <sparseX i="292" alpha="-674.90488120296436" sparseCutoff="1.0000000000000000"/>
      <sparseX i="293" alpha="-8716.5334594313572" sparseCutoff="1.0000000000000000"/>
      <sparseX i="294" alpha="195.85977295295328" sparseCutoff="1.0000000000000000"/>
      <sparseX i="295" alpha="-616.62055925910943" sparseCutoff="1.0000000000000000"/>
      <sparseX i="296" alpha="-13.225443211871630" sparseCutoff="1.0000000000000000"/>
      <sparseX i="297" alpha="66.129283611739751" sparseCutoff="1.0000000000000000"/>
      <sparseX i="298" alpha="-678.53848910056979" sparseCutoff="1.0000000000000000"/>
      <sparseX i="299" alpha="-2159.4173057333601" sparseCutoff="1.0000000000000000"/>
      <sparseX i="300" alpha="-814.14445073896786" sparseCutoff="1.0000000000000000"/>
      <sparseX i="301" alpha="277.55862468034195" sparseCutoff="1.0000000000000000"/>
      <sparseX i="302" alpha="-3777.2670190048393" sparseCutoff="1.0000000000000000"/>
      <sparseX i="303" alpha="-2331.7764580984194" sparseCutoff="1.0000000000000000"/>
      <sparseX i="304" alpha="-41409.502854369872" sparseCutoff="1.0000000000000000"/>
      <sparseX i="305" alpha="-1077.3509933185915" sparseCutoff="1.0000000000000000"/>
      <sparseX i="306" alpha="-11168.853897671914" sparseCutoff="1.0000000000000000"/>
      <sparseX i="307" alpha="-1709.9660664895093" sparseCutoff="1.0000000000000000"/>
      <sparseX i="308" alpha="-1738.5813415488849" sparseCutoff="1.0000000000000000"/>
      <sparseX i="309" alpha="-671.38527490344802" sparseCutoff="1.0000000000000000"/>
      <sparseX i="310" alpha="-676.13639109182884" sparseCutoff="1.0000000000000000"/>
      <sparseX i="311" alpha="-1693.0270970406275" sparseCutoff="1.0000000000000000"/>
      <sparseX i="312" alpha="-905.45629724003720" sparseCutoff="1.0000000000000000"/>
      <sparseX i="313" alpha="-1631.6185150137126" sparseCutoff="1.0000000000000000"/>
      <sparseX i="314" alpha="-1134.2246626393342" sparseCutoff="1.0000000000000000"/>
      <sparseX i="315" alpha="-21382.685900328252" sparseCutoff="1.0000000000000000"/>
      <sparseX i="316" alpha="8583.2439685887803" sparseCutoff="1.0000000000000000"/>
      <sparseX i="317" alpha="-3929.2499041541519" sparseCutoff="1.0000000000000000"/>
      <sparseX i="318" alpha="-5429.3938904624556" sparseCutoff="1.0000000000000000"/>
      <sparseX i="319" alpha="-456.95547975776310" sparseCutoff="1.0000000000000000"/>
      <sparseX i="320" alpha="-1555.0349720257686" sparseCutoff="1.0000000000000000"/>
      <sparseX i="321" alpha="-11924.180160162090" sparseCutoff="1.0000000000000000"/>
      <sparseX i="322" alpha="-10932.389486122258" sparseCutoff="1.0000000000000000"/>
      <sparseX i="323" alpha="3085.1808022122277" sparseCutoff="1.0000000000000000"/>
      <sparseX i="324" alpha="-3809.6310701507937" sparseCutoff="1.0000000000000000"/>
      <sparseX i="325" alpha="-768.98589205352494" sparseCutoff="1.0000000000000000"/>
      <sparseX i="326" alpha="-1067.5381771838854" sparseCutoff="1.0000000000000000"/>
      <sparseX i="327" alpha="-3536.7190164576805" sparseCutoff="1.0000000000000000"/>
      <sparseX i="328" alpha="-3119.3111735896719" sparseCutoff="1.0000000000000000"/>
      <sparseX i="329" alpha="-8681.8545157773024" sparseCutoff="1.0000000000000000"/>
      <sparseX i="330" alpha="-693.12653073422041" sparseCutoff="1.0000000000000000"/>
      <sparseX i="331" alpha="-11410.374895848128" sparseCutoff="1.0000000000000000"/>
      <sparseX i="332" alpha="-597.84541013125408" sparseCutoff="1.0000000000000000"/>
      <sparseX i="333" alpha="-3382.7789615081638" sparseCutoff="1.0000000000000000"/>
      <sparseX i="334" alpha="2675.5364738031967" sparseCutoff="1.0000000000000000"/>
      <sparseX i="335" alpha="-2834.2399171918919" sparseCutoff="1.0000000000000000"/>
      <sparseX i="336" alpha="-7448.4053772402603" sparseCutoff="1.0000000000000000"/>
      <sparseX i="337" alpha="-1997.7135626375955" sparseCutoff="1.0000000000000000"/>
      <sparseX i="338" alpha="-21342.291551768940" sparseCutoff="1.0000000000000000"/>
      <sparseX i="339" alpha="-4864.4809782209977" sparseCutoff="1.0000000000000000"/>
      <sparseX i="340" alpha="2460.9839571040252" sparseCutoff="1.0000000000000000"/>
      <sparseX i="341" alpha="-3939.4552120123035" sparseCutoff="1.0000000000000000"/>
      <sparseX i="342" alpha="-703.88137096981995" sparseCutoff="1.0000000000000000"/>
      <sparseX i="343" alpha="-674.90940033662741" sparseCutoff="1.0000000000000000"/>
      <sparseX i="344" alpha="-5817.3231693768585" sparseCutoff="1.0000000000000000"/>
      <sparseX i="345" alpha="-2226.1074337918149" sparseCutoff="1.0000000000000000"/>
      <sparseX i="346" alpha="-64027.457579747141" sparseCutoff="1.0000000000000000"/>
      <sparseX i="347" alpha="-9935.9190579350179" sparseCutoff="1.0000000000000000"/>
      <sparseX i="348" alpha="-2928.9958770424137" sparseCutoff="1.0000000000000000"/>
      <sparseX i="349" alpha="-140.72502604804438" sparseCutoff="1.0000000000000000"/>
      <sparseX i="350" alpha="-705.97173868778987" sparseCutoff="1.0000000000000000"/>
      <sparseX i="351" alpha="1785.0282762037227" sparseCutoff="1.0000000000000000"/>
      <sparseX i="352" alpha="-3658.6567743477099" sparseCutoff="1.0000000000000000"/>
      <sparseX i="353" alpha="-695.94594482924049" sparseCutoff="1.0000000000000000"/>
      <sparseX i="354" alpha="-2095.6869312171061" sparseCutoff="1.0000000000000000"/>
      <sparseX i="355" alpha="-9067.1890607157420" sparseCutoff="1.0000000000000000"/>
      <sparseX i="356" alpha="-10917.717790143970" sparseCutoff="1.0000000000000000"/>
      <sparseX i="357" alpha="-441.06762441212243" sparseCutoff="1.0000000000000000"/>
      <sparseX i="358" alpha="-4722.6140771491473" sparseCutoff="1.0000000000000000"/>
      <sparseX i="359" alpha="3661.7699438426453" sparseCutoff="1.0000000000000000"/>
      <sparseX i="360" alpha="-2678.2214734392965" sparseCutoff="1.0000000000000000"/>
      <sparseX i="361" alpha="789.53140256506549" sparseCutoff="1.0000000000000000"/>
      <sparseX i="362" alpha="-4974.7270706397239" sparseCutoff="1.0000000000000000"/>
      <sparseX i="363" alpha="-8891.1480753233445" sparseCutoff="1.0000000000000000"/>
      <sparseX i="364" alpha="-43242.825047088940" sparseCutoff="1.0000000000000000"/>
      <sparseX i="365" alpha="-1538.8334179610827" sparseCutoff="1.0000000000000000"/>
      <sparseX i="366" alpha="4045.9498870255702" sparseCutoff="1.0000000000000000"/>
      <sparseX i="367" alpha="-258.53102479049466" sparseCutoff="1.0000000000000000"/>
      <sparseX i="368" alpha="-2073.5008165618019" sparseCutoff="1.0000000000000000"/>
      <sparseX i="369" alpha="2980.8568436158585" sparseCutoff="1.0000000000000000"/>
      <sparseX i="370" alpha="-679.10078732237287" sparseCutoff="1.0000000000000000"/>
      <sparseX i="371" alpha="-5880.7727011691304" sparseCutoff="1.0000000000000000"/>
      <sparseX i="372" alpha="-4954.9774718845929" sparseCutoff="1.0000000000000000"/>
      <sparseX i="373" alpha="-661.77790241102332" sparseCutoff="1.0000000000000000"/>
      <sparseX i="374" alpha="5107.0128432173751" sparseCutoff="1.0000000000000000"/>
      <sparseX i="375" alpha="-4345.4484714433729" sparseCutoff="1.0000000000000000"/>
      <sparseX i="376" alpha="-1299.7968124221618" sparseCutoff="1.0000000000000000"/>
      <sparseX i="377" alpha="-675.07710351551941" sparseCutoff="1.0000000000000000"/>
      <sparseX i="378" alpha="-673.82685832597326" sparseCutoff="1.0000000000000000"/>
      <sparseX i="379" alpha="415.60711755552700" sparseCutoff="1.0000000000000000"/>
      <sparseX i="380" alpha="-1411.8525005298400" sparseCutoff="1.0000000000000000"/>
      <sparseX i="381" alpha="-2569.8105364863300" sparseCutoff="1.0000000000000000"/>
      <sparseX i="382" alpha="-686.42031667579454" sparseCutoff="1.0000000000000000"/>
      <sparseX i="383" alpha="-1053.0610817263880" sparseCutoff="1.0000000000000000"/>
      <sparseX i="384" alpha="-1117.1111997418243" sparseCutoff="1.0000000000000000"/>
      <sparseX i="385" alpha="-2278.4674650169400" sparseCutoff="1.0000000000000000"/>
      <sparseX i="386" alpha="-17728.641906883739" sparseCutoff="1.0000000000000000"/>
      <sparseX i="387" alpha="-770.54795364226118" sparseCutoff="1.0000000000000000"/>
      <sparseX i="388" alpha="-1233.2354297022150" sparseCutoff="1.0000000000000000"/>
      <sparseX i="389" alpha="-2997.7506343383166" sparseCutoff="1.0000000000000000"/>
      <sparseX i="390" alpha="-1090.6705277308104" sparseCutoff="1.0000000000000000"/>
      <sparseX i="391" alpha="-1239.2057655311710" sparseCutoff="1.0000000000000000"/>
      <sparseX i="392" alpha="-1333.8973239831971" sparseCutoff="1.0000000000000000"/>
      <sparseX i="393" alpha="-1321.8618285174482" sparseCutoff="1.0000000000000000"/>
      <sparseX i="394" alpha="-2104.1908363414627" sparseCutoff="1.0000000000000000"/>
      <sparseX i="395" alpha="-733.71210234347097" sparseCutoff="1.0000000000000000"/>
      <sparseX i="396" alpha="-674.04521804544572" sparseCutoff="1.0000000000000000"/>
      <sparseX i="397" alpha="579.27230314289091" sparseCutoff="1.0000000000000000"/>
      <sparseX i="398" alpha="-1002.3141149983800" sparseCutoff="1.0000000000000000"/>
      <sparseX i="399" alpha="-12275.599643669537" sparseCutoff="1.0000000000000000"/>
      <sparseX i="400" alpha="491.88577912632002" sparseCutoff="1.0000000000000000"/>
      <sparseX i="401" alpha="-4203.9128251775974" sparseCutoff="1.0000000000000000"/>
      <sparseX i="402" alpha="-820.04510696940349" sparseCutoff="1.0000000000000000"/>
      <sparseX i="403" alpha="-5221.4516472341838" sparseCutoff="1.0000000000000000"/>
      <sparseX i="404" alpha="-2688.9382846191284" sparseCutoff="1.0000000000000000"/>
      <sparseX i="405" alpha="-8458.7251748241415" sparseCutoff="1.0000000000000000"/>
      <sparseX i="406" alpha="7166.8312822874004" sparseCutoff="1.0000000000000000"/>
      <sparseX i="407" alpha="-1401.4364880213864" sparseCutoff="1.0000000000000000"/>
      <sparseX i="408" alpha="-492.46266262938371" sparseCutoff="1.0000000000000000"/>
      <sparseX i="409" alpha="-1460.0706153595991" sparseCutoff="1.0000000000000000"/>
      <sparseX i="410" alpha="-710.43680781903458" sparseCutoff="1.0000000000000000"/>
      <sparseX i="411" alpha="-683.60280890945535" sparseCutoff="1.0000000000000000"/>
      <sparseX i="412" alpha="1589.9294369825177" sparseCutoff="1.0000000000000000"/>
      <sparseX i="413" alpha="-12534.434883113572" sparseCutoff="1.0000000000000000"/>
      <sparseX i="414" alpha="-2978.6553954315086" sparseCutoff="1.0000000000000000"/>
      <sparseX i="415" alpha="-424.56118636475492" sparseCutoff="1.0000000000000000"/>
      <sparseX i="416" alpha="-3019.0488813865741" sparseCutoff="1.0000000000000000"/>
      <sparseX i="417" alpha="-951.20247606931105" sparseCutoff="1.0000000000000000"/>
      <sparseX i="418" alpha="-1475.3015791795713" sparseCutoff="1.0000000000000000"/>
      <sparseX i="419" alpha="-16241.522859961045" sparseCutoff="1.0000000000000000"/>
      <sparseX i="420" alpha="-1384.2253994375769" sparseCutoff="1.0000000000000000"/>
      <sparseX i="421" alpha="2923.8501568807278" sparseCutoff="1.0000000000000000"/>
      <sparseX i="422" alpha="-2140.7246216883209" sparseCutoff="1.0000000000000000"/>
      <sparseX i="423" alpha="-2914.1221040448854" sparseCutoff="1.0000000000000000"/>
      <sparseX i="424" alpha="-1443.9062335679344" sparseCutoff="1.0000000000000000"/>
      <sparseX i="425" alpha="-12691.302551432589" sparseCutoff="1.0000000000000000"/>
      <sparseX i="426" alpha="-1136.8212504039595" sparseCutoff="1.0000000000000000"/>
      <sparseX i="427" alpha="-910.67194792467228" sparseCutoff="1.0000000000000000"/>
      <sparseX i="428" alpha="-1261.2921348071138" sparseCutoff="1.0000000000000000"/>
      <sparseX i="429" alpha="-5091.8995978580833" sparseCutoff="1.0000000000000000"/>
      <sparseX i="430" alpha="-1060.7902606149853" sparseCutoff="1.0000000000000000"/>
      <sparseX i="431" alpha="-1204.1089056402864" sparseCutoff="1.0000000000000000"/>
      <sparseX i="432" alpha="-25484.557141271056" sparseCutoff="1.0000000000000000"/>
      <sparseX i="433" alpha="-815.74579642703691" sparseCutoff="1.0000000000000000"/>
      <sparseX i="434" alpha="-1035.9777539029419" sparseCutoff="1.0000000000000000"/>
      <sparseX i="435" alpha="-3574.9109203411549" sparseCutoff="1.0000000000000000"/>
      <sparseX i="436" alpha="-3100.7049215259908" sparseCutoff="1.0000000000000000"/>
      <sparseX i="437" alpha="-5945.9223540383091" sparseCutoff="1.0000000000000000"/>
      <sparseX i="438" alpha="-1145.2137397321271" sparseCutoff="1.0000000000000000"/>
      <sparseX i="439" alpha="-716.51495661723141" sparseCutoff="1.0000000000000000"/>
      <sparseX i="440" alpha="4255.6016945801402" sparseCutoff="1.0000000000000000"/>
      <sparseX i="441" alpha="-361.76957262792683" sparseCutoff="1.0000000000000000"/>
      <sparseX i="442" alpha="300.43198034102448" sparseCutoff="1.0000000000000000"/>
      <sparseX i="443" alpha="-8735.4835409087118" sparseCutoff="1.0000000000000000"/>
      <sparseX i="444" alpha="-4143.6016095910827" sparseCutoff="1.0000000000000000"/>
      <sparseX i="445" alpha="-5791.7227094347718" sparseCutoff="1.0000000000000000"/>
      <sparseX i="446" alpha="-4440.8101021312277" sparseCutoff="1.0000000000000000"/>
      <sparseX i="447" alpha="-859.92644627176583" sparseCutoff="1.0000000000000000"/>
      <sparseX i="448" alpha="-3447.1169918789865" sparseCutoff="1.0000000000000000"/>
      <sparseX i="449" alpha="-3411.8797434480048" sparseCutoff="1.0000000000000000"/>
      <sparseX i="450" alpha="778.70401707464634" sparseCutoff="1.0000000000000000"/>
      <sparseX i="451" alpha="-431.13823808607515" sparseCutoff="1.0000000000000000"/>
      <sparseX i="452" alpha="-20998.629066168363" sparseCutoff="1.0000000000000000"/>
      <sparseX i="453" alpha="-966.98646974129701" sparseCutoff="1.0000000000000000"/>
      <sparseX i="454" alpha="-4654.2154381609716" sparseCutoff="1.0000000000000000"/>
      <sparseX i="455" alpha="-15229.397756005226" sparseCutoff="1.0000000000000000"/>
      <sparseX i="456" alpha="-169.18350018373877" sparseCutoff="1.0000000000000000"/>
      <sparseX i="457" alpha="-10461.791516133446" sparseCutoff="1.0000000000000000"/>
      <sparseX i="458" alpha="3276.8094749772258" sparseCutoff="1.0000000000000000"/>
      <sparseX i="459" alpha="-6753.7663831233740" sparseCutoff="1.0000000000000000"/>
      <sparseX i="460" alpha="-3073.4290320606074" sparseCutoff="1.0000000000000000"/>
      <sparseX i="461" alpha="-1523.0695509403793" sparseCutoff="1.0000000000000000"/>
      <sparseX i="462" alpha="1393.8615104351775" sparseCutoff="1.0000000000000000"/>
      <sparseX i="463" alpha="-1186.7877937475316" sparseCutoff="1.0000000000000000"/>
      <sparseX i="464" alpha="-1543.6653489255516" sparseCutoff="1.0000000000000000"/>
      <sparseX i="465" alpha="-5863.7390711461348" sparseCutoff="1.0000000000000000"/>
      <sparseX i="466" alpha="-1763.3174540057191" sparseCutoff="1.0000000000000000"/>
      <sparseX i="467" alpha="-22630.284231595677" sparseCutoff="1.0000000000000000"/>
      <sparseX i="468" alpha="-765.83261296404828" sparseCutoff="1.0000000000000000"/>
      <sparseX i="469" alpha="580.21251880938485" sparseCutoff="1.0000000000000000"/>
      <sparseX i="470" alpha="-2417.2972535949825" sparseCutoff="1.0000000000000000"/>
      <sparseX i="471" alpha="-2543.5822449219600" sparseCutoff="1.0000000000000000"/>
      <sparseX i="472" alpha="-17549.628595796454" sparseCutoff="1.0000000000000000"/>
      <sparseX i="473" alpha="-3976.9433755897562" sparseCutoff="1.0000000000000000"/>
      <sparseX i="474" alpha="-2899.0230132504939" sparseCutoff="1.0000000000000000"/>
      <sparseX i="475" alpha="-6819.2054674906303" sparseCutoff="1.0000000000000000"/>
      <sparseX i="476" alpha="-241.37926465976841" sparseCutoff="1.0000000000000000"/>
      <sparseX i="477" alpha="6701.8705860976370" sparseCutoff="1.0000000000000000"/>
      <sparseX i="478" alpha="-911.54246083788496" sparseCutoff="1.0000000000000000"/>
      <sparseX i="479" alpha="737.33094201854317" sparseCutoff="1.0000000000000000"/>
      <sparseX i="480" alpha="-3619.0929121742492" sparseCutoff="1.0000000000000000"/>
      <sparseX i="481" alpha="-20207.542508551065" sparseCutoff="1.0000000000000000"/>
      <sparseX i="482" alpha="-203.92697452498345" sparseCutoff="1.0000000000000000"/>
      <sparseX i="483" alpha="-2300.3108671317659" sparseCutoff="1.0000000000000000"/>
      <sparseX i="484" alpha="-13395.759708883454" sparseCutoff="1.0000000000000000"/>
      <sparseX i="485" alpha="-610.01888626851974" sparseCutoff="1.0000000000000000"/>
      <sparseX i="486" alpha="-7977.7096715314801" sparseCutoff="1.0000000000000000"/>
      <sparseX i="487" alpha="-2911.2278007232489" sparseCutoff="1.0000000000000000"/>
      <sparseX i="488" alpha="-3354.0758022534237" sparseCutoff="1.0000000000000000"/>
      <sparseX i="489" alpha="-3651.2283669236222" sparseCutoff="1.0000000000000000"/>
      <sparseX i="490" alpha="2064.2254869587805" sparseCutoff="1.0000000000000000"/>
      <sparseX i="491" alpha="-2773.6580637204806" sparseCutoff="1.0000000000000000"/>
      <sparseX i="492" alpha="-913.44509389780683" sparseCutoff="1.0000000000000000"/>
      <sparseX i="493" alpha="-1215.4568320075139" sparseCutoff="1.0000000000000000"/>
      <sparseX i="494" alpha="-335.42900766160363" sparseCutoff="1.0000000000000000"/>
      <sparseX i="495" alpha="-2032.0094182232699" sparseCutoff="1.0000000000000000"/>
      <sparseX i="496" alpha="-768.52633721891254" sparseCutoff="1.0000000000000000"/>
      <sparseX i="497" alpha="-1331.9522409262552" sparseCutoff="1.0000000000000000"/>
      <sparseX i="498" alpha="-1910.9919261423286" sparseCutoff="1.0000000000000000"/>
      <sparseX i="499" alpha="-5544.9828723432183" sparseCutoff="1.0000000000000000"/>
      <sparseX i="500" alpha="-701.77882426519807" sparseCutoff="1.0000000000000000"/>
      <sparseX i="501" alpha="-6233.0743263578379" sparseCutoff="1.0000000000000000"/>
      <sparseX i="502" alpha="-861.58200673435067" sparseCutoff="1.0000000000000000"/>
      <sparseX i="503" alpha="-11445.293330208826" sparseCutoff="1.0000000000000000"/>
      <sparseX i="504" alpha="-1551.3804271655065" sparseCutoff="1.0000000000000000"/>
      <sparseX i="505" alpha="-665.14478628172117" sparseCutoff="1.0000000000000000"/>
      <sparseX i="506" alpha="-4815.8333647060272" sparseCutoff="1.0000000000000000"/>
      <sparseX i="507" alpha="906.71024381528423" sparseCutoff="1.0000000000000000"/>
      <sparseX i="508" alpha="-533.63758926859248" sparseCutoff="1.0000000000000000"/>
      <sparseX i="509" alpha="-1005.2260960539236" sparseCutoff="1.0000000000000000"/>
      <sparseX i="510" alpha="-8610.3861925120309" sparseCutoff="1.0000000000000000"/>
      <sparseX i="511" alpha="-12858.771527701676" sparseCutoff="1.0000000000000000"/>
      <sparseX i="512" alpha="-621.30107442171209" sparseCutoff="1.0000000000000000"/>
      <sparseX i="513" alpha="-2063.2542995748836" sparseCutoff="1.0000000000000000"/>
      <sparseX i="514" alpha="-7159.9598570504231" sparseCutoff="1.0000000000000000"/>
      <sparseX i="515" alpha="-677.12614124993650" sparseCutoff="1.0000000000000000"/>
      <sparseX i="516" alpha="827.93778994838021" sparseCutoff="1.0000000000000000"/>
      <sparseX i="517" alpha="1422.0833439166622" sparseCutoff="1.0000000000000000"/>
      <sparseX i="518" alpha="-814.56609220900305" sparseCutoff="1.0000000000000000"/>
      <sparseX i="519" alpha="-13722.940086065142" sparseCutoff="1.0000000000000000"/>
      <sparseX i="520" alpha="-4003.7205729489519" sparseCutoff="1.0000000000000000"/>
      <sparseX i="521" alpha="226.01953943776616" sparseCutoff="1.0000000000000000"/>
      <sparseX i="522" alpha="2812.0958740351698" sparseCutoff="1.0000000000000000"/>
      <sparseX i="523" alpha="731.67160291265077" sparseCutoff="1.0000000000000000"/>
      <sparseX i="524" alpha="-20182.583800245531" sparseCutoff="1.0000000000000000"/>
      <sparseX i="525" alpha="-1057.4757447285433" sparseCutoff="1.0000000000000000"/>
      <sparseX i="526" alpha="1985.0448997601079" sparseCutoff="1.0000000000000000"/>
      <sparseX i="527" alpha="-6335.3654715214379" sparseCutoff="1.0000000000000000"/>
      <sparseX i="528" alpha="-924.87548221212990" sparseCutoff="1.0000000000000000"/>
      <sparseX i="529" alpha="-710.88991959615294" sparseCutoff="1.0000000000000000"/>
      <sparseX i="530" alpha="-679.57278724520290" sparseCutoff="1.0000000000000000"/>
      <sparseX i="531" alpha="-725.06546064469796" sparseCutoff="1.0000000000000000"/>
      <sparseX i="532" alpha="-1266.7570120890123" sparseCutoff="1.0000000000000000"/>
      <sparseX i="533" alpha="-945.18701578831758" sparseCutoff="1.0000000000000000"/>
      <sparseX i="534" alpha="-1035.7501789514968" sparseCutoff="1.0000000000000000"/>
      <sparseX i="535" alpha="-934.50748527539622" sparseCutoff="1.0000000000000000"/>
      <sparseX i="536" alpha="-693.96559188984634" sparseCutoff="1.0000000000000000"/>
      <sparseX i="537" alpha="-693.46538295668711" sparseCutoff="1.0000000000000000"/>
      <sparseX i="538" alpha="-661.90029121018836" sparseCutoff="1.0000000000000000"/>
      <sparseX i="539" alpha="-659.28471058101059" sparseCutoff="1.0000000000000000"/>
      <sparseX i="540" alpha="-676.21641345151170" sparseCutoff="1.0000000000000000"/>
      <sparseX i="541" alpha="-704.87617446276988" sparseCutoff="1.0000000000000000"/>
      <sparseX i="542" alpha="-747.03592122446832" sparseCutoff="1.0000000000000000"/>
      <sparseX i="543" alpha="-713.96685780192615" sparseCutoff="1.0000000000000000"/>
      <sparseX i="544" alpha="-731.38997288688483" sparseCutoff="1.0000000000000000"/>
      <sparseX i="545" alpha="-674.39591260136012" sparseCutoff="1.0000000000000000"/>
      <sparseX i="546" alpha="-675.41266047826855" sparseCutoff="1.0000000000000000"/>
      <sparseX i="547" alpha="-714.52736442105106" sparseCutoff="1.0000000000000000"/>
      <sparseX i="548" alpha="-698.36621591569167" sparseCutoff="1.0000000000000000"/>
      <sparseX i="549" alpha="-752.93279022775198" sparseCutoff="1.0000000000000000"/>
      <sparseX i="550" alpha="-677.84655657801443" sparseCutoff="1.0000000000000000"/>
      <sparseX i="551" alpha="-672.06698892446548" sparseCutoff="1.0000000000000000"/>
      <sparseX i="552" alpha="-686.44630828340337" sparseCutoff="1.0000000000000000"/>
      <sparseX i="553" alpha="-748.61102515246785" sparseCutoff="1.0000000000000000"/>
      <sparseX i="554" alpha="-663.54420782639988" sparseCutoff="1.0000000000000000"/>
      <sparseX i="555" alpha="-1200.6629759770067" sparseCutoff="1.0000000000000000"/>
      <sparseX i="556" alpha="-674.85739735846857" sparseCutoff="1.0000000000000000"/>
      <sparseX i="557" alpha="-701.25962775442986" sparseCutoff="1.0000000000000000"/>
      <sparseX i="558" alpha="-690.64034932494178" sparseCutoff="1.0000000000000000"/>
      <sparseX i="559" alpha="-749.47792704802396" sparseCutoff="1.0000000000000000"/>
      <sparseX i="560" alpha="-704.46372909131776" sparseCutoff="1.0000000000000000"/>
      <sparseX i="561" alpha="-737.54392688000678" sparseCutoff="1.0000000000000000"/>
      <sparseX i="562" alpha="-675.71926160505166" sparseCutoff="1.0000000000000000"/>
      <sparseX i="563" alpha="-726.39837118044852" sparseCutoff="1.0000000000000000"/>
      <sparseX i="564" alpha="-657.60347858876457" sparseCutoff="1.0000000000000000"/>
      <sparseX i="565" alpha="-643.70228166494758" sparseCutoff="1.0000000000000000"/>
      <sparseX i="566" alpha="-759.95464854755039" sparseCutoff="1.0000000000000000"/>
      <sparseX i="567" alpha="-717.01235894048693" sparseCutoff="1.0000000000000000"/>
      <sparseX i="568" alpha="-675.70657634011650" sparseCutoff="1.0000000000000000"/>
      <sparseX i="569" alpha="-678.02072781087327" sparseCutoff="1.0000000000000000"/>
      <sparseX i="570" alpha="-733.09183437585295" sparseCutoff="1.0000000000000000"/>
      <sparseX i="571" alpha="-676.01718661258315" sparseCutoff="1.0000000000000000"/>
      <sparseX i="572" alpha="-706.80232138624797" sparseCutoff="1.0000000000000000"/>
      <sparseX i="573" alpha="-1047.9555484528278" sparseCutoff="1.0000000000000000"/>
      <sparseX i="574" alpha="-699.94843036639077" sparseCutoff="1.0000000000000000"/>
      <sparseX i="575" alpha="-685.99150778982744" sparseCutoff="1.0000000000000000"/>
      <sparseX i="576" alpha="-699.16971811241581" sparseCutoff="1.0000000000000000"/>
      <sparseX i="577" alpha="-666.84760922741043" sparseCutoff="1.0000000000000000"/>
      <sparseX i="578" alpha="-697.91004750353568" sparseCutoff="1.0000000000000000"/>
      <sparseX i="579" alpha="-747.41956582162118" sparseCutoff="1.0000000000000000"/>
      <sparseX i="580" alpha="-662.94275933073470" sparseCutoff="1.0000000000000000"/>
      <sparseX i="581" alpha="-733.02923414327597" sparseCutoff="1.0000000000000000"/>
      <sparseX i="582" alpha="-685.83771849224922" sparseCutoff="1.0000000000000000"/>
      <sparseX i="583" alpha="-672.07139389176120" sparseCutoff="1.0000000000000000"/>
      <sparseX i="584" alpha="-693.60178402070926" sparseCutoff="1.0000000000000000"/>
      <sparseX i="585" alpha="-741.07187399375334" sparseCutoff="1.0000000000000000"/>
      <sparseX i="586" alpha="-685.53962059158926" sparseCutoff="1.0000000000000000"/>
      <sparseX i="587" alpha="-696.54676452158560" sparseCutoff="1.0000000000000000"/>
      <sparseX i="588" alpha="-658.21560656384884" sparseCutoff="1.0000000000000000"/>
      <sparseX i="589" alpha="-677.73553534834878" sparseCutoff="1.0000000000000000"/>
      <sparseX i="590" alpha="-684.62486596029783" sparseCutoff="1.0000000000000000"/>
      <sparseX i="591" alpha="-676.40565030253356" sparseCutoff="1.0000000000000000"/>
      <sparseX i="592" alpha="-676.27624731203855" sparseCutoff="1.0000000000000000"/>
      <sparseX i="593" alpha="-672.40534020158736" sparseCutoff="1.0000000000000000"/>
      <sparseX i="594" alpha="-708.32063666200315" sparseCutoff="1.0000000000000000"/>
      <sparseX i="595" alpha="-678.59066854813216" sparseCutoff="1.0000000000000000"/>
      <sparseX i="596" alpha="-804.01555295579908" sparseCutoff="1.0000000000000000"/>
      <sparseX i="597" alpha="-816.72618887370390" sparseCutoff="1.0000000000000000"/>
      <sparseX i="598" alpha="-754.09075543722497" sparseCutoff="1.0000000000000000"/>
      <sparseX i="599" alpha="-728.03731695470708" sparseCutoff="1.0000000000000000"/>
      <sparseX i="600" alpha="-683.84191262212687" sparseCutoff="1.0000000000000000"/>
      <sparseX i="601" alpha="-652.23978315737065" sparseCutoff="1.0000000000000000"/>
      <sparseX i="602" alpha="-674.43466173380125" sparseCutoff="1.0000000000000000"/>
      <sparseX i="603" alpha="-676.90235611876778" sparseCutoff="1.0000000000000000"/>
      <sparseX i="604" alpha="-861.42686935674124" sparseCutoff="1.0000000000000000"/>
      <sparseX i="605" alpha="-683.31462959066994" sparseCutoff="1.0000000000000000"/>
      <sparseX i="606" alpha="-675.78123516672645" sparseCutoff="1.0000000000000000"/>
      <sparseX i="607" alpha="-723.88727869800903" sparseCutoff="1.0000000000000000"/>
      <sparseX i="608" alpha="-678.13558301675289" sparseCutoff="1.0000000000000000"/>
      <sparseX i="609" alpha="-677.46593126769369" sparseCutoff="1.0000000000000000"/>
      <sparseX i="610" alpha="-904.35584872759580" sparseCutoff="1.0000000000000000"/>
      <sparseX i="611" alpha="-679.51586276192711" sparseCutoff="1.0000000000000000"/>
      <sparseX i="612" alpha="-776.59995319488974" sparseCutoff="1.0000000000000000"/>
      <sparseX i="613" alpha="-684.49967922871440" sparseCutoff="1.0000000000000000"/>
      <sparseX i="614" alpha="-589.53478293577871" sparseCutoff="1.0000000000000000"/>
      <sparseX i="615" alpha="-710.32255805221928" sparseCutoff="1.0000000000000000"/>
      <sparseX i="616" alpha="-675.67201206211223" sparseCutoff="1.0000000000000000"/>
      <sparseX i="617" alpha="-743.47517619354346" sparseCutoff="1.0000000000000000"/>
      <sparseX i="618" alpha="-779.65863448539585" sparseCutoff="1.0000000000000000"/>
      <sparseX i="619" alpha="-682.81909332618761" sparseCutoff="1.0000000000000000"/>
      <sparseX i="620" alpha="-677.93308714959767" sparseCutoff="1.0000000000000000"/>
      <sparseX i="621" alpha="-675.20307733669745" sparseCutoff="1.0000000000000000"/>
      <sparseX i="622" alpha="-679.47469558439082" sparseCutoff="1.0000000000000000"/>
      <sparseX i="623" alpha="-728.98125419451947" sparseCutoff="1.0000000000000000"/>
      <sparseX i="624" alpha="-719.02272505598864" sparseCutoff="1.0000000000000000"/>
      <sparseX i="625" alpha="-689.20861112623425" sparseCutoff="1.0000000000000000"/>
      <sparseX i="626" alpha="-646.59480820035117" sparseCutoff="1.0000000000000000"/>
      <sparseX i="627" alpha="-701.91858008630663" sparseCutoff="1.0000000000000000"/>
      <sparseX i="628" alpha="-784.84703473216439" sparseCutoff="1.0000000000000000"/>
      <sparseX i="629" alpha="-1055.1797220387075" sparseCutoff="1.0000000000000000"/>
      <sparseX i="630" alpha="-678.45913830824725" sparseCutoff="1.0000000000000000"/>
      <sparseX i="631" alpha="-882.44862504486139" sparseCutoff="1.0000000000000000"/>
      <sparseX i="632" alpha="-738.74220871690250" sparseCutoff="1.0000000000000000"/>
      <sparseX i="633" alpha="-678.11960215268073" sparseCutoff="1.0000000000000000"/>
      <sparseX i="634" alpha="-715.32268639630183" sparseCutoff="1.0000000000000000"/>
      <sparseX i="635" alpha="-687.97132382622397" sparseCutoff="1.0000000000000000"/>
      <sparseX i="636" alpha="-675.68196239083784" sparseCutoff="1.0000000000000000"/>
      <sparseX i="637" alpha="-675.53631581512309" sparseCutoff="1.0000000000000000"/>
      <sparseX i="638" alpha="-674.13866914027778" sparseCutoff="1.0000000000000000"/>
      <sparseX i="639" alpha="-718.33318395737240" sparseCutoff="1.0000000000000000"/>
      <sparseX i="640" alpha="-644.61229443962100" sparseCutoff="1.0000000000000000"/>
      <sparseX i="641" alpha="-704.09521849461044" sparseCutoff="1.0000000000000000"/>
      <sparseX i="642" alpha="-667.21444193413390" sparseCutoff="1.0000000000000000"/>
      <sparseX i="643" alpha="-674.06200628740305" sparseCutoff="1.0000000000000000"/>
      <sparseX i="644" alpha="-684.43206941398330" sparseCutoff="1.0000000000000000"/>
      <sparseX i="645" alpha="-669.18966725489031" sparseCutoff="1.0000000000000000"/>
      <sparseX i="646" alpha="-696.56315047922635" sparseCutoff="1.0000000000000000"/>
      <sparseX i="647" alpha="-676.42813600815202" sparseCutoff="1.0000000000000000"/>
      <sparseX i="648" alpha="-634.56474315031687" sparseCutoff="1.0000000000000000"/>
      <sparseX i="649" alpha="-675.69820542618652" sparseCutoff="1.0000000000000000"/>
      <sparseX i="650" alpha="-688.53269518946593" sparseCutoff="1.0000000000000000"/>
      <sparseX i="651" alpha="-708.26601964767292" sparseCutoff="1.0000000000000000"/>
      <sparseX i="652" alpha="-649.82682849995160" sparseCutoff="1.0000000000000000"/>
      <sparseX i="653" alpha="-675.45204703705701" sparseCutoff="1.0000000000000000"/>
      <sparseX i="654" alpha="-675.34517569295849" sparseCutoff="1.0000000000000000"/>
      <sparseX i="655" alpha="-673.63341174508867" sparseCutoff="1.0000000000000000"/>
      <sparseX i="656" alpha="-790.36392359685522" sparseCutoff="1.0000000000000000"/>
      <sparseX i="657" alpha="-761.87099519530886" sparseCutoff="1.0000000000000000"/>
      <sparseX i="658" alpha="-755.15326564751581" sparseCutoff="1.0000000000000000"/>
      <sparseX i="659" alpha="-677.46095054501029" sparseCutoff="1.0000000000000000"/>
      <sparseX i="660" alpha="-689.78384222178943" sparseCutoff="1.0000000000000000"/>
      <sparseX i="661" alpha="-802.07099745725930" sparseCutoff="1.0000000000000000"/>
      <sparseX i="662" alpha="-678.46703165997837" sparseCutoff="1.0000000000000000"/>
      <sparseX i="663" alpha="-717.40878763161447" sparseCutoff="1.0000000000000000"/>
      <sparseX i="664" alpha="-675.97392850238532" sparseCutoff="1.0000000000000000"/>
      <sparseX i="665" alpha="-760.20963598150854" sparseCutoff="1.0000000000000000"/>
      <sparseX i="666" alpha="-675.68189739280035" sparseCutoff="1.0000000000000000"/>
      <sparseX i="667" alpha="-799.17379295481908" sparseCutoff="1.0000000000000000"/>
      <sparseX i="668" alpha="-664.65461823628709" sparseCutoff="1.0000000000000000"/>
      <sparseX i="669" alpha="-674.87576779597998" sparseCutoff="1.0000000000000000"/>
      <sparseX i="670" alpha="-766.68160318196544" sparseCutoff="1.0000000000000000"/>
      <sparseX i="671" alpha="-918.41325330889674" sparseCutoff="1.0000000000000000"/>
      <sparseX i="672" alpha="-676.01933162654836" sparseCutoff="1.0000000000000000"/>
      <sparseX i="673" alpha="-679.06802718008612" sparseCutoff="1.0000000000000000"/>
      <sparseX i="674" alpha="-677.09074564659454" sparseCutoff="1.0000000000000000"/>
      <sparseX i="675" alpha="-677.18533780161829" sparseCutoff="1.0000000000000000"/>
      <sparseX i="676" alpha="-690.24548764483063" sparseCutoff="1.0000000000000000"/>
      <sparseX i="677" alpha="-675.90106307819394" sparseCutoff="1.0000000000000000"/>
      <sparseX i="678" alpha="-748.90195042891116" sparseCutoff="1.0000000000000000"/>
      <sparseX i="679" alpha="-735.51289771044674" sparseCutoff="1.0000000000000000"/>
      <sparseX i="680" alpha="-695.19791827130757" sparseCutoff="1.0000000000000000"/>
      <sparseX i="681" alpha="-674.35131419851439" sparseCutoff="1.0000000000000000"/>
      <sparseX i="682" alpha="-675.81138485626150" sparseCutoff="1.0000000000000000"/>
      <sparseX i="683" alpha="-675.61978023989820" sparseCutoff="1.0000000000000000"/>
      <sparseX i="684" alpha="-716.35383593400456" sparseCutoff="1.0000000000000000"/>
      <sparseX i="685" alpha="-691.43840491397020" sparseCutoff="1.0000000000000000"/>
      <sparseX i="686" alpha="-679.49070038452135" sparseCutoff="1.0000000000000000"/>
      <sparseX i="687" alpha="-667.90085144310422" sparseCutoff="1.0000000000000000"/>
      <sparseX i="688" alpha="-674.04988094719386" sparseCutoff="1.0000000000000000"/>
      <sparseX i="689" alpha="-676.48681015949205" sparseCutoff="1.0000000000000000"/>
      <sparseX i="690" alpha="-676.55747037190599" sparseCutoff="1.0000000000000000"/>
      <sparseX i="691" alpha="-710.08634481874208" sparseCutoff="1.0000000000000000"/>
      <sparseX i="692" alpha="-675.61585032689425" sparseCutoff="1.0000000000000000"/>
      <sparseX i="693" alpha="-676.49179648843847" sparseCutoff="1.0000000000000000"/>
      <sparseX i="694" alpha="-675.72659718209979" sparseCutoff="1.0000000000000000"/>
      <sparseX i="695" alpha="-675.65553824587380" sparseCutoff="1.0000000000000000"/>
      <sparseX i="696" alpha="-715.37911686820951" sparseCutoff="1.0000000000000000"/>
      <sparseX i="697" alpha="-709.00796179881218" sparseCutoff="1.0000000000000000"/>
      <sparseX i="698" alpha="-661.67365604064469" sparseCutoff="1.0000000000000000"/>
      <sparseX i="699" alpha="-763.60780158736281" sparseCutoff="1.0000000000000000"/>
      <sparseX i="700" alpha="-679.25400575923572" sparseCutoff="1.0000000000000000"/>
      <sparseX i="701" alpha="-656.43188032779085" sparseCutoff="1.0000000000000000"/>
      <sparseX i="702" alpha="-688.49476457747994" sparseCutoff="1.0000000000000000"/>
      <sparseX i="703" alpha="-882.68052024767803" sparseCutoff="1.0000000000000000"/>
      <sparseX i="704" alpha="-665.82790802532406" sparseCutoff="1.0000000000000000"/>
      <sparseX i="705" alpha="-682.00656023313286" sparseCutoff="1.0000000000000000"/>
      <sparseX i="706" alpha="-748.66757404395196" sparseCutoff="1.0000000000000000"/>
      <sparseX i="707" alpha="-669.19670061895977" sparseCutoff="1.0000000000000000"/>
      <sparseX i="708" alpha="-678.32350354290998" sparseCutoff="1.0000000000000000"/>
      <sparseX i="709" alpha="-704.05786751450069" sparseCutoff="1.0000000000000000"/>
      <sparseX i="710" alpha="-675.51835117569738" sparseCutoff="1.0000000000000000"/>
      <sparseX i="711" alpha="-718.28268543536183" sparseCutoff="1.0000000000000000"/>
      <sparseX i="712" alpha="-618.63965165835157" sparseCutoff="1.0000000000000000"/>
      <sparseX i="713" alpha="-675.46306084083892" sparseCutoff="1.0000000000000000"/>
      <sparseX i="714" alpha="-675.58179523475644" sparseCutoff="1.0000000000000000"/>
      <sparseX i="715" alpha="-747.83896426304022" sparseCutoff="1.0000000000000000"/>
      <sparseX i="716" alpha="-690.38304985209834" sparseCutoff="1.0000000000000000"/>
      <sparseX i="717" alpha="-678.73161598348690" sparseCutoff="1.0000000000000000"/>
      <sparseX i="718" alpha="-704.31711448602107" sparseCutoff="1.0000000000000000"/>
      <sparseX i="719" alpha="-685.93198621197075" sparseCutoff="1.0000000000000000"/>
      <sparseX i="720" alpha="-726.02605163426745" sparseCutoff="1.0000000000000000"/>
      <sparseX i="721" alpha="-674.92968110946344" sparseCutoff="1.0000000000000000"/>
      <sparseX i="722" alpha="-761.81031095574758" sparseCutoff="1.0000000000000000"/>
      <sparseX i="723" alpha="-637.09972180772661" sparseCutoff="1.0000000000000000"/>
      <sparseX i="724" alpha="-675.73618668053746" sparseCutoff="1.0000000000000000"/>
      <sparseX i="725" alpha="-676.70971514992198" sparseCutoff="1.0000000000000000"/>
      <sparseX i="726" alpha="-675.61085703059530" sparseCutoff="1.0000000000000000"/>
      <sparseX i="727" alpha="-743.11961677983493" sparseCutoff="1.0000000000000000"/>
      <sparseX i="728" alpha="-675.75855684625810" sparseCutoff="1.0000000000000000"/>
      <sparseX i="729" alpha="-647.60812881652100" sparseCutoff="1.0000000000000000"/>
      <sparseX i="730" alpha="-644.75108492422646" sparseCutoff="1.0000000000000000"/>
      <sparseX i="731" alpha="-711.36437998084580" sparseCutoff="1.0000000000000000"/>
      <sparseX i="732" alpha="-681.90209811656462" sparseCutoff="1.0000000000000000"/>
      <sparseX i="733" alpha="-675.75468342552381" sparseCutoff="1.0000000000000000"/>
      <sparseX i="734" alpha="-650.26911044927579" sparseCutoff="1.0000000000000000"/>
      <sparseX i="735" alpha="-684.36907875973770" sparseCutoff="1.0000000000000000"/>
      <sparseX i="736" alpha="-676.03761114701740" sparseCutoff="1.0000000000000000"/>
      <sparseX i="737" alpha="-675.64567244735088" sparseCutoff="1.0000000000000000"/>
      <sparseX i="738" alpha="-694.36205366922968" sparseCutoff="1.0000000000000000"/>
      <sparseX i="739" alpha="-669.78664991989820" sparseCutoff="1.0000000000000000"/>
      <sparseX i="740" alpha="-677.76592910118802" sparseCutoff="1.0000000000000000"/>
      <sparseX i="741" alpha="-675.17577434890086" sparseCutoff="1.0000000000000000"/>
      <sparseX i="742" alpha="-707.68778323187735" sparseCutoff="1.0000000000000000"/>
      <sparseX i="743" alpha="-666.39922489133130" sparseCutoff="1.0000000000000000"/>
      <sparseX i="744" alpha="-679.20477044308097" sparseCutoff="1.0000000000000000"/>
      <sparseX i="745" alpha="-680.21335081162636" sparseCutoff="1.0000000000000000"/>
      <sparseX i="746" alpha="-693.20497994836842" sparseCutoff="1.0000000000000000"/>
      <sparseX i="747" alpha="-676.07015184283739" sparseCutoff="1.0000000000000000"/>
      <sparseX i="748" alpha="-679.80324362512988" sparseCutoff="1.0000000000000000"/>
      <sparseX i="749" alpha="-676.59451806822597" sparseCutoff="1.0000000000000000"/>
      <sparseX i="750" alpha="-640.20806742876186" sparseCutoff="1.0000000000000000"/>
      <sparseX i="751" alpha="-676.61300217909661" sparseCutoff="1.0000000000000000"/>
      <sparseX i="752" alpha="-611.55291923118330" sparseCutoff="1.0000000000000000"/>
      <sparseX i="753" alpha="-683.56575990549618" sparseCutoff="1.0000000000000000"/>
      <sparseX i="754" alpha="-699.08746460028101" sparseCutoff="1.0000000000000000"/>
      <sparseX i="755" alpha="-716.45380134673428" sparseCutoff="1.0000000000000000"/>
      <sparseX i="756" alpha="-803.52165647114794" sparseCutoff="1.0000000000000000"/>
      <sparseX i="757" alpha="-653.80561881195013" sparseCutoff="1.0000000000000000"/>
      <sparseX i="758" alpha="-670.91272817490074" sparseCutoff="1.0000000000000000"/>
      <sparseX i="759" alpha="-674.05381377441222" sparseCutoff="1.0000000000000000"/>
      <sparseX i="760" alpha="-673.15760312273494" sparseCutoff="1.0000000000000000"/>
      <sparseX i="761" alpha="-699.98320033213315" sparseCutoff="1.0000000000000000"/>
      <sparseX i="762" alpha="-676.10196437935110" sparseCutoff="1.0000000000000000"/>
      <sparseX i="763" alpha="-675.25227377077999" sparseCutoff="1.0000000000000000"/>
      <sparseX i="764" alpha="-672.40805502899275" sparseCutoff="1.0000000000000000"/>
      <sparseX i="765" alpha="-1073.3771564892445" sparseCutoff="1.0000000000000000"/>
      <sparseX i="766" alpha="-690.92887768834078" sparseCutoff="1.0000000000000000"/>
      <sparseX i="767" alpha="-678.69233897430354" sparseCutoff="1.0000000000000000"/>
      <sparseX i="768" alpha="-625.90003784333226" sparseCutoff="1.0000000000000000"/>
      <sparseX i="769" alpha="-678.05677039825389" sparseCutoff="1.0000000000000000"/>
      <sparseX i="770" alpha="-631.46162856745127" sparseCutoff="1.0000000000000000"/>
      <sparseX i="771" alpha="-670.52289400587279" sparseCutoff="1.0000000000000000"/>
      <sparseX i="772" alpha="-684.21961620612069" sparseCutoff="1.0000000000000000"/>
      <sparseX i="773" alpha="-670.14560851930275" sparseCutoff="1.0000000000000000"/>
      <sparseX i="774" alpha="-682.15889429778167" sparseCutoff="1.0000000000000000"/>
      <sparseX i="775" alpha="-801.06776880806353" sparseCutoff="1.0000000000000000"/>
      <sparseX i="776" alpha="-676.33071280216234" sparseCutoff="1.0000000000000000"/>
      <sparseX i="777" alpha="-645.96313133176693" sparseCutoff="1.0000000000000000"/>
      <sparseX i="778" alpha="-723.75803327111089" sparseCutoff="1.0000000000000000"/>
      <sparseX i="779" alpha="-675.13383971685528" sparseCutoff="1.0000000000000000"/>
      <sparseX i="780" alpha="-695.39509313603662" sparseCutoff="1.0000000000000000"/>
      <sparseX i="781" alpha="-683.88818090369182" sparseCutoff="1.0000000000000000"/>
      <sparseX i="782" alpha="-681.23149604172954" sparseCutoff="1.0000000000000000"/>
      <sparseX i="783" alpha="-716.77967395040741" sparseCutoff="1.0000000000000000"/>
      <sparseX i="784" alpha="-689.69144009816614" sparseCutoff="1.0000000000000000"/>
      <sparseX i="785" alpha="-680.20193312232493" sparseCutoff="1.0000000000000000"/>
      <sparseX i="786" alpha="-675.31591942341538" sparseCutoff="1.0000000000000000"/>
      <sparseX i="787" alpha="-728.69518012280309" sparseCutoff="1.0000000000000000"/>
      <sparseX i="788" alpha="-644.57735285954220" sparseCutoff="1.0000000000000000"/>
      <sparseX i="789" alpha="-684.85386527494973" sparseCutoff="1.0000000000000000"/>
      <sparseX i="790" alpha="-681.20371723688777" sparseCutoff="1.0000000000000000"/>
      <sparseX i="791" alpha="-677.04458890528895" sparseCutoff="1.0000000000000000"/>
