<GAP_2020_12_9_-360_0_11_59_725>
<Potential label="GAP_2020_12_9_-360_0_11_59_725" init_args="IP GAP label=GAP_2020_12_9_-360_0_11_59_725"/>
<GAP_params label="GAP_2020_12_9_-360_0_11_59_725" gap_version="1548461341">
  <GAP_data do_core="F">
    <e0 Z="1" value=".00000000000000000E+000"/>
    <e0 Z="2" value=".00000000000000000E+000"/>
    <e0 Z="3" value="-.60628830000000002E-001"/>
    <e0 Z="4" value=".00000000000000000E+000"/>
    <e0 Z="5" value=".00000000000000000E+000"/>
    <e0 Z="6" value=".00000000000000000E+000"/>
    <e0 Z="7" value=".00000000000000000E+000"/>
    <e0 Z="8" value=".00000000000000000E+000"/>
    <e0 Z="9" value=".00000000000000000E+000"/>
    <e0 Z="10" value=".00000000000000000E+000"/>
    <e0 Z="11" value=".00000000000000000E+000"/>
    <e0 Z="12" value=".00000000000000000E+000"/>
    <e0 Z="13" value=".00000000000000000E+000"/>
    <e0 Z="14" value=".00000000000000000E+000"/>
    <e0 Z="15" value=".00000000000000000E+000"/>
    <e0 Z="16" value=".00000000000000000E+000"/>
    <e0 Z="17" value="-.72006020000000018E-001"/>
    <e0 Z="18" value=".00000000000000000E+000"/>
    <e0 Z="19" value=".00000000000000000E+000"/>
    <e0 Z="20" value=".00000000000000000E+000"/>
    <e0 Z="21" value=".00000000000000000E+000"/>
    <e0 Z="22" value=".00000000000000000E+000"/>
    <e0 Z="23" value=".00000000000000000E+000"/>
    <e0 Z="24" value=".00000000000000000E+000"/>
    <e0 Z="25" value=".00000000000000000E+000"/>
    <e0 Z="26" value=".00000000000000000E+000"/>
    <e0 Z="27" value=".00000000000000000E+000"/>
    <e0 Z="28" value=".00000000000000000E+000"/>
    <e0 Z="29" value=".00000000000000000E+000"/>
    <e0 Z="30" value=".00000000000000000E+000"/>
    <e0 Z="31" value=".00000000000000000E+000"/>
    <e0 Z="32" value=".00000000000000000E+000"/>
    <e0 Z="33" value=".00000000000000000E+000"/>
    <e0 Z="34" value=".00000000000000000E+000"/>
    <e0 Z="35" value=".00000000000000000E+000"/>
    <e0 Z="36" value=".00000000000000000E+000"/>
    <e0 Z="37" value=".00000000000000000E+000"/>
    <e0 Z="38" value=".00000000000000000E+000"/>
    <e0 Z="39" value=".00000000000000000E+000"/>
    <e0 Z="40" value=".00000000000000000E+000"/>
    <e0 Z="41" value=".00000000000000000E+000"/>
    <e0 Z="42" value=".00000000000000000E+000"/>
    <e0 Z="43" value=".00000000000000000E+000"/>
    <e0 Z="44" value=".00000000000000000E+000"/>
    <e0 Z="45" value=".00000000000000000E+000"/>
    <e0 Z="46" value=".00000000000000000E+000"/>
    <e0 Z="47" value=".00000000000000000E+000"/>
    <e0 Z="48" value=".00000000000000000E+000"/>
    <e0 Z="49" value=".00000000000000000E+000"/>
    <e0 Z="50" value=".00000000000000000E+000"/>
    <e0 Z="51" value=".00000000000000000E+000"/>
    <e0 Z="52" value=".00000000000000000E+000"/>
    <e0 Z="53" value=".00000000000000000E+000"/>
    <e0 Z="54" value=".00000000000000000E+000"/>
    <e0 Z="55" value=".00000000000000000E+000"/>
    <e0 Z="56" value=".00000000000000000E+000"/>
    <e0 Z="57" value=".00000000000000000E+000"/>
    <e0 Z="58" value=".00000000000000000E+000"/>
    <e0 Z="59" value=".00000000000000000E+000"/>
    <e0 Z="60" value=".00000000000000000E+000"/>
    <e0 Z="61" value=".00000000000000000E+000"/>
    <e0 Z="62" value=".00000000000000000E+000"/>
    <e0 Z="63" value=".00000000000000000E+000"/>
    <e0 Z="64" value=".00000000000000000E+000"/>
    <e0 Z="65" value=".00000000000000000E+000"/>
    <e0 Z="66" value=".00000000000000000E+000"/>
    <e0 Z="67" value=".00000000000000000E+000"/>
    <e0 Z="68" value=".00000000000000000E+000"/>
    <e0 Z="69" value=".00000000000000000E+000"/>
    <e0 Z="70" value=".00000000000000000E+000"/>
    <e0 Z="71" value=".00000000000000000E+000"/>
    <e0 Z="72" value=".00000000000000000E+000"/>
    <e0 Z="73" value=".00000000000000000E+000"/>
    <e0 Z="74" value=".00000000000000000E+000"/>
    <e0 Z="75" value=".00000000000000000E+000"/>
    <e0 Z="76" value=".00000000000000000E+000"/>
    <e0 Z="77" value=".00000000000000000E+000"/>
    <e0 Z="78" value=".00000000000000000E+000"/>
    <e0 Z="79" value=".00000000000000000E+000"/>
    <e0 Z="80" value=".00000000000000000E+000"/>
    <e0 Z="81" value=".00000000000000000E+000"/>
    <e0 Z="82" value=".00000000000000000E+000"/>
    <e0 Z="83" value=".00000000000000000E+000"/>
    <e0 Z="84" value=".00000000000000000E+000"/>
    <e0 Z="85" value=".00000000000000000E+000"/>
    <e0 Z="86" value=".00000000000000000E+000"/>
    <e0 Z="87" value=".00000000000000000E+000"/>
    <e0 Z="88" value=".00000000000000000E+000"/>
    <e0 Z="89" value=".00000000000000000E+000"/>
    <e0 Z="90" value=".00000000000000000E+000"/>
    <e0 Z="91" value=".00000000000000000E+000"/>
    <e0 Z="92" value=".00000000000000000E+000"/>
    <e0 Z="93" value=".00000000000000000E+000"/>
    <e0 Z="94" value=".00000000000000000E+000"/>
    <e0 Z="95" value=".00000000000000000E+000"/>
    <e0 Z="96" value=".00000000000000000E+000"/>
    <e0 Z="97" value=".00000000000000000E+000"/>
    <e0 Z="98" value=".00000000000000000E+000"/>
    <e0 Z="99" value=".00000000000000000E+000"/>
    <e0 Z="100" value=".00000000000000000E+000"/>
    <e0 Z="101" value=".00000000000000000E+000"/>
    <e0 Z="102" value=".00000000000000000E+000"/>
    <e0 Z="103" value=".00000000000000000E+000"/>
    <e0 Z="104" value=".00000000000000000E+000"/>
    <e0 Z="105" value=".00000000000000000E+000"/>
    <e0 Z="106" value=".00000000000000000E+000"/>
    <e0 Z="107" value=".00000000000000000E+000"/>
    <e0 Z="108" value=".00000000000000000E+000"/>
    <e0 Z="109" value=".00000000000000000E+000"/>
    <e0 Z="110" value=".00000000000000000E+000"/>
    <e0 Z="111" value=".00000000000000000E+000"/>
    <e0 Z="112" value=".00000000000000000E+000"/>
    <e0 Z="113" value=".00000000000000000E+000"/>
    <e0 Z="114" value=".00000000000000000E+000"/>
    <e0 Z="115" value=".00000000000000000E+000"/>
    <e0 Z="116" value=".00000000000000000E+000"/>
    <e0 Z="117" value=".00000000000000000E+000"/>
    <e0 Z="118" value=".00000000000000000E+000"/>
  </GAP_data>
  <gpSparse label="GAP_2020_12_9_-360_0_11_59_725" n_coordinate="5">
    <gpCoordinates label="GAP_2020_12_9_-360_0_11_59_7251" dimensions="1" signal_variance=".99000000000000005E-001" signal_mean=".00000000000000000E+000" sparsified="T" n_permutations="1" covariance_type="1" n_sparseX="100" sparseX_filename="gap_LiCl.xml.sparseX.GAP_2020_12_9_-360_0_11_59_7251" sparseX_md5sum="4a2761e522e7f9bb3dfbe910ed6008db">
      <theta>  0.10000000000000000E+001 </theta>
      <descriptor>distance_2b compact_clusters=T cutoff=6.7 n_sparse=100 cutoff_transition_width=1.0 sparse_method=uniform delta=0.099 covariance_type=ard_se theta_uniform=1             Z1=3 Z2=3</descriptor>
      <permutation i="1">1  </permutation>
      <sparseX i="1" alpha="-4203.3088242270123" sparseCutoff="1.0000000000000000"/>
      <sparseX i="2" alpha="-37.213767299545523" sparseCutoff="1.0000000000000000"/>
      <sparseX i="3" alpha="14247.976228943788" sparseCutoff=".10480991535274098"/>
      <sparseX i="4" alpha="123.92603916007010" sparseCutoff="1.0000000000000000"/>
      <sparseX i="5" alpha="831.79375541420961" sparseCutoff="1.0000000000000000"/>
      <sparseX i="6" alpha="6404.0242333371152" sparseCutoff=".11474943654229408E-001"/>
      <sparseX i="7" alpha="-3311.5429421342415" sparseCutoff="1.0000000000000000"/>
      <sparseX i="8" alpha="-9409.3628924673012" sparseCutoff=".43869768744220133"/>
      <sparseX i="9" alpha="3112.5239812007171" sparseCutoff="1.0000000000000000"/>
      <sparseX i="10" alpha="12148.524653587152" sparseCutoff=".13362642939060554"/>
      <sparseX i="11" alpha="7432.0901427302952" sparseCutoff=".91760443288228033"/>
      <sparseX i="12" alpha="13644.212232538848" sparseCutoff=".42576782662696766E-001"/>
      <sparseX i="13" alpha="-3861.3664899602445" sparseCutoff="1.0000000000000000"/>
      <sparseX i="14" alpha="-9372.6616711665156" sparseCutoff=".50046295649386474"/>
      <sparseX i="15" alpha="3987.2008075973577" sparseCutoff="1.0000000000000000"/>
      <sparseX i="16" alpha="3560.2628541572408" sparseCutoff="1.0000000000000000"/>
      <sparseX i="17" alpha="3909.1690733164910" sparseCutoff="1.0000000000000000"/>
      <sparseX i="18" alpha="3897.9422309536617" sparseCutoff="1.0000000000000000"/>
      <sparseX i="19" alpha="2415.9859261961233" sparseCutoff="1.0000000000000000"/>
      <sparseX i="20" alpha="-6006.7609677461987" sparseCutoff="1.0000000000000000"/>
      <sparseX i="21" alpha="-1467.2430649687344" sparseCutoff="1.0000000000000000"/>
      <sparseX i="22" alpha="2027.9023294486983" sparseCutoff=".99543071613355028"/>
      <sparseX i="23" alpha="3261.5029719492877" sparseCutoff=".48612594942964438E-002"/>
      <sparseX i="24" alpha="6569.1360634857374" sparseCutoff=".85812629371777627"/>
      <sparseX i="25" alpha="-715.33472437107525" sparseCutoff="1.0000000000000000"/>
      <sparseX i="26" alpha="2071.7012371822207" sparseCutoff="1.0000000000000000"/>
      <sparseX i="27" alpha="2156.8330131459056" sparseCutoff="1.0000000000000000"/>
      <sparseX i="28" alpha="-3952.9483150830165" sparseCutoff="1.0000000000000000"/>
      <sparseX i="29" alpha="3979.7934216825379" sparseCutoff="1.0000000000000000"/>
      <sparseX i="30" alpha="-1524.9990127284716" sparseCutoff=".27627191652625765"/>
      <sparseX i="31" alpha="-2691.1880778227114" sparseCutoff=".67544612485837685"/>
      <sparseX i="32" alpha="-2160.1876909888256" sparseCutoff="1.0000000000000000"/>
      <sparseX i="33" alpha="436.63695168929610" sparseCutoff="1.0000000000000000"/>
      <sparseX i="34" alpha="-4059.7524119567238" sparseCutoff="1.0000000000000000"/>
      <sparseX i="35" alpha="-7257.5053516021899" sparseCutoff=".36411938613703143"/>
      <sparseX i="36" alpha="2092.0451292243738" sparseCutoff="1.0000000000000000"/>
      <sparseX i="37" alpha="-7333.4766115001385" sparseCutoff=".57875405109258860"/>
      <sparseX i="38" alpha="15233.504685925727" sparseCutoff=".73891981619789382E-001"/>
      <sparseX i="39" alpha="-160.81383369639465" sparseCutoff="1.0000000000000000"/>
      <sparseX i="40" alpha="-3660.7524991389196" sparseCutoff="1.0000000000000000"/>
      <sparseX i="41" alpha="-4277.5715558891170" sparseCutoff=".64591574664933549"/>
      <sparseX i="42" alpha="6405.3560204276573" sparseCutoff=".95673752419619240"/>
      <sparseX i="43" alpha="-4057.6229983560602" sparseCutoff="1.0000000000000000"/>
      <sparseX i="44" alpha="-2355.6367899733427" sparseCutoff="1.0000000000000000"/>
      <sparseX i="45" alpha="3538.2341088987346" sparseCutoff="1.0000000000000000"/>
      <sparseX i="46" alpha="2895.9235978510001" sparseCutoff="1.0000000000000000"/>
      <sparseX i="47" alpha="4118.9685326278704" sparseCutoff="1.0000000000000000"/>
      <sparseX i="48" alpha="3401.5613000308103" sparseCutoff="1.0000000000000000"/>
      <sparseX i="49" alpha="1119.1173749437469" sparseCutoff="1.0000000000000000"/>
      <sparseX i="50" alpha="-1529.5467646039526" sparseCutoff="1.0000000000000000"/>
      <sparseX i="51" alpha="-1071.9772873131355" sparseCutoff="1.0000000000000000"/>
      <sparseX i="52" alpha="-3652.7406633237265" sparseCutoff=".30349614630345667"/>
      <sparseX i="53" alpha="-1584.4033470679526" sparseCutoff="1.0000000000000000"/>
      <sparseX i="54" alpha="4533.7919180172867" sparseCutoff=".80703213409642438"/>
      <sparseX i="55" alpha="4982.2579158160606" sparseCutoff="1.0000000000000000"/>
      <sparseX i="56" alpha="2401.5074023160773" sparseCutoff="1.0000000000000000"/>
      <sparseX i="57" alpha="4757.0152843164642" sparseCutoff="1.0000000000000000"/>
      <sparseX i="58" alpha="-5637.8153871778313" sparseCutoff="1.0000000000000000"/>
      <sparseX i="59" alpha="4691.3374875614700" sparseCutoff=".97913552117312186"/>
      <sparseX i="60" alpha="26.094504420464204" sparseCutoff=".29019976443445117E-004"/>
      <sparseX i="61" alpha="3719.4835533686155" sparseCutoff="1.0000000000000000"/>
      <sparseX i="62" alpha="-874.43372453589689" sparseCutoff="1.0000000000000000"/>
      <sparseX i="63" alpha="-4239.8634813405788" sparseCutoff="1.0000000000000000"/>
      <sparseX i="64" alpha="-5976.0925692781775" sparseCutoff="1.0000000000000000"/>
      <sparseX i="65" alpha="3420.8546786193242" sparseCutoff=".22249417973866509"/>
      <sparseX i="66" alpha="3892.5419451934004" sparseCutoff="1.0000000000000000"/>
      <sparseX i="67" alpha="4061.7220774453049" sparseCutoff="1.0000000000000000"/>
      <sparseX i="68" alpha="-3348.2189821805655" sparseCutoff="1.0000000000000000"/>
      <sparseX i="69" alpha="2294.5813928332936" sparseCutoff=".76359913628747722"/>
      <sparseX i="70" alpha="-2010.9652398440369" sparseCutoff="1.0000000000000000"/>
      <sparseX i="71" alpha="4216.5138881252178" sparseCutoff="1.0000000000000000"/>
      <sparseX i="72" alpha="3357.3375677362769" sparseCutoff="1.0000000000000000"/>
      <sparseX i="73" alpha="-3280.0793378131702" sparseCutoff="1.0000000000000000"/>
      <sparseX i="74" alpha="-3715.3168702331682" sparseCutoff="1.0000000000000000"/>
      <sparseX i="75" alpha="2185.8121542597664" sparseCutoff="1.0000000000000000"/>
      <sparseX i="76" alpha="-63.783932434379444" sparseCutoff="1.0000000000000000"/>
      <sparseX i="77" alpha="-3745.5497021926808" sparseCutoff="1.0000000000000000"/>
      <sparseX i="78" alpha="-2210.4779017022042" sparseCutoff="1.0000000000000000"/>
      <sparseX i="79" alpha="747.38514945173506" sparseCutoff="1.0000000000000000"/>
      <sparseX i="80" alpha="6943.1237883096337" sparseCutoff=".94400815148284090"/>
      <sparseX i="81" alpha="-207.23102379673816" sparseCutoff="1.0000000000000000"/>
      <sparseX i="82" alpha="4813.7846234817089" sparseCutoff="1.0000000000000000"/>
      <sparseX i="83" alpha="538.82740495456517" sparseCutoff="1.0000000000000000"/>
      <sparseX i="84" alpha="-3318.9501319485721" sparseCutoff="1.0000000000000000"/>
      <sparseX i="85" alpha="-3142.0595814708877" sparseCutoff="1.0000000000000000"/>
      <sparseX i="86" alpha="-6245.1895612816234" sparseCutoff="1.0000000000000000"/>
      <sparseX i="87" alpha="-4037.2009600586621" sparseCutoff="1.0000000000000000"/>
      <sparseX i="88" alpha="2881.1109169552756" sparseCutoff="1.0000000000000000"/>
      <sparseX i="89" alpha="-961.88813691995028" sparseCutoff="1.0000000000000000"/>
      <sparseX i="90" alpha="1543.6980569564562" sparseCutoff="1.0000000000000000"/>
      <sparseX i="91" alpha="-4369.1247743030017" sparseCutoff="1.0000000000000000"/>
      <sparseX i="92" alpha="-4263.4831287901243" sparseCutoff="1.0000000000000000"/>
      <sparseX i="93" alpha="-3083.2074489662550" sparseCutoff="1.0000000000000000"/>
      <sparseX i="94" alpha="-4293.9366278739044" sparseCutoff="1.0000000000000000"/>
      <sparseX i="95" alpha="-4382.9959497783748" sparseCutoff="1.0000000000000000"/>
      <sparseX i="96" alpha="6039.8456960781541" sparseCutoff="1.0000000000000000"/>
      <sparseX i="97" alpha="1643.3951670098952" sparseCutoff="1.0000000000000000"/>
      <sparseX i="98" alpha="-3675.8718451102077" sparseCutoff="1.0000000000000000"/>
      <sparseX i="99" alpha="-1508.3489173716823" sparseCutoff="1.0000000000000000"/>
      <sparseX i="100" alpha="2520.8320836459411" sparseCutoff="1.0000000000000000"/>
    </gpCoordinates>
    <gpCoordinates label="GAP_2020_12_9_-360_0_11_59_7252" dimensions="1" signal_variance=".99000000000000005E-001" signal_mean=".00000000000000000E+000" sparsified="T" n_permutations="1" covariance_type="1" n_sparseX="100" sparseX_filename="gap_LiCl.xml.sparseX.GAP_2020_12_9_-360_0_11_59_7252" sparseX_md5sum="33f80235e5e098d84629dcfbd69fe99d">
      <theta>  0.10000000000000000E+001 </theta>
      <descriptor>distance_2b compact_clusters=T cutoff=6.7 n_sparse=100 cutoff_transition_width=1.0 sparse_method=uniform delta=0.099 covariance_type=ard_se theta_uniform=1             Z1=3 Z2=17</descriptor>
      <permutation i="1">1  </permutation>
      <sparseX i="1" alpha="-17840.313330011388" sparseCutoff="1.0000000000000000"/>
      <sparseX i="2" alpha="-2393.8228017107631" sparseCutoff=".61488578205827071"/>
      <sparseX i="3" alpha="49696.422808189687" sparseCutoff="1.0000000000000000"/>
      <sparseX i="4" alpha="18482.336161235580" sparseCutoff="1.0000000000000000"/>
      <sparseX i="5" alpha="-29086.905932656733" sparseCutoff="1.0000000000000000"/>
      <sparseX i="6" alpha="16217.536132492567" sparseCutoff="1.0000000000000000"/>
      <sparseX i="7" alpha="-6156.5061370485319" sparseCutoff=".99978372941025140"/>
      <sparseX i="8" alpha="-1823.3487592792603" sparseCutoff=".99414879141691925"/>
      <sparseX i="9" alpha="-7677.8558921298218" sparseCutoff="1.0000000000000000"/>
      <sparseX i="10" alpha="-22345.241094847242" sparseCutoff="1.0000000000000000"/>
      <sparseX i="11" alpha="-1752.2625187056390" sparseCutoff=".20406523051577435"/>
      <sparseX i="12" alpha="28812.954687561079" sparseCutoff="1.0000000000000000"/>
      <sparseX i="13" alpha="-6941.9879224140732" sparseCutoff="1.0000000000000000"/>
      <sparseX i="14" alpha="45116.361823205734" sparseCutoff="1.0000000000000000"/>
      <sparseX i="15" alpha="5756.0052483652626" sparseCutoff="1.0000000000000000"/>
      <sparseX i="16" alpha="-7243.5433982377053" sparseCutoff=".25643967069840906"/>
      <sparseX i="17" alpha="-10851.739728139402" sparseCutoff="1.0000000000000000"/>
      <sparseX i="18" alpha="12679.566582761967" sparseCutoff="1.0000000000000000"/>
      <sparseX i="19" alpha="2949.9466946050038" sparseCutoff="1.0000000000000000"/>
      <sparseX i="20" alpha="12386.983471252977" sparseCutoff=".76397575628563086E-001"/>
      <sparseX i="21" alpha="2480.7413782375515" sparseCutoff="1.0000000000000000"/>
      <sparseX i="22" alpha="13015.106334800716" sparseCutoff=".89959064152928958"/>
      <sparseX i="23" alpha="2131.8660806126923" sparseCutoff="1.0000000000000000"/>
      <sparseX i="24" alpha="-12145.148909967218" sparseCutoff=".32805129957986701"/>
      <sparseX i="25" alpha="-13898.684216902391" sparseCutoff="1.0000000000000000"/>
      <sparseX i="26" alpha="-5759.2720533819174" sparseCutoff="1.0000000000000000"/>
      <sparseX i="27" alpha="20741.369541187654" sparseCutoff="1.0000000000000000"/>
      <sparseX i="28" alpha="20729.180540621135" sparseCutoff="1.0000000000000000"/>
      <sparseX i="29" alpha="30390.967016390299" sparseCutoff="1.0000000000000000"/>
      <sparseX i="30" alpha="12394.627682118960" sparseCutoff=".80698664124644814"/>
      <sparseX i="31" alpha="-19448.184846917065" sparseCutoff="1.0000000000000000"/>
      <sparseX i="32" alpha="14922.994855409548" sparseCutoff="1.0000000000000000"/>
      <sparseX i="33" alpha="12083.999822225249" sparseCutoff=".81579544854056163E-001"/>
      <sparseX i="34" alpha="5305.6879591597390" sparseCutoff="1.0000000000000000"/>
      <sparseX i="35" alpha="9334.0716763207420" sparseCutoff=".94564622804565257"/>
      <sparseX i="36" alpha="-13843.534450911797" sparseCutoff="1.0000000000000000"/>
      <sparseX i="37" alpha="17055.979679691354" sparseCutoff="1.0000000000000000"/>
      <sparseX i="38" alpha="12829.081398496162" sparseCutoff="1.0000000000000000"/>
      <sparseX i="39" alpha="-25865.710862103904" sparseCutoff="1.0000000000000000"/>
      <sparseX i="40" alpha="9216.8933285118819" sparseCutoff=".75299785766787508"/>
      <sparseX i="41" alpha="-12204.414811916087" sparseCutoff="1.0000000000000000"/>
      <sparseX i="42" alpha="-11979.565250614642" sparseCutoff="1.0000000000000000"/>
      <sparseX i="43" alpha="-11824.855418107445" sparseCutoff="1.0000000000000000"/>
      <sparseX i="44" alpha="1331.9200305075992" sparseCutoff=".17051167556776381E-002"/>
      <sparseX i="45" alpha="8207.8065065532446" sparseCutoff="1.0000000000000000"/>
      <sparseX i="46" alpha="4203.5131227654256" sparseCutoff=".69016097488648886"/>
      <sparseX i="47" alpha="-69155.768361187947" sparseCutoff="1.0000000000000000"/>
      <sparseX i="48" alpha="5655.9388491367927" sparseCutoff=".96869591368368047"/>
      <sparseX i="49" alpha="-2910.0531989250189" sparseCutoff="1.0000000000000000"/>
      <sparseX i="50" alpha="6367.9795137966603" sparseCutoff=".13822980074532315"/>
      <sparseX i="51" alpha="-17554.637492823229" sparseCutoff="1.0000000000000000"/>
      <sparseX i="52" alpha="-9843.9304283220736" sparseCutoff="1.0000000000000000"/>
      <sparseX i="53" alpha="-7501.7303597039827" sparseCutoff="1.0000000000000000"/>
      <sparseX i="54" alpha="23060.086638332152" sparseCutoff="1.0000000000000000"/>
      <sparseX i="55" alpha="9687.5820225860116" sparseCutoff=".22944113666017174E-001"/>
      <sparseX i="56" alpha="-35577.130206474598" sparseCutoff="1.0000000000000000"/>
      <sparseX i="57" alpha="422.43634446559827" sparseCutoff=".49237973908289323E-003"/>
      <sparseX i="58" alpha="381.89357625394769" sparseCutoff="1.0000000000000000"/>
      <sparseX i="59" alpha="2989.5588546034460" sparseCutoff="1.0000000000000000"/>
      <sparseX i="60" alpha="23819.413922020467" sparseCutoff="1.0000000000000000"/>
      <sparseX i="61" alpha="-6916.2902995712320" sparseCutoff=".55921134751793766"/>
      <sparseX i="62" alpha="-10506.639235345914" sparseCutoff="1.0000000000000000"/>
      <sparseX i="63" alpha="32088.859706078383" sparseCutoff="1.0000000000000000"/>
      <sparseX i="64" alpha="-11457.764202495815" sparseCutoff="1.0000000000000000"/>
      <sparseX i="65" alpha="-38898.788679728168" sparseCutoff="1.0000000000000000"/>
      <sparseX i="66" alpha="51043.799913148068" sparseCutoff="1.0000000000000000"/>
      <sparseX i="67" alpha="-14137.398334952468" sparseCutoff="1.0000000000000000"/>
      <sparseX i="68" alpha="6742.1803966821008" sparseCutoff="1.0000000000000000"/>
      <sparseX i="69" alpha="-38649.189591856615" sparseCutoff="1.0000000000000000"/>
      <sparseX i="70" alpha="-13933.812444288596" sparseCutoff="1.0000000000000000"/>
      <sparseX i="71" alpha="21500.247830145174" sparseCutoff="1.0000000000000000"/>
      <sparseX i="72" alpha="-7471.1670834265469" sparseCutoff="1.0000000000000000"/>
      <sparseX i="73" alpha="-13404.923443815707" sparseCutoff=".42901023154765400"/>
      <sparseX i="74" alpha="5322.9200078552394" sparseCutoff="1.0000000000000000"/>
      <sparseX i="75" alpha="-25949.532822482426" sparseCutoff="1.0000000000000000"/>
      <sparseX i="76" alpha="14901.877411517900" sparseCutoff="1.0000000000000000"/>
      <sparseX i="77" alpha="-5241.8114584638361" sparseCutoff="1.0000000000000000"/>
      <sparseX i="78" alpha="-21402.597706162218" sparseCutoff="1.0000000000000000"/>
      <sparseX i="79" alpha="42868.774585657491" sparseCutoff="1.0000000000000000"/>
      <sparseX i="80" alpha="-18449.443261997767" sparseCutoff="1.0000000000000000"/>
      <sparseX i="81" alpha="33660.482902942880" sparseCutoff="1.0000000000000000"/>
      <sparseX i="82" alpha="16209.860978604169" sparseCutoff="1.0000000000000000"/>
      <sparseX i="83" alpha="-10754.571363133238" sparseCutoff="1.0000000000000000"/>
      <sparseX i="84" alpha="22544.001790242175" sparseCutoff="1.0000000000000000"/>
      <sparseX i="85" alpha="-13110.452374320179" sparseCutoff="1.0000000000000000"/>
      <sparseX i="86" alpha="-24220.524482840203" sparseCutoff="1.0000000000000000"/>
      <sparseX i="87" alpha="10057.249826484194" sparseCutoff="1.0000000000000000"/>
      <sparseX i="88" alpha="11259.734779457091" sparseCutoff="1.0000000000000000"/>
      <sparseX i="89" alpha="27848.799725896599" sparseCutoff="1.0000000000000000"/>
      <sparseX i="90" alpha="-49375.748706003156" sparseCutoff="1.0000000000000000"/>
      <sparseX i="91" alpha="-21700.675925214848" sparseCutoff="1.0000000000000000"/>
      <sparseX i="92" alpha="-35177.919524752950" sparseCutoff="1.0000000000000000"/>
      <sparseX i="93" alpha="31255.307702859107" sparseCutoff="1.0000000000000000"/>
      <sparseX i="94" alpha="-24722.716678075132" sparseCutoff="1.0000000000000000"/>
      <sparseX i="95" alpha="2705.9670602487790" sparseCutoff="1.0000000000000000"/>
      <sparseX i="96" alpha="15463.707572155074" sparseCutoff="1.0000000000000000"/>
      <sparseX i="97" alpha="-68183.559563502466" sparseCutoff="1.0000000000000000"/>
      <sparseX i="98" alpha="-50930.696963638802" sparseCutoff="1.0000000000000000"/>
      <sparseX i="99" alpha="-8647.2262387992523" sparseCutoff="1.0000000000000000"/>
      <sparseX i="100" alpha="131846.56578539804" sparseCutoff="1.0000000000000000"/>
    </gpCoordinates>
    <gpCoordinates label="GAP_2020_12_9_-360_0_11_59_7253" dimensions="1" signal_variance=".99000000000000005E-001" signal_mean=".00000000000000000E+000" sparsified="T" n_permutations="1" covariance_type="1" n_sparseX="100" sparseX_filename="gap_LiCl.xml.sparseX.GAP_2020_12_9_-360_0_11_59_7253" sparseX_md5sum="2d7eda542707822cc84a817055aec7b9">
      <theta>  0.10000000000000000E+001 </theta>
      <descriptor>distance_2b compact_clusters=T cutoff=6.7 n_sparse=100 cutoff_transition_width=1.0 sparse_method=uniform delta=0.099 covariance_type=ard_se theta_uniform=1             Z1=17 Z2=17</descriptor>
      <permutation i="1">1  </permutation>
      <sparseX i="1" alpha="3066.2315801292052" sparseCutoff=".22258780689059288E-001"/>
      <sparseX i="2" alpha="4605.5671464456318" sparseCutoff="1.0000000000000000"/>
      <sparseX i="3" alpha="5130.2292034411976" sparseCutoff=".20257140604089030"/>
      <sparseX i="4" alpha="7833.5449086932558" sparseCutoff="1.0000000000000000"/>
      <sparseX i="5" alpha="1055.7629303306644" sparseCutoff=".59332977914472451E-002"/>
      <sparseX i="6" alpha="-4661.2124013082848" sparseCutoff=".72659254755729230"/>
      <sparseX i="7" alpha="5400.0740656111766" sparseCutoff=".19261101557708760"/>
      <sparseX i="8" alpha="5216.2618871949826" sparseCutoff=".97371009583356793"/>
      <sparseX i="9" alpha="-5957.9073579763326" sparseCutoff="1.0000000000000000"/>
      <sparseX i="10" alpha="1111.6154899511639" sparseCutoff="1.0000000000000000"/>
      <sparseX i="11" alpha="6306.7420790509559" sparseCutoff=".85909867677671670E-001"/>
      <sparseX i="12" alpha="1574.9410498991720" sparseCutoff="1.0000000000000000"/>
      <sparseX i="13" alpha="3149.2293563352418" sparseCutoff="1.0000000000000000"/>
      <sparseX i="14" alpha="5797.5367158882545" sparseCutoff="1.0000000000000000"/>
      <sparseX i="15" alpha="-2080.5743455343154" sparseCutoff=".41320607613845645"/>
      <sparseX i="16" alpha="7853.4101316683264" sparseCutoff="1.0000000000000000"/>
      <sparseX i="17" alpha="3649.0041325634602" sparseCutoff="1.0000000000000000"/>
      <sparseX i="18" alpha="11048.239605277395" sparseCutoff="1.0000000000000000"/>
      <sparseX i="19" alpha="-8871.2079411696432" sparseCutoff="1.0000000000000000"/>
      <sparseX i="20" alpha="1488.7186633038505" sparseCutoff="1.0000000000000000"/>
      <sparseX i="21" alpha="-6215.1954958243023" sparseCutoff="1.0000000000000000"/>
      <sparseX i="22" alpha="39.446764902368322" sparseCutoff=".18090061442471717E-003"/>
      <sparseX i="23" alpha="-6674.6151451900350" sparseCutoff="1.0000000000000000"/>
      <sparseX i="24" alpha="4513.5895597417257" sparseCutoff="1.0000000000000000"/>
      <sparseX i="25" alpha="2490.7254510370626" sparseCutoff=".92028199547659917"/>
      <sparseX i="26" alpha="6555.6191519664799" sparseCutoff=".11297503383761592"/>
      <sparseX i="27" alpha="3478.5185943200931" sparseCutoff="1.0000000000000000"/>
      <sparseX i="28" alpha="10968.734562728081" sparseCutoff="1.0000000000000000"/>
      <sparseX i="29" alpha="6056.1890989541453" sparseCutoff=".99752019243946743"/>
      <sparseX i="30" alpha="-6451.2679406677426" sparseCutoff="1.0000000000000000"/>
      <sparseX i="31" alpha="919.13986250210849" sparseCutoff=".32565465801707383"/>
      <sparseX i="32" alpha="670.32978860538879" sparseCutoff=".33251414694876558"/>
      <sparseX i="33" alpha="-645.39908706833603" sparseCutoff="1.0000000000000000"/>
      <sparseX i="34" alpha="-5803.4043491567736" sparseCutoff="1.0000000000000000"/>
      <sparseX i="35" alpha="-13851.149596157171" sparseCutoff="1.0000000000000000"/>
      <sparseX i="36" alpha="-3705.5653547792267" sparseCutoff="1.0000000000000000"/>
      <sparseX i="37" alpha="-2487.6987777253416" sparseCutoff="1.0000000000000000"/>
      <sparseX i="38" alpha="216.27363552366995" sparseCutoff=".87351699405968763"/>
      <sparseX i="39" alpha="-4539.2244451127162" sparseCutoff="1.0000000000000000"/>
      <sparseX i="40" alpha="-2089.6158477824351" sparseCutoff=".81771194005099668"/>
      <sparseX i="41" alpha="5317.6675307819532" sparseCutoff="1.0000000000000000"/>
      <sparseX i="42" alpha="7522.5497683649437" sparseCutoff="1.0000000000000000"/>
      <sparseX i="43" alpha="7014.0343725318317" sparseCutoff="1.0000000000000000"/>
      <sparseX i="44" alpha="3690.8902482663730" sparseCutoff=".94353686170542328"/>
      <sparseX i="45" alpha="9502.5945090034820" sparseCutoff="1.0000000000000000"/>
      <sparseX i="46" alpha="-11867.429252822190" sparseCutoff="1.0000000000000000"/>
      <sparseX i="47" alpha="-1419.0518766668933" sparseCutoff="1.0000000000000000"/>
      <sparseX i="48" alpha="-13567.186211567376" sparseCutoff="1.0000000000000000"/>
      <sparseX i="49" alpha="-975.89058416498460" sparseCutoff="1.0000000000000000"/>
      <sparseX i="50" alpha="5400.5684962024707" sparseCutoff="1.0000000000000000"/>
      <sparseX i="51" alpha="4641.2472941384531" sparseCutoff=".42063651224663934E-001"/>
      <sparseX i="52" alpha="-6860.1224307382081" sparseCutoff="1.0000000000000000"/>
      <sparseX i="53" alpha="-2313.7476220643412" sparseCutoff="1.0000000000000000"/>
      <sparseX i="54" alpha="-6256.3501692335021" sparseCutoff="1.0000000000000000"/>
      <sparseX i="55" alpha="18995.202001686361" sparseCutoff="1.0000000000000000"/>
      <sparseX i="56" alpha="-2755.4013508358835" sparseCutoff="1.0000000000000000"/>
      <sparseX i="57" alpha="1482.0011990472924" sparseCutoff="1.0000000000000000"/>
      <sparseX i="58" alpha="-1336.2623013094794" sparseCutoff="1.0000000000000000"/>
      <sparseX i="59" alpha="-8124.0992383880493" sparseCutoff="1.0000000000000000"/>
      <sparseX i="60" alpha="-3222.9899123545292" sparseCutoff=".78396963425099742"/>
      <sparseX i="61" alpha="-4523.9914075594770" sparseCutoff=".50878319484361278"/>
      <sparseX i="62" alpha="4046.0499189982038" sparseCutoff="1.0000000000000000"/>
      <sparseX i="63" alpha="-2605.8297753179372" sparseCutoff="1.0000000000000000"/>
      <sparseX i="64" alpha="-4198.0289587400721" sparseCutoff="1.0000000000000000"/>
      <sparseX i="65" alpha="-4954.3484749297522" sparseCutoff="1.0000000000000000"/>
      <sparseX i="66" alpha="-14536.311500054719" sparseCutoff="1.0000000000000000"/>
      <sparseX i="67" alpha="10250.666097870720" sparseCutoff="1.0000000000000000"/>
      <sparseX i="68" alpha="7000.9309982891054" sparseCutoff="1.0000000000000000"/>
      <sparseX i="69" alpha="1886.8868164333107" sparseCutoff="1.0000000000000000"/>
      <sparseX i="70" alpha="8195.9439119789949" sparseCutoff="1.0000000000000000"/>
      <sparseX i="71" alpha="-4729.8329671953625" sparseCutoff="1.0000000000000000"/>
      <sparseX i="72" alpha="-4022.0007381726459" sparseCutoff="1.0000000000000000"/>
      <sparseX i="73" alpha="11344.337371429850" sparseCutoff="1.0000000000000000"/>
      <sparseX i="74" alpha="-11203.838057031593" sparseCutoff="1.0000000000000000"/>
      <sparseX i="75" alpha="7632.8737570186495" sparseCutoff="1.0000000000000000"/>
      <sparseX i="76" alpha="-8697.1599057949497" sparseCutoff="1.0000000000000000"/>
      <sparseX i="77" alpha="6364.0266056993514" sparseCutoff="1.0000000000000000"/>
      <sparseX i="78" alpha="-5626.7016690238424" sparseCutoff=".64337412928170212"/>
      <sparseX i="79" alpha="-8737.5017478580685" sparseCutoff="1.0000000000000000"/>
      <sparseX i="80" alpha="-5355.1682501967889" sparseCutoff=".56461083153179870"/>
      <sparseX i="81" alpha="-8240.6997396085262" sparseCutoff="1.0000000000000000"/>
      <sparseX i="82" alpha="12013.017812110122" sparseCutoff="1.0000000000000000"/>
      <sparseX i="83" alpha="-10628.459805070032" sparseCutoff="1.0000000000000000"/>
      <sparseX i="84" alpha="-5184.2450803640086" sparseCutoff="1.0000000000000000"/>
      <sparseX i="85" alpha="-9603.9401850989143" sparseCutoff="1.0000000000000000"/>
      <sparseX i="86" alpha="15711.632598658030" sparseCutoff="1.0000000000000000"/>
      <sparseX i="87" alpha="7285.7879778495499" sparseCutoff="1.0000000000000000"/>
      <sparseX i="88" alpha="18177.041912375964" sparseCutoff="1.0000000000000000"/>
      <sparseX i="89" alpha="15888.909322850728" sparseCutoff="1.0000000000000000"/>
      <sparseX i="90" alpha="12109.407877982205" sparseCutoff="1.0000000000000000"/>
      <sparseX i="91" alpha="594.39283497766962" sparseCutoff="1.0000000000000000"/>
      <sparseX i="92" alpha="-24338.456849043589" sparseCutoff="1.0000000000000000"/>
      <sparseX i="93" alpha="-5923.7314465973332" sparseCutoff="1.0000000000000000"/>
      <sparseX i="94" alpha="7621.6325967662133" sparseCutoff="1.0000000000000000"/>
      <sparseX i="95" alpha="-21630.396683403615" sparseCutoff="1.0000000000000000"/>
      <sparseX i="96" alpha="-27130.447991670051" sparseCutoff="1.0000000000000000"/>
      <sparseX i="97" alpha="47558.417999129531" sparseCutoff="1.0000000000000000"/>
      <sparseX i="98" alpha="-5062.1913652483463" sparseCutoff="1.0000000000000000"/>
      <sparseX i="99" alpha="-24649.853120262243" sparseCutoff="1.0000000000000000"/>
      <sparseX i="100" alpha="7639.8094827232171" sparseCutoff="1.0000000000000000"/>
    </gpCoordinates>
    <gpCoordinates label="GAP_2020_12_9_-360_0_11_59_7254" dimensions="331" signal_variance=".41999999999999998" signal_mean=".00000000000000000E+000" sparsified="T" n_permutations="1" covariance_type="2" zeta="4.0000000000000000" n_sparseX="500" sparseX_filename="gap_LiCl.xml.sparseX.GAP_2020_12_9_-360_0_11_59_7254" sparseX_md5sum="47dca7c52bb4f570d6725e39120595b5">
      <descriptor> soap cutoff=6.7 n_sparse=500 covariance_type=dot_product sparse_method=cur_points delta=0.42 zeta=4 l_max=5 n_max=5 atom_sigma=0.5 cutoff_transition_width=1.0             n_species=2 Z=3 species_Z={3 17 }</descriptor>
      <permutation i="1">1  </permutation>
      <sparseX i="1" alpha="51.006614481240220" sparseCutoff="1.0000000000000000"/>
      <sparseX i="2" alpha="38.301118235652012" sparseCutoff="1.0000000000000000"/>
      <sparseX i="3" alpha="-84.199426286906643" sparseCutoff="1.0000000000000000"/>
      <sparseX i="4" alpha="21.310517230769300" sparseCutoff="1.0000000000000000"/>
      <sparseX i="5" alpha="-165.24847849237051" sparseCutoff="1.0000000000000000"/>
      <sparseX i="6" alpha="-180.80060214822433" sparseCutoff="1.0000000000000000"/>
      <sparseX i="7" alpha="-15.260774998476345" sparseCutoff="1.0000000000000000"/>
      <sparseX i="8" alpha="316.35135693206740" sparseCutoff="1.0000000000000000"/>
      <sparseX i="9" alpha="-61.950130940282122" sparseCutoff="1.0000000000000000"/>
      <sparseX i="10" alpha="-82.071543136639690" sparseCutoff="1.0000000000000000"/>
      <sparseX i="11" alpha="-77.409045096888221" sparseCutoff="1.0000000000000000"/>
      <sparseX i="12" alpha="43.012803649762766" sparseCutoff="1.0000000000000000"/>
      <sparseX i="13" alpha="-268.63692639267805" sparseCutoff="1.0000000000000000"/>
      <sparseX i="14" alpha="-53.847611976592759" sparseCutoff="1.0000000000000000"/>
      <sparseX i="15" alpha="29.194902738040707" sparseCutoff="1.0000000000000000"/>
      <sparseX i="16" alpha="148.23786427936466" sparseCutoff="1.0000000000000000"/>
      <sparseX i="17" alpha="19.436616017677817" sparseCutoff="1.0000000000000000"/>
      <sparseX i="18" alpha="215.93363090727848" sparseCutoff="1.0000000000000000"/>
      <sparseX i="19" alpha="-2.0978496200432013" sparseCutoff="1.0000000000000000"/>
      <sparseX i="20" alpha="129.58029972016280" sparseCutoff="1.0000000000000000"/>
      <sparseX i="21" alpha="-124.17225571464635" sparseCutoff="1.0000000000000000"/>
      <sparseX i="22" alpha="-44.921473867020104" sparseCutoff="1.0000000000000000"/>
      <sparseX i="23" alpha="71.450896587952343" sparseCutoff="1.0000000000000000"/>
      <sparseX i="24" alpha="166.86404243305441" sparseCutoff="1.0000000000000000"/>
      <sparseX i="25" alpha="50.922173648642378" sparseCutoff="1.0000000000000000"/>
      <sparseX i="26" alpha="-58.499379256753379" sparseCutoff="1.0000000000000000"/>
      <sparseX i="27" alpha="-19.879545660431251" sparseCutoff="1.0000000000000000"/>
      <sparseX i="28" alpha="-54.102983974136713" sparseCutoff="1.0000000000000000"/>
      <sparseX i="29" alpha="19.202911037552084" sparseCutoff="1.0000000000000000"/>
      <sparseX i="30" alpha="3.3729513992949851" sparseCutoff="1.0000000000000000"/>
      <sparseX i="31" alpha="-89.563251690472157" sparseCutoff="1.0000000000000000"/>
      <sparseX i="32" alpha="-36.341628993255682" sparseCutoff="1.0000000000000000"/>
      <sparseX i="33" alpha="7.4101380563671526" sparseCutoff="1.0000000000000000"/>
      <sparseX i="34" alpha="88.383841381070226" sparseCutoff="1.0000000000000000"/>
      <sparseX i="35" alpha="-5.1358569829848122" sparseCutoff="1.0000000000000000"/>
      <sparseX i="36" alpha="-83.954838682423301" sparseCutoff="1.0000000000000000"/>
      <sparseX i="37" alpha="50.600117828562148" sparseCutoff="1.0000000000000000"/>
      <sparseX i="38" alpha="-25.790392290360277" sparseCutoff="1.0000000000000000"/>
      <sparseX i="39" alpha="50.857271749896007" sparseCutoff="1.0000000000000000"/>
      <sparseX i="40" alpha="44.579286816263796" sparseCutoff="1.0000000000000000"/>
      <sparseX i="41" alpha="-45.658277303668989" sparseCutoff="1.0000000000000000"/>
      <sparseX i="42" alpha="-82.413419168832320" sparseCutoff="1.0000000000000000"/>
      <sparseX i="43" alpha="-108.76005260474167" sparseCutoff="1.0000000000000000"/>
      <sparseX i="44" alpha="-9.4517250770812264" sparseCutoff="1.0000000000000000"/>
      <sparseX i="45" alpha="20.768180290309203" sparseCutoff="1.0000000000000000"/>
      <sparseX i="46" alpha="-190.53594151637083" sparseCutoff="1.0000000000000000"/>
      <sparseX i="47" alpha="18.663494289977734" sparseCutoff="1.0000000000000000"/>
      <sparseX i="48" alpha="81.116684785519837" sparseCutoff="1.0000000000000000"/>
      <sparseX i="49" alpha="-23.990398618830696" sparseCutoff="1.0000000000000000"/>
      <sparseX i="50" alpha="-32.873198191586660" sparseCutoff="1.0000000000000000"/>
      <sparseX i="51" alpha="-74.843406827026939" sparseCutoff="1.0000000000000000"/>
      <sparseX i="52" alpha="-28.232209232810273" sparseCutoff="1.0000000000000000"/>
      <sparseX i="53" alpha="141.70272650394946" sparseCutoff="1.0000000000000000"/>
      <sparseX i="54" alpha="5.5668001016441551" sparseCutoff="1.0000000000000000"/>
      <sparseX i="55" alpha="-73.022065079611025" sparseCutoff="1.0000000000000000"/>
      <sparseX i="56" alpha="-103.57018380919686" sparseCutoff="1.0000000000000000"/>
      <sparseX i="57" alpha="-119.57067794893831" sparseCutoff="1.0000000000000000"/>
      <sparseX i="58" alpha="185.43910515178828" sparseCutoff="1.0000000000000000"/>
      <sparseX i="59" alpha="-52.219621951453313" sparseCutoff="1.0000000000000000"/>
      <sparseX i="60" alpha="79.119327969402889" sparseCutoff="1.0000000000000000"/>
      <sparseX i="61" alpha="-154.51141074268284" sparseCutoff="1.0000000000000000"/>
      <sparseX i="62" alpha="-483.81549756985879" sparseCutoff="1.0000000000000000"/>
      <sparseX i="63" alpha="-332.59296799405479" sparseCutoff="1.0000000000000000"/>
      <sparseX i="64" alpha="-397.36524593674142" sparseCutoff="1.0000000000000000"/>
      <sparseX i="65" alpha="6.7188178952578950" sparseCutoff="1.0000000000000000"/>
      <sparseX i="66" alpha="-47.625303672329686" sparseCutoff="1.0000000000000000"/>
      <sparseX i="67" alpha="25.769723948437438" sparseCutoff="1.0000000000000000"/>
      <sparseX i="68" alpha="-62.056810257806191" sparseCutoff="1.0000000000000000"/>
      <sparseX i="69" alpha="-124.49957522745790" sparseCutoff="1.0000000000000000"/>
      <sparseX i="70" alpha="-88.771233375191855" sparseCutoff="1.0000000000000000"/>
      <sparseX i="71" alpha="86.628247490457284" sparseCutoff="1.0000000000000000"/>
      <sparseX i="72" alpha="-115.41324110555020" sparseCutoff="1.0000000000000000"/>
      <sparseX i="73" alpha="-90.444913623269144" sparseCutoff="1.0000000000000000"/>
      <sparseX i="74" alpha="75.782391730522491" sparseCutoff="1.0000000000000000"/>
      <sparseX i="75" alpha="-36.656893855939018" sparseCutoff="1.0000000000000000"/>
      <sparseX i="76" alpha="-332.45790288684924" sparseCutoff="1.0000000000000000"/>
      <sparseX i="77" alpha="162.95508943398031" sparseCutoff="1.0000000000000000"/>
      <sparseX i="78" alpha="124.51865405148034" sparseCutoff="1.0000000000000000"/>
      <sparseX i="79" alpha="-203.78725281307879" sparseCutoff="1.0000000000000000"/>
      <sparseX i="80" alpha="-39.976152876724065" sparseCutoff="1.0000000000000000"/>
      <sparseX i="81" alpha="117.76160979745907" sparseCutoff="1.0000000000000000"/>
      <sparseX i="82" alpha="-34.425224047468021" sparseCutoff="1.0000000000000000"/>
      <sparseX i="83" alpha="-6.3641109713465367" sparseCutoff="1.0000000000000000"/>
      <sparseX i="84" alpha="-7.9648862414123380" sparseCutoff="1.0000000000000000"/>
      <sparseX i="85" alpha="-33.192219699498423" sparseCutoff="1.0000000000000000"/>
      <sparseX i="86" alpha="20.869575915945141" sparseCutoff="1.0000000000000000"/>
      <sparseX i="87" alpha="72.837083538126194" sparseCutoff="1.0000000000000000"/>
      <sparseX i="88" alpha="-237.16737042326858" sparseCutoff="1.0000000000000000"/>
      <sparseX i="89" alpha="72.722635473811508" sparseCutoff="1.0000000000000000"/>
      <sparseX i="90" alpha="-19.570526494551718" sparseCutoff="1.0000000000000000"/>
      <sparseX i="91" alpha="121.97308747784172" sparseCutoff="1.0000000000000000"/>
      <sparseX i="92" alpha="100.27553018991753" sparseCutoff="1.0000000000000000"/>
      <sparseX i="93" alpha="92.461926572479982" sparseCutoff="1.0000000000000000"/>
      <sparseX i="94" alpha="41.317564640178659" sparseCutoff="1.0000000000000000"/>
      <sparseX i="95" alpha="-19.903535472896561" sparseCutoff="1.0000000000000000"/>
      <sparseX i="96" alpha="73.239598880708570" sparseCutoff="1.0000000000000000"/>
      <sparseX i="97" alpha="6.9418249463108994" sparseCutoff="1.0000000000000000"/>
      <sparseX i="98" alpha="88.255030845372588" sparseCutoff="1.0000000000000000"/>
      <sparseX i="99" alpha="-179.16373524274690" sparseCutoff="1.0000000000000000"/>
      <sparseX i="100" alpha="-13.788068423968017" sparseCutoff="1.0000000000000000"/>
      <sparseX i="101" alpha="-99.860194041924032" sparseCutoff="1.0000000000000000"/>
      <sparseX i="102" alpha="107.66019338914830" sparseCutoff="1.0000000000000000"/>
      <sparseX i="103" alpha="28.569940094844370" sparseCutoff="1.0000000000000000"/>
      <sparseX i="104" alpha="134.20711937283878" sparseCutoff="1.0000000000000000"/>
      <sparseX i="105" alpha="-35.470420941507953" sparseCutoff="1.0000000000000000"/>
      <sparseX i="106" alpha="-53.144865484033083" sparseCutoff="1.0000000000000000"/>
      <sparseX i="107" alpha="8.7784319091015828" sparseCutoff="1.0000000000000000"/>
      <sparseX i="108" alpha="51.936352796603394" sparseCutoff="1.0000000000000000"/>
      <sparseX i="109" alpha="-113.97054462188441" sparseCutoff="1.0000000000000000"/>
      <sparseX i="110" alpha="253.65383691386492" sparseCutoff="1.0000000000000000"/>
      <sparseX i="111" alpha="100.85705911993927" sparseCutoff="1.0000000000000000"/>
      <sparseX i="112" alpha="-88.266266557871901" sparseCutoff="1.0000000000000000"/>
      <sparseX i="113" alpha="122.48946950192847" sparseCutoff="1.0000000000000000"/>
      <sparseX i="114" alpha="26.121797196699212" sparseCutoff="1.0000000000000000"/>
      <sparseX i="115" alpha="122.98594617446390" sparseCutoff="1.0000000000000000"/>
      <sparseX i="116" alpha="-13.784438737618872" sparseCutoff="1.0000000000000000"/>
      <sparseX i="117" alpha="-66.930142478395425" sparseCutoff="1.0000000000000000"/>
      <sparseX i="118" alpha="153.93504330136363" sparseCutoff="1.0000000000000000"/>
      <sparseX i="119" alpha="212.08948213513830" sparseCutoff="1.0000000000000000"/>
      <sparseX i="120" alpha="-220.73554090010316" sparseCutoff="1.0000000000000000"/>
      <sparseX i="121" alpha="-10.798374938917084" sparseCutoff="1.0000000000000000"/>
      <sparseX i="122" alpha="-27.471273272607490" sparseCutoff="1.0000000000000000"/>
      <sparseX i="123" alpha="-39.202203253815263" sparseCutoff="1.0000000000000000"/>
      <sparseX i="124" alpha="-6.9273900509943562" sparseCutoff="1.0000000000000000"/>
      <sparseX i="125" alpha="8.6132403667321995" sparseCutoff="1.0000000000000000"/>
      <sparseX i="126" alpha="21.266899963062851" sparseCutoff="1.0000000000000000"/>
      <sparseX i="127" alpha="-.50123327705707399" sparseCutoff="1.0000000000000000"/>
      <sparseX i="128" alpha="-17.981697111182932" sparseCutoff="1.0000000000000000"/>
      <sparseX i="129" alpha="121.66869302244386" sparseCutoff="1.0000000000000000"/>
      <sparseX i="130" alpha="-80.530667903318502" sparseCutoff="1.0000000000000000"/>
      <sparseX i="131" alpha="-29.829609884904134" sparseCutoff="1.0000000000000000"/>
      <sparseX i="132" alpha="16.903019953172333" sparseCutoff="1.0000000000000000"/>
      <sparseX i="133" alpha="-92.327249519852074" sparseCutoff="1.0000000000000000"/>
      <sparseX i="134" alpha="388.45456063351548" sparseCutoff="1.0000000000000000"/>
      <sparseX i="135" alpha="-54.238872740031873" sparseCutoff="1.0000000000000000"/>
      <sparseX i="136" alpha="-25.316620050405401" sparseCutoff="1.0000000000000000"/>
      <sparseX i="137" alpha="157.89072334574308" sparseCutoff="1.0000000000000000"/>
      <sparseX i="138" alpha="31.546174755677022" sparseCutoff="1.0000000000000000"/>
      <sparseX i="139" alpha="-14.425763141841690" sparseCutoff="1.0000000000000000"/>
      <sparseX i="140" alpha="-6.2752723834202344" sparseCutoff="1.0000000000000000"/>
      <sparseX i="141" alpha="-57.834900285282963" sparseCutoff="1.0000000000000000"/>
      <sparseX i="142" alpha="-48.161327435718874" sparseCutoff="1.0000000000000000"/>
      <sparseX i="143" alpha="-19.739048825946412" sparseCutoff="1.0000000000000000"/>
      <sparseX i="144" alpha="20.174429974894185" sparseCutoff="1.0000000000000000"/>
      <sparseX i="145" alpha="41.025441190060540" sparseCutoff="1.0000000000000000"/>
      <sparseX i="146" alpha="-147.01682934770798" sparseCutoff="1.0000000000000000"/>
      <sparseX i="147" alpha="-242.46322257047066" sparseCutoff="1.0000000000000000"/>
      <sparseX i="148" alpha="-69.448476441865907" sparseCutoff="1.0000000000000000"/>
      <sparseX i="149" alpha="38.298295934427607" sparseCutoff="1.0000000000000000"/>
      <sparseX i="150" alpha="-273.15332498208994" sparseCutoff="1.0000000000000000"/>
      <sparseX i="151" alpha="-106.04852547086716" sparseCutoff="1.0000000000000000"/>
      <sparseX i="152" alpha="139.57517053733918" sparseCutoff="1.0000000000000000"/>
      <sparseX i="153" alpha="-32.454755963859554" sparseCutoff="1.0000000000000000"/>
      <sparseX i="154" alpha="-5.0520029082230122" sparseCutoff="1.0000000000000000"/>
      <sparseX i="155" alpha="9.4664017286871367" sparseCutoff="1.0000000000000000"/>
      <sparseX i="156" alpha="-141.10719083054261" sparseCutoff="1.0000000000000000"/>
      <sparseX i="157" alpha="-180.40613655592301" sparseCutoff="1.0000000000000000"/>
      <sparseX i="158" alpha="-125.57154552215835" sparseCutoff="1.0000000000000000"/>
      <sparseX i="159" alpha="-152.00437011181143" sparseCutoff="1.0000000000000000"/>
      <sparseX i="160" alpha="-71.519084034577034" sparseCutoff="1.0000000000000000"/>
      <sparseX i="161" alpha="11.488573611395543" sparseCutoff="1.0000000000000000"/>
      <sparseX i="162" alpha="-79.297634123926159" sparseCutoff="1.0000000000000000"/>
      <sparseX i="163" alpha="21.279722444530396" sparseCutoff="1.0000000000000000"/>
      <sparseX i="164" alpha="-1.5458737737435262" sparseCutoff="1.0000000000000000"/>
      <sparseX i="165" alpha="-164.09592176659331" sparseCutoff="1.0000000000000000"/>
      <sparseX i="166" alpha="-118.04391472772730" sparseCutoff="1.0000000000000000"/>
      <sparseX i="167" alpha="20.389625614020890" sparseCutoff="1.0000000000000000"/>
      <sparseX i="168" alpha="-50.527206397938642" sparseCutoff="1.0000000000000000"/>
      <sparseX i="169" alpha="52.512753647769728" sparseCutoff="1.0000000000000000"/>
      <sparseX i="170" alpha="-14.523438152103562" sparseCutoff="1.0000000000000000"/>
      <sparseX i="171" alpha="-93.800306963185335" sparseCutoff="1.0000000000000000"/>
      <sparseX i="172" alpha="-5.8840613655909131" sparseCutoff="1.0000000000000000"/>
      <sparseX i="173" alpha="14.764589376041419" sparseCutoff="1.0000000000000000"/>
      <sparseX i="174" alpha="90.921850951702424" sparseCutoff="1.0000000000000000"/>
      <sparseX i="175" alpha="-86.595456626888577" sparseCutoff="1.0000000000000000"/>
      <sparseX i="176" alpha="-11.662133045035461" sparseCutoff="1.0000000000000000"/>
      <sparseX i="177" alpha="73.206508632688070" sparseCutoff="1.0000000000000000"/>
      <sparseX i="178" alpha="161.26166320900558" sparseCutoff="1.0000000000000000"/>
      <sparseX i="179" alpha="-111.59100703543068" sparseCutoff="1.0000000000000000"/>
      <sparseX i="180" alpha="22.693942950582450" sparseCutoff="1.0000000000000000"/>
      <sparseX i="181" alpha="-157.68612726027317" sparseCutoff="1.0000000000000000"/>
      <sparseX i="182" alpha="124.30414987704702" sparseCutoff="1.0000000000000000"/>
      <sparseX i="183" alpha="132.21993799653620" sparseCutoff="1.0000000000000000"/>
      <sparseX i="184" alpha="57.908127046510842" sparseCutoff="1.0000000000000000"/>
      <sparseX i="185" alpha="53.914848965844868" sparseCutoff="1.0000000000000000"/>
      <sparseX i="186" alpha="134.35504767915927" sparseCutoff="1.0000000000000000"/>
      <sparseX i="187" alpha="75.930665354274950" sparseCutoff="1.0000000000000000"/>
      <sparseX i="188" alpha="-156.97314807082975" sparseCutoff="1.0000000000000000"/>
      <sparseX i="189" alpha="173.66785500575102" sparseCutoff="1.0000000000000000"/>
      <sparseX i="190" alpha="69.831828946631703" sparseCutoff="1.0000000000000000"/>
      <sparseX i="191" alpha="38.279144394400085" sparseCutoff="1.0000000000000000"/>
      <sparseX i="192" alpha="79.759849271816748" sparseCutoff="1.0000000000000000"/>
      <sparseX i="193" alpha="44.740803278031834" sparseCutoff="1.0000000000000000"/>
      <sparseX i="194" alpha="-124.86228783799163" sparseCutoff="1.0000000000000000"/>
      <sparseX i="195" alpha="34.093062284734842" sparseCutoff="1.0000000000000000"/>
      <sparseX i="196" alpha="135.78777529783508" sparseCutoff="1.0000000000000000"/>
      <sparseX i="197" alpha="9.4810108955171906" sparseCutoff="1.0000000000000000"/>
      <sparseX i="198" alpha="-39.070041810367051" sparseCutoff="1.0000000000000000"/>
      <sparseX i="199" alpha="-42.466481577651699" sparseCutoff="1.0000000000000000"/>
      <sparseX i="200" alpha="-212.57004320473979" sparseCutoff="1.0000000000000000"/>
      <sparseX i="201" alpha="68.712101502804416" sparseCutoff="1.0000000000000000"/>
      <sparseX i="202" alpha="28.962483085414807" sparseCutoff="1.0000000000000000"/>
      <sparseX i="203" alpha="79.898802525276722" sparseCutoff="1.0000000000000000"/>
      <sparseX i="204" alpha="84.327635341951407" sparseCutoff="1.0000000000000000"/>
      <sparseX i="205" alpha="-77.323444330865442" sparseCutoff="1.0000000000000000"/>
      <sparseX i="206" alpha="-98.388661990550247" sparseCutoff="1.0000000000000000"/>
      <sparseX i="207" alpha="-55.905352825717372" sparseCutoff="1.0000000000000000"/>
      <sparseX i="208" alpha="127.29133020852819" sparseCutoff="1.0000000000000000"/>
      <sparseX i="209" alpha="96.591629394488521" sparseCutoff="1.0000000000000000"/>
      <sparseX i="210" alpha="2.6626464289003700" sparseCutoff="1.0000000000000000"/>
      <sparseX i="211" alpha="-9.4345881295171488" sparseCutoff="1.0000000000000000"/>
      <sparseX i="212" alpha="140.09102523261566" sparseCutoff="1.0000000000000000"/>
      <sparseX i="213" alpha="320.61112080109552" sparseCutoff="1.0000000000000000"/>
      <sparseX i="214" alpha="139.32628839371691" sparseCutoff="1.0000000000000000"/>
      <sparseX i="215" alpha="-33.176483228220661" sparseCutoff="1.0000000000000000"/>
      <sparseX i="216" alpha="35.389555336293768" sparseCutoff="1.0000000000000000"/>
      <sparseX i="217" alpha="-.64192579441587613E-001" sparseCutoff="1.0000000000000000"/>
      <sparseX i="218" alpha="-95.346407736380002" sparseCutoff="1.0000000000000000"/>
      <sparseX i="219" alpha="-83.550724119101943" sparseCutoff="1.0000000000000000"/>
      <sparseX i="220" alpha="-115.35191425634019" sparseCutoff="1.0000000000000000"/>
      <sparseX i="221" alpha="-90.339917461894089" sparseCutoff="1.0000000000000000"/>
      <sparseX i="222" alpha="79.849506707451113" sparseCutoff="1.0000000000000000"/>
      <sparseX i="223" alpha="67.216395592325014" sparseCutoff="1.0000000000000000"/>
      <sparseX i="224" alpha="37.993831686771479" sparseCutoff="1.0000000000000000"/>
      <sparseX i="225" alpha="88.732499855477130" sparseCutoff="1.0000000000000000"/>
      <sparseX i="226" alpha="104.23767909905540" sparseCutoff="1.0000000000000000"/>
      <sparseX i="227" alpha="-81.977431884875102" sparseCutoff="1.0000000000000000"/>
      <sparseX i="228" alpha="-63.846731414407529" sparseCutoff="1.0000000000000000"/>
      <sparseX i="229" alpha="-50.375127274610399" sparseCutoff="1.0000000000000000"/>
      <sparseX i="230" alpha="71.381283999311918" sparseCutoff="1.0000000000000000"/>
      <sparseX i="231" alpha="-9.4836705573351860" sparseCutoff="1.0000000000000000"/>
      <sparseX i="232" alpha="1.5178138427653749" sparseCutoff="1.0000000000000000"/>
      <sparseX i="233" alpha="-116.68836131298127" sparseCutoff="1.0000000000000000"/>
      <sparseX i="234" alpha="-7.0273211805235851" sparseCutoff="1.0000000000000000"/>
      <sparseX i="235" alpha="15.022459097891451" sparseCutoff="1.0000000000000000"/>
      <sparseX i="236" alpha="159.80574280478626" sparseCutoff="1.0000000000000000"/>
      <sparseX i="237" alpha="29.732434593229389" sparseCutoff="1.0000000000000000"/>
      <sparseX i="238" alpha="-83.000911981391511" sparseCutoff="1.0000000000000000"/>
      <sparseX i="239" alpha="71.259475348552456" sparseCutoff="1.0000000000000000"/>
      <sparseX i="240" alpha="18.634063309084272" sparseCutoff="1.0000000000000000"/>
      <sparseX i="241" alpha="-5.2704399618173978" sparseCutoff="1.0000000000000000"/>
      <sparseX i="242" alpha="22.996342690352627" sparseCutoff="1.0000000000000000"/>
      <sparseX i="243" alpha="86.655580318570486" sparseCutoff="1.0000000000000000"/>
      <sparseX i="244" alpha="104.38575835418797" sparseCutoff="1.0000000000000000"/>
      <sparseX i="245" alpha="115.24100927982292" sparseCutoff="1.0000000000000000"/>
      <sparseX i="246" alpha="-7.3893801346010139" sparseCutoff="1.0000000000000000"/>
      <sparseX i="247" alpha="-90.901929517055891" sparseCutoff="1.0000000000000000"/>
      <sparseX i="248" alpha="98.738898774445303" sparseCutoff="1.0000000000000000"/>
      <sparseX i="249" alpha="37.171082110353417" sparseCutoff="1.0000000000000000"/>
      <sparseX i="250" alpha="-16.220415181055337" sparseCutoff="1.0000000000000000"/>
      <sparseX i="251" alpha="-141.83929708820855" sparseCutoff="1.0000000000000000"/>
      <sparseX i="252" alpha="-.53145258217129920" sparseCutoff="1.0000000000000000"/>
      <sparseX i="253" alpha="69.501324232836907" sparseCutoff="1.0000000000000000"/>
      <sparseX i="254" alpha="79.180794244139221" sparseCutoff="1.0000000000000000"/>
      <sparseX i="255" alpha="128.97747672839176" sparseCutoff="1.0000000000000000"/>
      <sparseX i="256" alpha="-87.652941530706840" sparseCutoff="1.0000000000000000"/>
      <sparseX i="257" alpha="-13.899229728338272" sparseCutoff="1.0000000000000000"/>
      <sparseX i="258" alpha="-94.571419323461384" sparseCutoff="1.0000000000000000"/>
      <sparseX i="259" alpha="189.80443347678542" sparseCutoff="1.0000000000000000"/>
      <sparseX i="260" alpha="25.557979946772299" sparseCutoff="1.0000000000000000"/>
      <sparseX i="261" alpha="-10.979479022588436" sparseCutoff="1.0000000000000000"/>
      <sparseX i="262" alpha="90.709256882822331" sparseCutoff="1.0000000000000000"/>
      <sparseX i="263" alpha="77.427687988608582" sparseCutoff="1.0000000000000000"/>
      <sparseX i="264" alpha="-184.21452383327374" sparseCutoff="1.0000000000000000"/>
      <sparseX i="265" alpha="21.142789718840046" sparseCutoff="1.0000000000000000"/>
      <sparseX i="266" alpha="17.329963787473137" sparseCutoff="1.0000000000000000"/>
      <sparseX i="267" alpha="70.054730562696278" sparseCutoff="1.0000000000000000"/>
      <sparseX i="268" alpha="39.915070135673325" sparseCutoff="1.0000000000000000"/>
      <sparseX i="269" alpha="77.314066557476764" sparseCutoff="1.0000000000000000"/>
      <sparseX i="270" alpha="-16.192912008333643" sparseCutoff="1.0000000000000000"/>
      <sparseX i="271" alpha="-38.366063579294647" sparseCutoff="1.0000000000000000"/>
      <sparseX i="272" alpha="-36.413429286060328" sparseCutoff="1.0000000000000000"/>
      <sparseX i="273" alpha="-72.698968221968371" sparseCutoff="1.0000000000000000"/>
      <sparseX i="274" alpha="21.483833196414874" sparseCutoff="1.0000000000000000"/>
      <sparseX i="275" alpha="116.85384072498242" sparseCutoff="1.0000000000000000"/>
      <sparseX i="276" alpha="-50.032076533012770" sparseCutoff="1.0000000000000000"/>
      <sparseX i="277" alpha="57.004025571100335" sparseCutoff="1.0000000000000000"/>
      <sparseX i="278" alpha="-29.028099510242917" sparseCutoff="1.0000000000000000"/>
      <sparseX i="279" alpha="174.44744825614922" sparseCutoff="1.0000000000000000"/>
      <sparseX i="280" alpha="-114.25851964828806" sparseCutoff="1.0000000000000000"/>
      <sparseX i="281" alpha="20.108281793029473" sparseCutoff="1.0000000000000000"/>
      <sparseX i="282" alpha="58.395508218339820" sparseCutoff="1.0000000000000000"/>
      <sparseX i="283" alpha="71.381885151528707" sparseCutoff="1.0000000000000000"/>
      <sparseX i="284" alpha="36.164288175927389" sparseCutoff="1.0000000000000000"/>
      <sparseX i="285" alpha="-49.914905170630128" sparseCutoff="1.0000000000000000"/>
      <sparseX i="286" alpha="172.04324616048154" sparseCutoff="1.0000000000000000"/>
      <sparseX i="287" alpha="136.06513056272937" sparseCutoff="1.0000000000000000"/>
      <sparseX i="288" alpha="-300.87501159297500" sparseCutoff="1.0000000000000000"/>
      <sparseX i="289" alpha="-13.757682817106113" sparseCutoff="1.0000000000000000"/>
      <sparseX i="290" alpha="14.029709342515142" sparseCutoff="1.0000000000000000"/>
      <sparseX i="291" alpha="-146.53918888914899" sparseCutoff="1.0000000000000000"/>
      <sparseX i="292" alpha="30.321584991155966" sparseCutoff="1.0000000000000000"/>
      <sparseX i="293" alpha="90.230573723549668" sparseCutoff="1.0000000000000000"/>
      <sparseX i="294" alpha="-2.2948136457372299" sparseCutoff="1.0000000000000000"/>
      <sparseX i="295" alpha="148.98526067322865" sparseCutoff="1.0000000000000000"/>
      <sparseX i="296" alpha="161.25385853138522" sparseCutoff="1.0000000000000000"/>
      <sparseX i="297" alpha="-17.941816720530511" sparseCutoff="1.0000000000000000"/>
      <sparseX i="298" alpha="168.86771094491624" sparseCutoff="1.0000000000000000"/>
      <sparseX i="299" alpha="-202.06158636911911" sparseCutoff="1.0000000000000000"/>
      <sparseX i="300" alpha="57.362597850503526" sparseCutoff="1.0000000000000000"/>
      <sparseX i="301" alpha="-117.59651854507808" sparseCutoff="1.0000000000000000"/>
      <sparseX i="302" alpha="382.55583184419760" sparseCutoff="1.0000000000000000"/>
      <sparseX i="303" alpha="-165.07400424143196" sparseCutoff="1.0000000000000000"/>
      <sparseX i="304" alpha="27.011039929774832" sparseCutoff="1.0000000000000000"/>
      <sparseX i="305" alpha="-165.19094095128466" sparseCutoff="1.0000000000000000"/>
      <sparseX i="306" alpha="79.113332396900233" sparseCutoff="1.0000000000000000"/>
      <sparseX i="307" alpha="106.86362315483488" sparseCutoff="1.0000000000000000"/>
      <sparseX i="308" alpha="30.899604702542419" sparseCutoff="1.0000000000000000"/>
      <sparseX i="309" alpha="-252.94095521048953" sparseCutoff="1.0000000000000000"/>
      <sparseX i="310" alpha="261.08534209727867" sparseCutoff="1.0000000000000000"/>
      <sparseX i="311" alpha="171.00508065168071" sparseCutoff="1.0000000000000000"/>
      <sparseX i="312" alpha="140.99157004389815" sparseCutoff="1.0000000000000000"/>
      <sparseX i="313" alpha="-60.081922855495506" sparseCutoff="1.0000000000000000"/>
      <sparseX i="314" alpha="-51.488756095931677" sparseCutoff="1.0000000000000000"/>
      <sparseX i="315" alpha="-140.02747878347378" sparseCutoff="1.0000000000000000"/>
      <sparseX i="316" alpha="46.650405650120732" sparseCutoff="1.0000000000000000"/>
      <sparseX i="317" alpha="13.088814970045478" sparseCutoff="1.0000000000000000"/>
      <sparseX i="318" alpha="-67.640096875772485" sparseCutoff="1.0000000000000000"/>
      <sparseX i="319" alpha="119.42456375345849" sparseCutoff="1.0000000000000000"/>
      <sparseX i="320" alpha="82.498096993956679" sparseCutoff="1.0000000000000000"/>
      <sparseX i="321" alpha="-93.356431555412527" sparseCutoff="1.0000000000000000"/>
      <sparseX i="322" alpha="192.16854545608643" sparseCutoff="1.0000000000000000"/>
      <sparseX i="323" alpha="-64.967529610252910" sparseCutoff="1.0000000000000000"/>
      <sparseX i="324" alpha="49.141709706401556" sparseCutoff="1.0000000000000000"/>
      <sparseX i="325" alpha="179.20165059396336" sparseCutoff="1.0000000000000000"/>
      <sparseX i="326" alpha="-226.13672720358207" sparseCutoff="1.0000000000000000"/>
      <sparseX i="327" alpha="-204.34863807625305" sparseCutoff="1.0000000000000000"/>
      <sparseX i="328" alpha="148.73028557724516" sparseCutoff="1.0000000000000000"/>
      <sparseX i="329" alpha="130.86869994135810" sparseCutoff="1.0000000000000000"/>
      <sparseX i="330" alpha="-236.67338692097491" sparseCutoff="1.0000000000000000"/>
      <sparseX i="331" alpha="47.189724893182380" sparseCutoff="1.0000000000000000"/>
      <sparseX i="332" alpha="57.265734909122351" sparseCutoff="1.0000000000000000"/>
      <sparseX i="333" alpha="-94.446926036331362" sparseCutoff="1.0000000000000000"/>
      <sparseX i="334" alpha="-117.37838946850610" sparseCutoff="1.0000000000000000"/>
      <sparseX i="335" alpha="-52.066811213916353" sparseCutoff="1.0000000000000000"/>
      <sparseX i="336" alpha="-60.105592122741442" sparseCutoff="1.0000000000000000"/>
      <sparseX i="337" alpha="241.36049181741117" sparseCutoff="1.0000000000000000"/>
      <sparseX i="338" alpha="74.823666489742067" sparseCutoff="1.0000000000000000"/>
      <sparseX i="339" alpha="-64.900632015607570" sparseCutoff="1.0000000000000000"/>
      <sparseX i="340" alpha="28.129757884886697" sparseCutoff="1.0000000000000000"/>
      <sparseX i="341" alpha="-47.726305760102207" sparseCutoff="1.0000000000000000"/>
      <sparseX i="342" alpha="62.565188169421425" sparseCutoff="1.0000000000000000"/>
      <sparseX i="343" alpha="102.09316284790974" sparseCutoff="1.0000000000000000"/>
      <sparseX i="344" alpha="-51.267624080287924" sparseCutoff="1.0000000000000000"/>
      <sparseX i="345" alpha="36.033308287469282" sparseCutoff="1.0000000000000000"/>
      <sparseX i="346" alpha="-26.359201679378344" sparseCutoff="1.0000000000000000"/>
      <sparseX i="347" alpha="102.55704312456812" sparseCutoff="1.0000000000000000"/>
      <sparseX i="348" alpha="42.505659615365410" sparseCutoff="1.0000000000000000"/>
      <sparseX i="349" alpha="-59.657163728565223" sparseCutoff="1.0000000000000000"/>
      <sparseX i="350" alpha="158.91773041089414" sparseCutoff="1.0000000000000000"/>
      <sparseX i="351" alpha="321.79387168718898" sparseCutoff="1.0000000000000000"/>
      <sparseX i="352" alpha="47.052566298014156" sparseCutoff="1.0000000000000000"/>
      <sparseX i="353" alpha="-244.40883910308716" sparseCutoff="1.0000000000000000"/>
      <sparseX i="354" alpha="-213.44876988773927" sparseCutoff="1.0000000000000000"/>
      <sparseX i="355" alpha="63.549121504098821" sparseCutoff="1.0000000000000000"/>
      <sparseX i="356" alpha="24.949017492166750" sparseCutoff="1.0000000000000000"/>
      <sparseX i="357" alpha="88.442011581339287" sparseCutoff="1.0000000000000000"/>
      <sparseX i="358" alpha="9.9999771717593013" sparseCutoff="1.0000000000000000"/>
      <sparseX i="359" alpha="201.63336296094934" sparseCutoff="1.0000000000000000"/>
      <sparseX i="360" alpha="102.10063883978289" sparseCutoff="1.0000000000000000"/>
      <sparseX i="361" alpha="-64.067994527720529" sparseCutoff="1.0000000000000000"/>
      <sparseX i="362" alpha="-15.877010359020273" sparseCutoff="1.0000000000000000"/>
      <sparseX i="363" alpha="9.6321075050079443" sparseCutoff="1.0000000000000000"/>
      <sparseX i="364" alpha="13.828546506417577" sparseCutoff="1.0000000000000000"/>
      <sparseX i="365" alpha="79.719684117813188" sparseCutoff="1.0000000000000000"/>
      <sparseX i="366" alpha="148.16190398219979" sparseCutoff="1.0000000000000000"/>
      <sparseX i="367" alpha="-164.97098997109697" sparseCutoff="1.0000000000000000"/>
      <sparseX i="368" alpha="100.88354589100611" sparseCutoff="1.0000000000000000"/>
      <sparseX i="369" alpha="18.128476460680318" sparseCutoff="1.0000000000000000"/>
      <sparseX i="370" alpha="-56.746951088979046" sparseCutoff="1.0000000000000000"/>
      <sparseX i="371" alpha="55.043173433450008" sparseCutoff="1.0000000000000000"/>
      <sparseX i="372" alpha="47.749996975899180" sparseCutoff="1.0000000000000000"/>
      <sparseX i="373" alpha="-11.835893584312803" sparseCutoff="1.0000000000000000"/>
      <sparseX i="374" alpha="-117.98256772376493" sparseCutoff="1.0000000000000000"/>
      <sparseX i="375" alpha="-12.753645409508863" sparseCutoff="1.0000000000000000"/>
      <sparseX i="376" alpha="-48.648275890607557" sparseCutoff="1.0000000000000000"/>
      <sparseX i="377" alpha="99.129514149306786" sparseCutoff="1.0000000000000000"/>
      <sparseX i="378" alpha="-165.54460422830601" sparseCutoff="1.0000000000000000"/>
      <sparseX i="379" alpha="53.407809964604226" sparseCutoff="1.0000000000000000"/>
      <sparseX i="380" alpha="-12.317667059612754" sparseCutoff="1.0000000000000000"/>
      <sparseX i="381" alpha="5.6891643806840726" sparseCutoff="1.0000000000000000"/>
      <sparseX i="382" alpha="115.34898264068427" sparseCutoff="1.0000000000000000"/>
      <sparseX i="383" alpha="-18.667396835257126" sparseCutoff="1.0000000000000000"/>
      <sparseX i="384" alpha="63.794968715376676" sparseCutoff="1.0000000000000000"/>
      <sparseX i="385" alpha="-79.546370126675939" sparseCutoff="1.0000000000000000"/>
      <sparseX i="386" alpha="-2.3012540578014802" sparseCutoff="1.0000000000000000"/>
      <sparseX i="387" alpha="-20.699072456752560" sparseCutoff="1.0000000000000000"/>
      <sparseX i="388" alpha="3.9622722927219920" sparseCutoff="1.0000000000000000"/>
      <sparseX i="389" alpha="49.356547616360487" sparseCutoff="1.0000000000000000"/>
      <sparseX i="390" alpha="108.67139694114368" sparseCutoff="1.0000000000000000"/>
      <sparseX i="391" alpha="-286.65009890027807" sparseCutoff="1.0000000000000000"/>
      <sparseX i="392" alpha="-65.350144911400463" sparseCutoff="1.0000000000000000"/>
      <sparseX i="393" alpha="-160.80243078020371" sparseCutoff="1.0000000000000000"/>
      <sparseX i="394" alpha="-19.874329195305780" sparseCutoff="1.0000000000000000"/>
      <sparseX i="395" alpha="-41.404781251918678" sparseCutoff="1.0000000000000000"/>
      <sparseX i="396" alpha="-78.667868274798877" sparseCutoff="1.0000000000000000"/>
      <sparseX i="397" alpha="59.348846789356834" sparseCutoff="1.0000000000000000"/>
      <sparseX i="398" alpha="-63.977696539383182" sparseCutoff="1.0000000000000000"/>
      <sparseX i="399" alpha="57.848951005026422" sparseCutoff="1.0000000000000000"/>
      <sparseX i="400" alpha="66.834786084954303" sparseCutoff="1.0000000000000000"/>
      <sparseX i="401" alpha="-144.39932019586573" sparseCutoff="1.0000000000000000"/>
      <sparseX i="402" alpha="-91.038051603078259" sparseCutoff="1.0000000000000000"/>
      <sparseX i="403" alpha="66.899954971003069" sparseCutoff="1.0000000000000000"/>
      <sparseX i="404" alpha="-16.179329344664893" sparseCutoff="1.0000000000000000"/>
      <sparseX i="405" alpha="24.013292569002129" sparseCutoff="1.0000000000000000"/>
      <sparseX i="406" alpha="-95.585331682255699" sparseCutoff="1.0000000000000000"/>
      <sparseX i="407" alpha="178.67166041334031" sparseCutoff="1.0000000000000000"/>
      <sparseX i="408" alpha="-2.7603495069074473" sparseCutoff="1.0000000000000000"/>
      <sparseX i="409" alpha="21.244054672942756" sparseCutoff="1.0000000000000000"/>
      <sparseX i="410" alpha="62.394548457543323" sparseCutoff="1.0000000000000000"/>
      <sparseX i="411" alpha="-6.8019479657449002" sparseCutoff="1.0000000000000000"/>
      <sparseX i="412" alpha="-10.183606458000448" sparseCutoff="1.0000000000000000"/>
      <sparseX i="413" alpha="-85.651991121916694" sparseCutoff="1.0000000000000000"/>
      <sparseX i="414" alpha="56.619750892212025" sparseCutoff="1.0000000000000000"/>
      <sparseX i="415" alpha="-9.4714949268631798" sparseCutoff="1.0000000000000000"/>
      <sparseX i="416" alpha="-31.887169545076766" sparseCutoff="1.0000000000000000"/>
      <sparseX i="417" alpha="50.863525161718876" sparseCutoff="1.0000000000000000"/>
      <sparseX i="418" alpha="40.665771952026255" sparseCutoff="1.0000000000000000"/>
      <sparseX i="419" alpha="5.6990159149161128" sparseCutoff="1.0000000000000000"/>
      <sparseX i="420" alpha="-27.122742654480799" sparseCutoff="1.0000000000000000"/>
      <sparseX i="421" alpha="34.577498341936618" sparseCutoff="1.0000000000000000"/>
      <sparseX i="422" alpha="-2.3919017487259508" sparseCutoff="1.0000000000000000"/>
      <sparseX i="423" alpha="64.572355566410877" sparseCutoff="1.0000000000000000"/>
      <sparseX i="424" alpha="64.028645644110767" sparseCutoff="1.0000000000000000"/>
      <sparseX i="425" alpha="-121.49214942641473" sparseCutoff="1.0000000000000000"/>
      <sparseX i="426" alpha="-21.765794020823332" sparseCutoff="1.0000000000000000"/>
      <sparseX i="427" alpha="-8.8268531511598098" sparseCutoff="1.0000000000000000"/>
      <sparseX i="428" alpha="-46.463481297683494" sparseCutoff="1.0000000000000000"/>
      <sparseX i="429" alpha="21.999763780034758" sparseCutoff="1.0000000000000000"/>
      <sparseX i="430" alpha="24.862715157582542" sparseCutoff="1.0000000000000000"/>
      <sparseX i="431" alpha="-6.7494011940002165" sparseCutoff="1.0000000000000000"/>
      <sparseX i="432" alpha="-9.5065011482762642" sparseCutoff="1.0000000000000000"/>
      <sparseX i="433" alpha="-32.503778836141741" sparseCutoff="1.0000000000000000"/>
      <sparseX i="434" alpha="-36.546666786350983" sparseCutoff="1.0000000000000000"/>
      <sparseX i="435" alpha="-75.800213533271119" sparseCutoff="1.0000000000000000"/>
      <sparseX i="436" alpha="-44.223551153002269" sparseCutoff="1.0000000000000000"/>
      <sparseX i="437" alpha="-69.971811559854615" sparseCutoff="1.0000000000000000"/>
      <sparseX i="438" alpha="-19.625257378231485" sparseCutoff="1.0000000000000000"/>
      <sparseX i="439" alpha="-13.256429103427863" sparseCutoff="1.0000000000000000"/>
      <sparseX i="440" alpha="56.401074485527211" sparseCutoff="1.0000000000000000"/>
      <sparseX i="441" alpha="-40.728920885581715" sparseCutoff="1.0000000000000000"/>
      <sparseX i="442" alpha="-24.853724661803376" sparseCutoff="1.0000000000000000"/>
      <sparseX i="443" alpha="-33.184951127123362" sparseCutoff="1.0000000000000000"/>
      <sparseX i="444" alpha="-99.511704711172897" sparseCutoff="1.0000000000000000"/>
      <sparseX i="445" alpha="80.160622217180943" sparseCutoff="1.0000000000000000"/>
      <sparseX i="446" alpha="-13.634024580467699" sparseCutoff="1.0000000000000000"/>
      <sparseX i="447" alpha="21.685623271471563" sparseCutoff="1.0000000000000000"/>
      <sparseX i="448" alpha="-47.147361476028564" sparseCutoff="1.0000000000000000"/>
      <sparseX i="449" alpha="33.333301592773530" sparseCutoff="1.0000000000000000"/>
      <sparseX i="450" alpha="-32.875388253570030" sparseCutoff="1.0000000000000000"/>
      <sparseX i="451" alpha="49.810821512241702" sparseCutoff="1.0000000000000000"/>
      <sparseX i="452" alpha="8.8277042925122480" sparseCutoff="1.0000000000000000"/>
      <sparseX i="453" alpha="-12.274320875950261" sparseCutoff="1.0000000000000000"/>
      <sparseX i="454" alpha="21.378919270733565" sparseCutoff="1.0000000000000000"/>
      <sparseX i="455" alpha="59.312430477500961" sparseCutoff="1.0000000000000000"/>
      <sparseX i="456" alpha="98.102215649643583" sparseCutoff="1.0000000000000000"/>
      <sparseX i="457" alpha="95.896284835631576" sparseCutoff="1.0000000000000000"/>
      <sparseX i="458" alpha="37.471633037348731" sparseCutoff="1.0000000000000000"/>
      <sparseX i="459" alpha="10.522968609769606" sparseCutoff="1.0000000000000000"/>
      <sparseX i="460" alpha="-79.830085449354584" sparseCutoff="1.0000000000000000"/>
      <sparseX i="461" alpha="-38.126295517662832" sparseCutoff="1.0000000000000000"/>
      <sparseX i="462" alpha="1.7933432749764235" sparseCutoff="1.0000000000000000"/>
      <sparseX i="463" alpha="29.761316477370325" sparseCutoff="1.0000000000000000"/>
      <sparseX i="464" alpha="-70.074586755001349" sparseCutoff="1.0000000000000000"/>
      <sparseX i="465" alpha="45.765595040871503" sparseCutoff="1.0000000000000000"/>
      <sparseX i="466" alpha="3.3492744322698678" sparseCutoff="1.0000000000000000"/>
      <sparseX i="467" alpha="2.1942891078463020" sparseCutoff="1.0000000000000000"/>
      <sparseX i="468" alpha="-105.47621520764486" sparseCutoff="1.0000000000000000"/>
      <sparseX i="469" alpha="109.60187097120141" sparseCutoff="1.0000000000000000"/>
      <sparseX i="470" alpha="-32.985817713667601" sparseCutoff="1.0000000000000000"/>
      <sparseX i="471" alpha="-25.088558724109770" sparseCutoff="1.0000000000000000"/>
      <sparseX i="472" alpha="-78.530555838540295" sparseCutoff="1.0000000000000000"/>
      <sparseX i="473" alpha="-46.813034992047434" sparseCutoff="1.0000000000000000"/>
      <sparseX i="474" alpha="20.139373886860728" sparseCutoff="1.0000000000000000"/>
      <sparseX i="475" alpha="107.73196869330201" sparseCutoff="1.0000000000000000"/>
      <sparseX i="476" alpha="-30.645601503685622" sparseCutoff="1.0000000000000000"/>
      <sparseX i="477" alpha="-76.265378503660699" sparseCutoff="1.0000000000000000"/>
      <sparseX i="478" alpha="23.483314526232160" sparseCutoff="1.0000000000000000"/>
      <sparseX i="479" alpha="-24.727598328266662" sparseCutoff="1.0000000000000000"/>
      <sparseX i="480" alpha="-79.436107020845981" sparseCutoff="1.0000000000000000"/>
      <sparseX i="481" alpha="55.244118281710222" sparseCutoff="1.0000000000000000"/>
      <sparseX i="482" alpha="-10.172629318865557" sparseCutoff="1.0000000000000000"/>
      <sparseX i="483" alpha="44.789616553780718" sparseCutoff="1.0000000000000000"/>
      <sparseX i="484" alpha="-28.285039370180730" sparseCutoff="1.0000000000000000"/>
      <sparseX i="485" alpha="-27.212419107190154" sparseCutoff="1.0000000000000000"/>
      <sparseX i="486" alpha="100.10382510431897" sparseCutoff="1.0000000000000000"/>
      <sparseX i="487" alpha="-3.6030831077793595" sparseCutoff="1.0000000000000000"/>
      <sparseX i="488" alpha="10.142649295718575" sparseCutoff="1.0000000000000000"/>
      <sparseX i="489" alpha="47.900705009739525" sparseCutoff="1.0000000000000000"/>
      <sparseX i="490" alpha="-9.0976031096982783" sparseCutoff="1.0000000000000000"/>
      <sparseX i="491" alpha="-118.55450702204054" sparseCutoff="1.0000000000000000"/>
      <sparseX i="492" alpha="26.272212058789574" sparseCutoff="1.0000000000000000"/>
      <sparseX i="493" alpha="-46.179386913465805" sparseCutoff="1.0000000000000000"/>
      <sparseX i="494" alpha="53.823638190859981" sparseCutoff="1.0000000000000000"/>
      <sparseX i="495" alpha="-61.503040853627247" sparseCutoff="1.0000000000000000"/>
      <sparseX i="496" alpha="132.68817914171868" sparseCutoff="1.0000000000000000"/>
      <sparseX i="497" alpha="2.2657208116308873" sparseCutoff="1.0000000000000000"/>
      <sparseX i="498" alpha="-39.303972258147219" sparseCutoff="1.0000000000000000"/>
      <sparseX i="499" alpha="6.8724198700635570" sparseCutoff="1.0000000000000000"/>
      <sparseX i="500" alpha="-12.235605600545616" sparseCutoff="1.0000000000000000"/>
    </gpCoordinates>
    <gpCoordinates label="GAP_2020_12_9_-360_0_11_59_7255" dimensions="331" signal_variance=".41999999999999998" signal_mean=".00000000000000000E+000" sparsified="T" n_permutations="1" covariance_type="2" zeta="4.0000000000000000" n_sparseX="500" sparseX_filename="gap_LiCl.xml.sparseX.GAP_2020_12_9_-360_0_11_59_7255" sparseX_md5sum="867fc98caf04909ed4e13e6413a01e9b">
      <descriptor> soap cutoff=6.7 n_sparse=500 covariance_type=dot_product sparse_method=cur_points delta=0.42 zeta=4 l_max=5 n_max=5 atom_sigma=0.5 cutoff_transition_width=1.0             n_species=2 Z=17 species_Z={3 17 }</descriptor>
      <permutation i="1">1  </permutation>
      <sparseX i="1" alpha="-111.85303034868883" sparseCutoff="1.0000000000000000"/>
      <sparseX i="2" alpha="-43.402255534009953" sparseCutoff="1.0000000000000000"/>
      <sparseX i="3" alpha="-62.811594269077204" sparseCutoff="1.0000000000000000"/>
      <sparseX i="4" alpha="-1.9405195245044498" sparseCutoff="1.0000000000000000"/>
      <sparseX i="5" alpha="1.1721987848361426" sparseCutoff="1.0000000000000000"/>
      <sparseX i="6" alpha="15.782578980338814" sparseCutoff="1.0000000000000000"/>
      <sparseX i="7" alpha="113.16161254903089" sparseCutoff="1.0000000000000000"/>
      <sparseX i="8" alpha="33.693672813118376" sparseCutoff="1.0000000000000000"/>
      <sparseX i="9" alpha="-86.994013497065652" sparseCutoff="1.0000000000000000"/>
      <sparseX i="10" alpha="16.748233782677982" sparseCutoff="1.0000000000000000"/>
      <sparseX i="11" alpha="184.63516364301685" sparseCutoff="1.0000000000000000"/>
      <sparseX i="12" alpha="-20.239147234425197" sparseCutoff="1.0000000000000000"/>
      <sparseX i="13" alpha="23.002002874160592" sparseCutoff="1.0000000000000000"/>
      <sparseX i="14" alpha="26.505436016849906" sparseCutoff="1.0000000000000000"/>
      <sparseX i="15" alpha="3.6505254757034917" sparseCutoff="1.0000000000000000"/>
      <sparseX i="16" alpha="135.05052152463097" sparseCutoff="1.0000000000000000"/>
      <sparseX i="17" alpha="-38.759227835986053" sparseCutoff="1.0000000000000000"/>
      <sparseX i="18" alpha="-211.32131136276166" sparseCutoff="1.0000000000000000"/>
      <sparseX i="19" alpha=".55486859514609899" sparseCutoff="1.0000000000000000"/>
      <sparseX i="20" alpha="3.8768158466757274" sparseCutoff="1.0000000000000000"/>
      <sparseX i="21" alpha="-111.31294159393811" sparseCutoff="1.0000000000000000"/>
      <sparseX i="22" alpha="-74.104089058216104" sparseCutoff="1.0000000000000000"/>
      <sparseX i="23" alpha="48.198043069600715" sparseCutoff="1.0000000000000000"/>
      <sparseX i="24" alpha="-205.93888968107669" sparseCutoff="1.0000000000000000"/>
      <sparseX i="25" alpha="-25.485792312401983" sparseCutoff="1.0000000000000000"/>
      <sparseX i="26" alpha="57.204170530884127" sparseCutoff="1.0000000000000000"/>
      <sparseX i="27" alpha="-14.460697785504305" sparseCutoff="1.0000000000000000"/>
      <sparseX i="28" alpha="55.427215046692289" sparseCutoff="1.0000000000000000"/>
      <sparseX i="29" alpha="-84.666527427738146" sparseCutoff="1.0000000000000000"/>
      <sparseX i="30" alpha="-9.5433000850188812" sparseCutoff="1.0000000000000000"/>
      <sparseX i="31" alpha="-40.797338922073401" sparseCutoff="1.0000000000000000"/>
      <sparseX i="32" alpha="-55.385543100749501" sparseCutoff="1.0000000000000000"/>
      <sparseX i="33" alpha="38.061212657717178" sparseCutoff="1.0000000000000000"/>
      <sparseX i="34" alpha="-275.63068844660205" sparseCutoff="1.0000000000000000"/>
      <sparseX i="35" alpha="19.879694840732704" sparseCutoff="1.0000000000000000"/>
      <sparseX i="36" alpha="-10.327150780166360" sparseCutoff="1.0000000000000000"/>
      <sparseX i="37" alpha="-75.925992167783448" sparseCutoff="1.0000000000000000"/>
      <sparseX i="38" alpha="166.66063859193926" sparseCutoff="1.0000000000000000"/>
      <sparseX i="39" alpha="-42.633403600208155" sparseCutoff="1.0000000000000000"/>
      <sparseX i="40" alpha="218.47306666566445" sparseCutoff="1.0000000000000000"/>
      <sparseX i="41" alpha="-47.274293607727465" sparseCutoff="1.0000000000000000"/>
      <sparseX i="42" alpha="236.67117390782929" sparseCutoff="1.0000000000000000"/>
      <sparseX i="43" alpha="-85.344457793937721" sparseCutoff="1.0000000000000000"/>
      <sparseX i="44" alpha="248.19292315682316" sparseCutoff="1.0000000000000000"/>
      <sparseX i="45" alpha="-31.576809525150580" sparseCutoff="1.0000000000000000"/>
      <sparseX i="46" alpha="-33.963205756313187" sparseCutoff="1.0000000000000000"/>
      <sparseX i="47" alpha="72.984846429202676" sparseCutoff="1.0000000000000000"/>
      <sparseX i="48" alpha="-20.113985077912108" sparseCutoff="1.0000000000000000"/>
      <sparseX i="49" alpha="-45.390542223558292" sparseCutoff="1.0000000000000000"/>
      <sparseX i="50" alpha="-32.808838886361201" sparseCutoff="1.0000000000000000"/>
      <sparseX i="51" alpha="106.82505606244294" sparseCutoff="1.0000000000000000"/>
      <sparseX i="52" alpha="-133.94481132329571" sparseCutoff="1.0000000000000000"/>
      <sparseX i="53" alpha="101.69572557440910" sparseCutoff="1.0000000000000000"/>
      <sparseX i="54" alpha="94.766652813962324" sparseCutoff="1.0000000000000000"/>
      <sparseX i="55" alpha="-2.6401691996279504" sparseCutoff="1.0000000000000000"/>
      <sparseX i="56" alpha="23.989709344442421" sparseCutoff="1.0000000000000000"/>
      <sparseX i="57" alpha="60.923914532995035" sparseCutoff="1.0000000000000000"/>
      <sparseX i="58" alpha="-216.45758647313684" sparseCutoff="1.0000000000000000"/>
      <sparseX i="59" alpha="-106.50783897275568" sparseCutoff="1.0000000000000000"/>
      <sparseX i="60" alpha="-3.5573293892903202" sparseCutoff="1.0000000000000000"/>
      <sparseX i="61" alpha="-95.326128932694587" sparseCutoff="1.0000000000000000"/>
      <sparseX i="62" alpha="222.43365348950908" sparseCutoff="1.0000000000000000"/>
      <sparseX i="63" alpha="-39.465372602739833" sparseCutoff="1.0000000000000000"/>
      <sparseX i="64" alpha="-24.368402774876930" sparseCutoff="1.0000000000000000"/>
      <sparseX i="65" alpha="33.905588551147673" sparseCutoff="1.0000000000000000"/>
      <sparseX i="66" alpha="-81.827494143481871" sparseCutoff="1.0000000000000000"/>
      <sparseX i="67" alpha="17.412866922617074" sparseCutoff="1.0000000000000000"/>
      <sparseX i="68" alpha="132.67906047025372" sparseCutoff="1.0000000000000000"/>
      <sparseX i="69" alpha="-34.646220211240447" sparseCutoff="1.0000000000000000"/>
      <sparseX i="70" alpha="-90.924419329453585" sparseCutoff="1.0000000000000000"/>
      <sparseX i="71" alpha="-38.955192086721013" sparseCutoff="1.0000000000000000"/>
      <sparseX i="72" alpha="83.562977230265005" sparseCutoff="1.0000000000000000"/>
      <sparseX i="73" alpha="-34.853896319164527" sparseCutoff="1.0000000000000000"/>
      <sparseX i="74" alpha="-164.72519977878315" sparseCutoff="1.0000000000000000"/>
      <sparseX i="75" alpha="-81.832243905154755" sparseCutoff="1.0000000000000000"/>
      <sparseX i="76" alpha="-47.767692306575348" sparseCutoff="1.0000000000000000"/>
      <sparseX i="77" alpha="139.07925595886272" sparseCutoff="1.0000000000000000"/>
      <sparseX i="78" alpha="42.239765082005555" sparseCutoff="1.0000000000000000"/>
      <sparseX i="79" alpha="-55.619739992248611" sparseCutoff="1.0000000000000000"/>
      <sparseX i="80" alpha="-105.15528743915088" sparseCutoff="1.0000000000000000"/>
      <sparseX i="81" alpha="156.57169136989808" sparseCutoff="1.0000000000000000"/>
      <sparseX i="82" alpha="-149.76636980849247" sparseCutoff="1.0000000000000000"/>
      <sparseX i="83" alpha="86.546898183427771" sparseCutoff="1.0000000000000000"/>
      <sparseX i="84" alpha="-139.97524450208925" sparseCutoff="1.0000000000000000"/>
      <sparseX i="85" alpha="-7.6866691422445879" sparseCutoff="1.0000000000000000"/>
      <sparseX i="86" alpha="79.888436189522807" sparseCutoff="1.0000000000000000"/>
      <sparseX i="87" alpha="-89.402579847485896" sparseCutoff="1.0000000000000000"/>
      <sparseX i="88" alpha="139.99422511168027" sparseCutoff="1.0000000000000000"/>
      <sparseX i="89" alpha="-156.44339272268434" sparseCutoff="1.0000000000000000"/>
      <sparseX i="90" alpha="82.058367162037811" sparseCutoff="1.0000000000000000"/>
      <sparseX i="91" alpha="26.664430250109753" sparseCutoff="1.0000000000000000"/>
      <sparseX i="92" alpha="-115.54428620271892" sparseCutoff="1.0000000000000000"/>
      <sparseX i="93" alpha=".78802367866779222" sparseCutoff="1.0000000000000000"/>
      <sparseX i="94" alpha="-109.42414772692368" sparseCutoff="1.0000000000000000"/>
      <sparseX i="95" alpha="135.84677839567178" sparseCutoff="1.0000000000000000"/>
      <sparseX i="96" alpha="39.284840869935614" sparseCutoff="1.0000000000000000"/>
      <sparseX i="97" alpha="55.096755590018475" sparseCutoff="1.0000000000000000"/>
      <sparseX i="98" alpha="-223.63908413827249" sparseCutoff="1.0000000000000000"/>
      <sparseX i="99" alpha="-33.449673131957738" sparseCutoff="1.0000000000000000"/>
      <sparseX i="100" alpha="-55.985505839916073" sparseCutoff="1.0000000000000000"/>
      <sparseX i="101" alpha="-147.74251695122834" sparseCutoff="1.0000000000000000"/>
      <sparseX i="102" alpha="5.8582566588618663" sparseCutoff="1.0000000000000000"/>
      <sparseX i="103" alpha="144.10151305389576" sparseCutoff="1.0000000000000000"/>
      <sparseX i="104" alpha="-94.528969203040788" sparseCutoff="1.0000000000000000"/>
      <sparseX i="105" alpha="-93.203779810658361" sparseCutoff="1.0000000000000000"/>
      <sparseX i="106" alpha="-7.8663937128573256" sparseCutoff="1.0000000000000000"/>
      <sparseX i="107" alpha="-54.656434430755461" sparseCutoff="1.0000000000000000"/>
      <sparseX i="108" alpha="-65.128100388983427" sparseCutoff="1.0000000000000000"/>
      <sparseX i="109" alpha="-76.945506049150666" sparseCutoff="1.0000000000000000"/>
      <sparseX i="110" alpha="166.96170839957841" sparseCutoff="1.0000000000000000"/>
      <sparseX i="111" alpha="13.430914161317826" sparseCutoff="1.0000000000000000"/>
      <sparseX i="112" alpha="-94.647697566074257" sparseCutoff="1.0000000000000000"/>
      <sparseX i="113" alpha="-23.445036665223732" sparseCutoff="1.0000000000000000"/>
      <sparseX i="114" alpha="3.6401071015247282" sparseCutoff="1.0000000000000000"/>
      <sparseX i="115" alpha="122.67728486372064" sparseCutoff="1.0000000000000000"/>
      <sparseX i="116" alpha="56.557507214905527" sparseCutoff="1.0000000000000000"/>
      <sparseX i="117" alpha="-83.839705089579795" sparseCutoff="1.0000000000000000"/>
      <sparseX i="118" alpha="-61.681188068530744" sparseCutoff="1.0000000000000000"/>
      <sparseX i="119" alpha="-17.075324968791254" sparseCutoff="1.0000000000000000"/>
      <sparseX i="120" alpha="-39.542080526867288" sparseCutoff="1.0000000000000000"/>
      <sparseX i="121" alpha="-20.027019138637439" sparseCutoff="1.0000000000000000"/>
      <sparseX i="122" alpha="43.310442676447636" sparseCutoff="1.0000000000000000"/>
      <sparseX i="123" alpha="85.278088393128883" sparseCutoff="1.0000000000000000"/>
      <sparseX i="124" alpha="-88.760506439056925" sparseCutoff="1.0000000000000000"/>
      <sparseX i="125" alpha="1.4269309479355103" sparseCutoff="1.0000000000000000"/>
      <sparseX i="126" alpha="-160.05725876015390" sparseCutoff="1.0000000000000000"/>
      <sparseX i="127" alpha="-142.88460009566626" sparseCutoff="1.0000000000000000"/>
      <sparseX i="128" alpha="-2.4964464408704514" sparseCutoff="1.0000000000000000"/>
      <sparseX i="129" alpha=".42003519450325356E-001" sparseCutoff="1.0000000000000000"/>
      <sparseX i="130" alpha="-3.5699281747560185" sparseCutoff="1.0000000000000000"/>
      <sparseX i="131" alpha="-40.790919687623571" sparseCutoff="1.0000000000000000"/>
      <sparseX i="132" alpha="54.890103181669168" sparseCutoff="1.0000000000000000"/>
      <sparseX i="133" alpha="-11.131263800379646" sparseCutoff="1.0000000000000000"/>
      <sparseX i="134" alpha="159.94030899383435" sparseCutoff="1.0000000000000000"/>
      <sparseX i="135" alpha="81.432681733688284" sparseCutoff="1.0000000000000000"/>
      <sparseX i="136" alpha="52.214859802576534" sparseCutoff="1.0000000000000000"/>
      <sparseX i="137" alpha="82.131953149490002" sparseCutoff="1.0000000000000000"/>
      <sparseX i="138" alpha="-84.166041523108646" sparseCutoff="1.0000000000000000"/>
      <sparseX i="139" alpha="145.28932514919461" sparseCutoff="1.0000000000000000"/>
      <sparseX i="140" alpha="-64.005104122200322" sparseCutoff="1.0000000000000000"/>
      <sparseX i="141" alpha="-20.489187819499335" sparseCutoff="1.0000000000000000"/>
      <sparseX i="142" alpha="-16.095246414356346" sparseCutoff="1.0000000000000000"/>
      <sparseX i="143" alpha="61.568467190800050" sparseCutoff="1.0000000000000000"/>
      <sparseX i="144" alpha="86.372134518001815" sparseCutoff="1.0000000000000000"/>
      <sparseX i="145" alpha="96.837666760193088" sparseCutoff="1.0000000000000000"/>
      <sparseX i="146" alpha="34.346473756287047" sparseCutoff="1.0000000000000000"/>
      <sparseX i="147" alpha="-9.3763621339957908" sparseCutoff="1.0000000000000000"/>
      <sparseX i="148" alpha="-58.463202759888439" sparseCutoff="1.0000000000000000"/>
      <sparseX i="149" alpha="131.17338474123196" sparseCutoff="1.0000000000000000"/>
      <sparseX i="150" alpha="-9.2349125940292485" sparseCutoff="1.0000000000000000"/>
      <sparseX i="151" alpha="-10.846609837053393" sparseCutoff="1.0000000000000000"/>
      <sparseX i="152" alpha="-17.532788248987600" sparseCutoff="1.0000000000000000"/>
      <sparseX i="153" alpha="-376.52160813969698" sparseCutoff="1.0000000000000000"/>
      <sparseX i="154" alpha="119.71920554186282" sparseCutoff="1.0000000000000000"/>
      <sparseX i="155" alpha="265.81545903296319" sparseCutoff="1.0000000000000000"/>
      <sparseX i="156" alpha="-100.12514688042410" sparseCutoff="1.0000000000000000"/>
      <sparseX i="157" alpha="-30.659065958906918" sparseCutoff="1.0000000000000000"/>
      <sparseX i="158" alpha="-16.388759091376571" sparseCutoff="1.0000000000000000"/>
      <sparseX i="159" alpha="-49.857548561691402" sparseCutoff="1.0000000000000000"/>
      <sparseX i="160" alpha="172.78512042703986" sparseCutoff="1.0000000000000000"/>
      <sparseX i="161" alpha="169.19781866637047" sparseCutoff="1.0000000000000000"/>
      <sparseX i="162" alpha="8.3709195232970810" sparseCutoff="1.0000000000000000"/>
      <sparseX i="163" alpha="80.837434414402082" sparseCutoff="1.0000000000000000"/>
      <sparseX i="164" alpha="-51.179110140712552" sparseCutoff="1.0000000000000000"/>
      <sparseX i="165" alpha="-61.252885930247075" sparseCutoff="1.0000000000000000"/>
      <sparseX i="166" alpha="12.125418525546793" sparseCutoff="1.0000000000000000"/>
      <sparseX i="167" alpha="-4.8643189938892899" sparseCutoff="1.0000000000000000"/>
      <sparseX i="168" alpha="13.146965675988048" sparseCutoff="1.0000000000000000"/>
      <sparseX i="169" alpha="4.5469194378986719" sparseCutoff="1.0000000000000000"/>
      <sparseX i="170" alpha="-14.947940487764400" sparseCutoff="1.0000000000000000"/>
      <sparseX i="171" alpha="101.32905150241486" sparseCutoff="1.0000000000000000"/>
      <sparseX i="172" alpha="27.797851639933604" sparseCutoff="1.0000000000000000"/>
      <sparseX i="173" alpha="-45.929875281862365" sparseCutoff="1.0000000000000000"/>
      <sparseX i="174" alpha="21.829516509841724" sparseCutoff="1.0000000000000000"/>
      <sparseX i="175" alpha="7.0616784528046450" sparseCutoff="1.0000000000000000"/>
      <sparseX i="176" alpha="101.64056742432760" sparseCutoff="1.0000000000000000"/>
      <sparseX i="177" alpha="-21.601152087399413" sparseCutoff="1.0000000000000000"/>
      <sparseX i="178" alpha="-136.60670591036856" sparseCutoff="1.0000000000000000"/>
      <sparseX i="179" alpha="-21.827594813152778" sparseCutoff="1.0000000000000000"/>
      <sparseX i="180" alpha="132.14998512396383" sparseCutoff="1.0000000000000000"/>
      <sparseX i="181" alpha="-109.19340084252583" sparseCutoff="1.0000000000000000"/>
      <sparseX i="182" alpha="49.532739373902231" sparseCutoff="1.0000000000000000"/>
      <sparseX i="183" alpha="-162.22631678439495" sparseCutoff="1.0000000000000000"/>
      <sparseX i="184" alpha="-150.46265581770982" sparseCutoff="1.0000000000000000"/>
      <sparseX i="185" alpha="-112.62382453728648" sparseCutoff="1.0000000000000000"/>
      <sparseX i="186" alpha="-238.50985679327530" sparseCutoff="1.0000000000000000"/>
      <sparseX i="187" alpha="135.12376841410716" sparseCutoff="1.0000000000000000"/>
      <sparseX i="188" alpha="228.77861559022463" sparseCutoff="1.0000000000000000"/>
      <sparseX i="189" alpha="82.214315394405858" sparseCutoff="1.0000000000000000"/>
      <sparseX i="190" alpha="-39.791075575505189" sparseCutoff="1.0000000000000000"/>
      <sparseX i="191" alpha="121.02452881945835" sparseCutoff="1.0000000000000000"/>
      <sparseX i="192" alpha="65.052159303044206" sparseCutoff="1.0000000000000000"/>
      <sparseX i="193" alpha="7.7858930766081409" sparseCutoff="1.0000000000000000"/>
      <sparseX i="194" alpha="-214.32799522463321" sparseCutoff="1.0000000000000000"/>
      <sparseX i="195" alpha="-102.63117577663712" sparseCutoff="1.0000000000000000"/>
      <sparseX i="196" alpha="25.336730223220744" sparseCutoff="1.0000000000000000"/>
      <sparseX i="197" alpha="-56.234323903053138" sparseCutoff="1.0000000000000000"/>
      <sparseX i="198" alpha="19.587730729403297" sparseCutoff="1.0000000000000000"/>
      <sparseX i="199" alpha="31.162293626650516" sparseCutoff="1.0000000000000000"/>
      <sparseX i="200" alpha="-97.883387043953775" sparseCutoff="1.0000000000000000"/>
      <sparseX i="201" alpha="121.97434032034811" sparseCutoff="1.0000000000000000"/>
      <sparseX i="202" alpha="-39.515010437106923" sparseCutoff="1.0000000000000000"/>
      <sparseX i="203" alpha="-3.3802141883750489" sparseCutoff="1.0000000000000000"/>
      <sparseX i="204" alpha="-58.452642782196129" sparseCutoff="1.0000000000000000"/>
      <sparseX i="205" alpha="-9.3830347394133451" sparseCutoff="1.0000000000000000"/>
      <sparseX i="206" alpha="-199.40592635106799" sparseCutoff="1.0000000000000000"/>
      <sparseX i="207" alpha="177.50287047814328" sparseCutoff="1.0000000000000000"/>
      <sparseX i="208" alpha="353.49757718018657" sparseCutoff="1.0000000000000000"/>
      <sparseX i="209" alpha="-145.98813780238277" sparseCutoff="1.0000000000000000"/>
      <sparseX i="210" alpha="-16.027738494755543" sparseCutoff="1.0000000000000000"/>
      <sparseX i="211" alpha="158.76962210509782" sparseCutoff="1.0000000000000000"/>
      <sparseX i="212" alpha="100.42828970810581" sparseCutoff="1.0000000000000000"/>
      <sparseX i="213" alpha="201.55062990543706" sparseCutoff="1.0000000000000000"/>
      <sparseX i="214" alpha="-71.358340902358023" sparseCutoff="1.0000000000000000"/>
      <sparseX i="215" alpha="-147.21252114863157" sparseCutoff="1.0000000000000000"/>
      <sparseX i="216" alpha="16.489421587831185" sparseCutoff="1.0000000000000000"/>
      <sparseX i="217" alpha="15.628573451663867" sparseCutoff="1.0000000000000000"/>
      <sparseX i="218" alpha="34.921943401876383" sparseCutoff="1.0000000000000000"/>
      <sparseX i="219" alpha="-116.99515891677343" sparseCutoff="1.0000000000000000"/>
      <sparseX i="220" alpha="14.550162332911581" sparseCutoff="1.0000000000000000"/>
      <sparseX i="221" alpha="51.053686898503734" sparseCutoff="1.0000000000000000"/>
      <sparseX i="222" alpha="-102.01380363836692" sparseCutoff="1.0000000000000000"/>
      <sparseX i="223" alpha="-77.486075187671645" sparseCutoff="1.0000000000000000"/>
      <sparseX i="224" alpha="-31.979708567873004" sparseCutoff="1.0000000000000000"/>
      <sparseX i="225" alpha="69.196323271897853" sparseCutoff="1.0000000000000000"/>
      <sparseX i="226" alpha="-3.7076826783015582" sparseCutoff="1.0000000000000000"/>
      <sparseX i="227" alpha="-28.419409641721849" sparseCutoff="1.0000000000000000"/>
      <sparseX i="228" alpha="60.596264635268895" sparseCutoff="1.0000000000000000"/>
      <sparseX i="229" alpha="-18.760959714262430" sparseCutoff="1.0000000000000000"/>
      <sparseX i="230" alpha="-48.466366245040568" sparseCutoff="1.0000000000000000"/>
      <sparseX i="231" alpha="-13.974876954969318" sparseCutoff="1.0000000000000000"/>
      <sparseX i="232" alpha="21.910402234254729" sparseCutoff="1.0000000000000000"/>
      <sparseX i="233" alpha="-62.416732111191642" sparseCutoff="1.0000000000000000"/>
      <sparseX i="234" alpha="-23.403930423953341" sparseCutoff="1.0000000000000000"/>
      <sparseX i="235" alpha="-52.528998195838767" sparseCutoff="1.0000000000000000"/>
      <sparseX i="236" alpha="22.120460679510217" sparseCutoff="1.0000000000000000"/>
      <sparseX i="237" alpha="98.497078336180820" sparseCutoff="1.0000000000000000"/>
      <sparseX i="238" alpha="76.444327886253447" sparseCutoff="1.0000000000000000"/>
      <sparseX i="239" alpha="-31.304570811177523" sparseCutoff="1.0000000000000000"/>
      <sparseX i="240" alpha="16.359210654028022" sparseCutoff="1.0000000000000000"/>
      <sparseX i="241" alpha="79.347653971424393" sparseCutoff="1.0000000000000000"/>
      <sparseX i="242" alpha="110.35692593328372" sparseCutoff="1.0000000000000000"/>
      <sparseX i="243" alpha="131.30499688383455" sparseCutoff="1.0000000000000000"/>
      <sparseX i="244" alpha="13.120139003961606" sparseCutoff="1.0000000000000000"/>
      <sparseX i="245" alpha="81.916402897940969" sparseCutoff="1.0000000000000000"/>
      <sparseX i="246" alpha="-74.641286610323164" sparseCutoff="1.0000000000000000"/>
      <sparseX i="247" alpha="65.005371892752578" sparseCutoff="1.0000000000000000"/>
      <sparseX i="248" alpha="12.454856995687498" sparseCutoff="1.0000000000000000"/>
      <sparseX i="249" alpha="-48.875757335908951" sparseCutoff="1.0000000000000000"/>
      <sparseX i="250" alpha="-12.687693552000230" sparseCutoff="1.0000000000000000"/>
      <sparseX i="251" alpha="17.859460222745714" sparseCutoff="1.0000000000000000"/>
      <sparseX i="252" alpha="64.567121734209067" sparseCutoff="1.0000000000000000"/>
